#include<math.h>
#include<time.h>
#include<stdio.h>

float lifetimeDataStorage[14*600]; //enough space to hold the engine data over its lifetime

float layer1Weights[] = {0.108282425, -0.10557812, 0.058047246, 0.11814097, -0.1087532, -0.022893986, -0.073437154, -0.06839214, 0.12916034, 0.012830553, -0.027782392, -0.088192426, -0.01749454, 0.06255636, -0.07421415, -0.07380867, -0.090540744, -0.043333672, -0.105249956, -0.11261288, 0.04734007, -0.054183107, -0.04528563, 0.06427445, 0.08792164, -0.093717344, -0.09991005, 0.066287324, 0.01523291, 0.00052689586, 0.0124080395, 0.02829414, 0.12200896, 0.087764785, -0.09190086, -0.063535415, -0.07321576, 0.08601032, 0.009537208, 0.061371427, 0.029900614, -0.028443892, -0.065473005, -0.086220644, 0.07765752, -0.09704195, 0.06778368, -0.026582828, 0.13067573, -0.01670467, 0.09048788, 0.1127343, -0.057112627, -0.09104789, 0.05486772, -0.037543725, -0.033689816, -0.029972613, -0.09776864, 0.12985688, -0.081648625, 0.099287875, 0.11846624, 0.11878, -0.013994102, -0.027805552, 0.052476462, -0.035113215, 0.0019038939, 0.022791648, -0.0021133123, 0.097064786, 0.06251191, -0.062037595, 0.102008626, 0.0138312485, 0.03795098, 0.046210453, -0.01135509, -0.0046059527, -0.08413179, 0.12854217, 0.11576831, 0.05099993, -0.010135051, 0.018617341, 0.026641414, 0.06463078, -0.046541274, 0.011332184, 0.04067277, -0.06775476, 0.047163624, -0.043084815, 0.08128485, -0.04566757, 0.092329934, -0.060739733, -0.060645144, 0.11927461, -0.034515392, 0.12103831, 0.06948839, -0.06203057, -0.10232817, 0.021330325, 0.019806191, 0.06431299, 0.12969512, 0.12853609, -0.0016328695, 0.02764754, -0.07374377, -0.050674647, -0.067439474, 0.11155696, -0.046622615, 0.02772765, -0.09809654, -0.008592649, 0.10547944, -0.072565705, -0.022435004, 0.032962758, -0.10656565, -0.0224302, 0.04033716, 0.035793252, -0.009163939, 0.0715393, -0.06731503, 0.11201022, 0.024968991, -0.11905015, 0.107367896, -9.6650765e-05, 0.050042868, 0.038908172, -0.018466223, 0.005190083, 0.0002026223, 0.03621065, -0.061756574, -0.016382448, -0.078672506, 0.11217376, -0.111578465, 0.10989464, -0.03937504, 0.032593187, 0.09530884, 0.095125146, 0.098760515, 0.08971039, -0.042022686, -0.03726596, 0.05911624, -0.104021385, -0.072047144, 0.07342821, -0.122091144, -0.01932501, -0.029362755, 0.030303024, 0.003677847, 0.091411695, -0.120933, 0.047769494, 0.1278069, 0.049742848, -0.026222035, -0.011722565, -0.10467028, -0.07933849, -0.11656357, -0.04177995, -0.11152395, 0.08148019, -0.037552938, -0.04809904, -0.10953558, -0.005655296, 0.04865609, -0.10851528, -0.060819075, 0.008321241, 0.052300215, 0.06512962, 0.03494507, 0.056432664, -0.032220066, 0.056934267, 0.038756542, -0.033040747, -0.09269114, 0.08395595, 0.0849809, -0.09882676, -0.034637827, -0.13084306, -0.028601144, 0.0070594396, -0.0008319439, -0.11069156, -0.039654527, 0.0691797, -0.12779914, -0.002789928, 0.0081973225, 0.10903271, -0.1305449, 0.01849749, 0.10592704, 0.011493521, -0.024429101, -0.08074431, 0.069777004, 0.08161546, -0.09630461, -0.094914354, 0.123055026, 0.0409504, -0.061391525, 0.03003971, 0.04969095, -0.0021540402, 0.06283678, -0.06998872, 0.045654412, -0.004964045, 0.08290435, 0.04417927, -0.07505203, -0.07272565, -0.07907301, -0.1309904, 0.0054783872, 0.045316957, -0.08851079, -0.10596264, -0.1317118, -0.099564284, 0.0931639, 0.10474553, 0.11494617, -0.079413466, -0.13248526, -0.050440796, 0.049850896, -0.11274, -0.13311967, 0.02655596, 0.09308864, 0.04234585, 0.03130862, -0.10797819, 0.0318762, 0.06361774, 0.013369252, 0.12227988, 0.10660378, -0.08720813, -0.070223324, -0.07048424, 0.11067085, -0.12621889, -0.10788873, -0.11757985, -0.017022962, -0.03527354, 0.040151425, -0.11203868, -0.028721966, 0.03319076, -0.03374006, -0.042703602, 0.0032811235, -0.08174349, 0.0323291, -0.06081749, -0.01987622, -0.011369303, 0.1188711, 0.08332764, -0.10947754, -0.10978141, -0.10805982, 0.052065406, 0.090433285, -0.030868964, 0.043433715, -0.1020811, 0.12168451, -0.0259669, -0.023280976, 0.009336173, -0.08053458, -0.08697138, -0.016110277, 0.04116469, 0.0872669, 0.0015804983, -0.10505338, -0.061122093, -0.1152423, -0.082001194, 0.11030545, -0.013888111, 0.10625455, 0.016128128, 0.040751506, -0.03419506, 0.08528844, -0.11141771, -0.0033197778, -0.05258056, 0.114500046, 0.05462808, 0.05352849, -0.052099384, 0.00301259, -0.052394297, 0.0445799, 0.07171538, -0.005460689, -0.095648974, -0.13386723, 0.015702251, 0.020477097, -0.11238168, 0.12024789, -0.12667206, -0.03487523, -0.038840506, 0.10088919, 0.022337465, -0.019153617, -0.10440078, 0.04942371, -0.024166197, 0.10846338, 0.027894437, 0.07996684, 0.07762794, 0.07996765, 0.0319449, -0.049857773, 0.019252822, -0.027815208, -0.06635567, -0.10654007, 0.018172592, -0.08589687, 0.028171524, 0.087708384, 0.042002246, 0.09989455, 0.036272824, -0.088864684, -0.047636524, 0.04367958, 0.045537814, 0.0064349174, 0.072095245, -0.07303019, 0.008646548, 0.0008661896, 0.03722775, 0.0559451, 0.009615406, 0.06818479, -0.05524069, -0.06845364, 0.055425227, 0.036310986, -0.017988704, -0.05328179, -0.10325898, 0.007576242, 0.02942358, 0.11406781, 0.063768625, -0.07248813, 0.06657258, -0.016086169, -0.0148482695, 0.02531752, 0.12705028, -0.046349533, -0.06781448, 0.08854963, -0.12347797, 0.09125711, -0.0012117475, -0.046273984, 0.070930466, -0.004426658, -0.07237595, -0.031192891, 0.014937758, 0.03374681, -0.11220793, 0.026023567, 0.03037408, -0.005352773, 0.12447381, 0.11001293, 0.022129074, 0.065276146, 0.019840539, -0.029275186, 0.033412814, 0.0546609, 0.08132732, -0.12533377, 0.12199983, -0.037416868, 0.06929436, 0.025736734, 0.11443035, -0.11668785, -0.0044602603, 0.050110847, -0.10107073, -0.077467486, 0.09791154, 0.07027498, -0.11246632, 0.114491954, -0.061780885, 0.07392332, 0.0009005815, -0.1147326, -0.1164385, 0.068090945, -0.0019988567, 0.095161125, 0.11197978, -0.06676591, 0.010966837, 0.028577402, 0.029652894, 0.10615948, -0.07920867, -0.0063277036, 0.09799266, -0.042451113, -0.057529792, 0.1048433, -0.07783075, 0.06061621, -0.007711388, -0.1271892, -0.074335225, -0.052970722, 0.035330415, -0.05435308, -0.1049542, 0.055425048, -0.10791821, -0.07199769, 0.06725715, -0.11307979, -0.0681521, -0.02901163, -0.00792183, 0.05948983, 0.10205655, -0.093561426, -0.09435356, 0.07709037, -0.12794502, 0.047243863, 0.11297205, -0.01288151, 0.095860496, -0.12504852, -0.040187053, -0.115259595, -0.10627028, 0.024068788, 0.05077052, 0.028963462, 0.053379446, -0.041128278, -0.03710574, 0.122673064, -0.018531576, 0.0038431138, -0.075044185, -0.012633614, -0.09816277, -0.01715383, 0.096351326, 0.032387212, -0.0840628, -0.068081655, 0.06799437, -0.09163903, -0.031926796, -0.06255552, 0.025949568, -0.00958322, -0.090697706, 0.06307484, -0.068947196, -0.02441001, 0.053445786, -0.10780418, -0.00825949, -0.05719687, 0.03411533, -0.068290174, 0.118763715, 0.019312218, -0.020429619, -0.0009367317, -0.07231538, -0.12880825, 0.059313342, -0.01018855, 0.04138215, 0.07532628, -0.036984652, -0.053697236, -0.013778344, 0.07873477, -0.10070685, -0.0069474876, 0.07554434, 0.12213975, -0.017368734, -0.08312851, 0.099957004, -0.07139375, -0.046914443, -0.0054503605, 0.04330942, -0.01036974, 0.04302849, 0.08633661, -0.09752584, -0.010941766, -0.057557955, 0.024034023, -0.11082697, -0.084971994, -0.0028556734, -0.043075077, -0.09877532, -0.11683917, 0.116364345, -0.082522035, 0.008980513, 0.087199375, 0.06814049, 0.043368474, -0.06760991, 0.106915206, -0.007182382, 0.036885083, 0.021275982, 0.11599192, -0.12815076, 0.108075604, -0.12882078, -0.11418401, -0.09085473, 0.07419214, -0.07165124, 0.05977927, 0.029407322, -0.07515639, 0.042020872, 0.06724778, -0.010164283, 0.10997823, -0.09891664, 0.0845187, -0.061048336, 0.045331582, -0.0063251033, 0.109651595, -0.030768663, -0.11257938, -0.11927248, 0.08755353, 0.1072641, -0.06481874, -0.056323335, 0.0050607026, -0.040324636, 0.04313287, 0.09966767, 0.027853921, -0.110844955, -0.015530981, 0.077263385, -0.1286463, -0.08192912, 0.10489434, -0.04523798, 0.10377771, -0.1266752, 0.04276392, 0.1246075, 0.10671696, 0.027310684, 0.10280262, -0.0076695383, 0.03869544, -0.018022694, -0.108941175, 0.012049541, -0.025561273, -0.12227688, -0.09817673, -0.076885864, -0.094577834, -0.04330948, -0.005834356, 0.12647831, 0.027821153, 0.09182607, 0.07901801, -0.03361787, -0.009589717, -0.09399776, 0.12923893, -0.050269626, 0.12022802, 0.04925841, 0.034748644, 0.0794272, 0.0370629, -0.024396755, 0.007320583, -0.0007838607, -0.060099527, -0.009869248, -0.12505233, 0.053020343, 0.068327636, -0.11066998, 0.02556929, -0.10785751, 0.02437751, 0.051188007, 0.080186576, -0.11313188, 0.01286374, 0.116978586, -0.016369969, -0.013624363, 0.11308883, -0.09613634, -0.041239463, 0.050630152, -0.038416997, 0.010306537, 0.12906948, -0.0998662, -0.03943198, -0.06012027, 0.0007824451, -0.11676987, 0.07018834, -0.11372539, 0.098418415, 0.089420274, 0.0032366365, -0.0923937, 0.042167008, 0.0031039715, -0.040318884, 0.012283266, 0.06942706, -0.085298076, -0.07344631, 0.08904189, -0.119588286, -0.058101356, 0.06482366, -0.11423895, -0.019036837, -0.10421822, 0.07724485, 0.040193304, -0.016178966, -0.0349043, -0.071086556, 0.110648125, 0.08744998, -0.110057965, 0.0776892, 0.038474098, -0.055661984, -0.09883344, -0.011353992, 0.035653308, -0.10238694, 0.040907413, -0.079335265, -0.10833968, -0.0818436, 0.08205837, -0.108232714, 0.05419928, 0.052307546, 0.10538401, 0.018155634, 0.052785322, -0.0018049777, -0.07235565, 0.101174384, -0.119951844, -0.07479994, 0.07217096, 0.12917879, 0.036215365, 0.0760908, 0.014691472, 0.054747045, -0.10207299, -0.06868336, 0.049738824, -0.09968788, -0.0014304221, -0.052629046, -0.110476896, 0.009518281, -0.030832015, -0.0120018795, 0.09468527, 0.009239301, 0.042674124, -0.03831798, 0.030653179, 0.12250328, 0.03841728, 0.056574583, 0.12911081, -0.017074846, 0.05750048, 0.04374045, 0.08271444, 0.090454176, -0.099645846, -0.028773516, -0.09008835, -0.07094677, 0.1259684, 0.10479306, 0.0062488317, 0.08015804, -0.07382232, 0.12967879, 0.055373415, -0.10152498, -0.10161115, 0.077367574, 0.02024211, -0.07574147, -0.10338329, 0.035546303, 0.0803718, 0.047872752, 0.009394318, 0.09482515, -0.02772034, 0.022486389, 0.09468183, -0.12738559, -0.03499084, 0.114744365, 0.1275366, -0.11380992, 0.024214268, 0.031499073, -0.08791127, 0.029109105, -0.043563068, -0.04387717, 0.08014107, 0.10674797, 0.0011627823, 0.07426289, -0.07617088, -0.022779264, -0.051642694, -0.09669787, -0.09502837, -0.114336446, -0.06253593, 0.11037083, 0.069932684, 0.12727612, -0.02073054, 0.12415567, -0.013892867, -0.12645343, -0.077198826, 0.07759796, 0.08516711, -0.017164081, 0.03338489, -0.017615326, -0.092445605, 0.031796172, -0.093153134, -0.12765652, 0.08681625, -0.009855598, 0.06595914, 0.07432993, 0.04324466, -0.016113535, -0.119037054, -0.0147553235, 0.12243426, -0.06008675, -0.11860747, 0.041038394, -0.10701855, -0.016005136, 0.046840966, 0.111696005, 0.12099904, 0.06957129, 0.011692166, 0.039517373, -0.048361056, 0.02327384, 0.0783799, 0.11419855, 0.10895018, 0.053798318, -0.10038242, 0.08807482, 0.112455264, -0.06801489, -0.12903936, -0.10221726, 0.013882101, -0.013230212, 0.0072868466, 0.095419884, 0.0053249747, 0.056032047, -0.084234655, -0.059248567, 0.117030546, -0.06000711, -0.049142905, 0.048282564, -0.03593386, 0.050743446, -0.12174757, -0.035840847, 0.03369899, -0.09611031, -0.11842216, -0.124461204, -0.059798643, 0.054983452, 0.081837475, -0.11392064, -0.11198343, -0.04798016, 0.014169425, -0.015870616, -0.12829076, 0.027947247, -0.07184884, 0.10023458, -0.10315025, 0.014582634, 0.027039662, -0.06472081, -0.09229561, -0.076899394, -0.01449839, -0.10432299, 0.04396811, 0.017207101, -0.03675954, 0.105682224, -0.041276693, 0.016984642, -0.07496058, 0.12348795, 0.123944014, -0.019834444, -0.060053907, -0.09629045, -0.013869159, -0.12159364, 0.02875197, 0.05827722, 0.081672, 0.113371015, -0.0187184, 0.03680049, -0.120005675, -0.08604083, -0.08384636, -0.12688531, -0.114766404, 0.017351866, -0.012762129, -0.09386959, -0.11768281, 0.100805774, 0.07441935, 0.1175928, -0.06890179, 0.020143867, 0.063542366, -0.102253996, 0.12519574, -0.095478445, -0.12518317, -0.008411489, -0.11152794, -0.08245203, 0.11704229, -0.11263396, 0.09124097, 0.027708516, -0.027279705, 0.12774602, -0.07491001, -0.071360976, -0.028934777, -0.03836249, 0.0076230764, -0.0050421357, 0.03411375, 0.062130705, -0.06690371, -0.023548976, -0.11352101, 0.12971884, -0.026401438, 0.03266692, -0.111989036, 0.123790145, 0.11259052, 0.068388954, -0.0059111193, 0.07698414, 0.11530602, 0.098909676, -0.03434196, 0.09708966, -0.11251776, -0.09903748, 0.054106608, 0.094107985, 0.0510927, -0.11585694, -0.08497378, -0.09431215, -0.12217288, -0.04401333, -0.11576037, 0.08631021, -0.039114073, -0.07132095, -0.098370776, 0.065243006, 0.12080929, -0.019498609, -0.009243205, -0.08001587, 0.033274084, -0.005495861, -0.013283081, 0.12680295, -0.021078661, 0.08856368, 0.03983392, -0.020401582, 0.06722459, -0.12314877, 0.124926776, -0.050874397, 0.10689382, 0.049072087, 0.11196053, 0.07055353, -0.05290483, 0.059766516, 0.056870133, 0.002183795, -0.0042197704, -0.039515458, 0.11894578, -0.0038380325, 0.019992858, 0.07212016, -0.048764884, -0.07851352, 0.02578865, -0.05343259, -0.006907098, -0.03693922, -0.084128454, 0.07443337, 0.088293254, 0.010057211, -0.11669153, -0.025912143, -0.018974967, -0.035720415, 0.11882888, 0.05876267, -0.03493058, 0.05121562, -0.017190576, 0.104135945, -0.03932479, 0.07376793, -0.11353627, -0.11025293, -0.02563005, 0.035161227, 0.017531484, 0.116200075, 0.10151604, -0.0430843, 0.08423483, -0.09856639, 0.07012521, 0.018197596, 0.108868375, 0.1133855, 0.024749056, 0.023608163, -0.12774104, 0.049087718, 0.080603465, 0.061723337, -0.017533489, -0.08084542, 0.10787688, -0.10066764, -0.042286016, 0.10770981, 0.049684078, -0.11524737, -0.12428084, -0.0715581, -0.07545656, 0.11006394, 0.066445425, 0.080512285, -0.04014533, 0.061545208, -0.107956216, 0.07918787, 0.09457427, -0.032102793, -0.022195749, -0.043993734, -0.01982002, -0.101985954, 0.0541739, -0.028499462, -0.013750367, -0.0506993, 0.09334031, -0.12889448, -0.114379466, 0.0048600137, -0.0871201, 0.12289262, -0.0071691945, 0.10644278, 0.055664584, -0.06855779, 0.11844958, 0.018155321, 0.04520613, -0.09335399, -0.052867778, 0.05353062, -0.11138457, 0.033946857, 0.052579552, -0.05712302, 0.09098506, 0.07230696, -0.029732384, 0.10278575, 0.117692426, 0.08549701, -0.10407367, 0.096868455, 0.065644264, -0.028227396, 0.034133554, -0.04218112, 0.04961613, 0.02852045, 0.04817745, 0.011266738, 0.060683504, -0.019891985, 0.009403825, -0.034680456, 0.09942086, -0.08857986, -0.07373677, -0.01820407, -0.103718966, -0.06304568, 0.12307465, -0.08396047, 0.011448547, 0.12500975, 0.024367422, 0.12333533, -0.08186239, 0.006446004, 0.08083208, 0.08409245, -0.08450109, -0.012615971, -0.07438292, -0.053998433, 0.04179357, -0.02186001, -0.06833568, 0.06498824, -0.090304926, 0.120688945, -0.06047996, 0.027973592, -0.084714934, 0.12567186, 0.11596267, -0.07851014, 0.098321214, 0.097535565, 0.10013932, 0.1166511, -0.061913915, -0.021775886, -0.08012083, 0.019060582, -0.007843457, -0.10251548, 0.11775997, 0.12487632, -0.12122896, -0.05897872, -0.12975715, 0.07428673, 0.09732363, 0.118609205, 0.12755328, 0.088557586, -0.0876196, 0.0481686, -0.070774615, -0.09448538, 0.04292409, -0.10709306, 0.028458267, 0.077703565, -0.043111295, 0.12447634, -0.030252963, -0.062536456, -0.0029315948, 0.0916011, 0.009562224, -0.11069381, -0.06440039, -0.118898794, -0.008168392, 0.042364165, 0.043513328, -0.020758614, -0.0414941, 0.08641362, -0.045487024, 0.059951827, 0.10015869, 0.012986064, 0.07096766, 0.10136595, -0.02819898, 0.06762907, 0.014648169, -0.12294507, -0.06518862, 0.073341236, 0.05248119, 0.12528184, -0.03115946, 0.057443872, -0.023655236, 0.09832589, -0.018091403, 0.08146508, -0.09820627, -0.087930426, -0.11931887, -0.120847195, -0.062073566, -0.002783686, 0.07754955, -0.10369949, -0.00438416, -0.085235864, -0.059384413, 0.05895798, -0.08047691, -0.06651526, 0.040841907, 0.1285896, -0.057038546, 0.06819756, 0.06723502, -0.074312136, 0.124192476, 0.1099595, -0.10688048, -0.0743411, -0.005474843, 0.085853875, 0.06448403, -0.013369963, 0.065738365, -0.112998575, 0.1267083, 0.10635856, 0.07473117, 0.111126214, 0.11718407, -0.050604217, -0.058911838, -0.019071877, -0.106483765, -0.10776781, -0.10618442, -0.0636585, -0.0055940747, 0.0723429, 0.008965507, 0.014872074, -0.085239485, -0.10397475, 0.0018423349, 0.0800917, 0.024647385, -0.083612576, 0.052415535, 0.09658973, 0.0728468, 0.0040976256, 0.014172807, -0.0031697452, -0.10863367, -0.03782101, 0.039084822, 0.06218858, 0.10012415, -0.10043008, 0.10849708, 0.08360313, -0.12353446, 0.04608403, 0.08069228, 0.09815599, -0.0038444996, 0.030188248, -0.07559829, -0.10199285, 0.092402175, 0.054112792, 0.04523006, 0.11354992, 0.047856778, 0.048638657, -0.034724496, -0.008551583, 0.11824028, 0.0704048, 0.053403437, -0.038959153, 0.008244067, -0.10326409, 0.11292367, 0.016377553, 0.001336664, 0.09018721, 0.08942427, -0.10336357, -0.06864458, 0.123639405, 0.11447455, -0.098310545, 0.1254445, -0.026734695, 0.078111455, -0.01400315, -0.02184061, 0.014568344, -0.027552918, 0.12676007, -0.030148998, -0.09801727, -0.108876705, -0.06546648, 0.02948381, -0.11432484, -0.10632448, -0.10216947, -0.017311163, -0.034848243, 0.119721994, 0.0010391325, -0.091062605, -0.04618889, 0.06397669, 0.053927183, -0.12229882, -0.0135094, 0.052728027, 0.10634746, 0.023157403, 0.0768275, -0.1148786, 0.0029555857, -0.013240367, 0.11247365, 0.04504423, -0.049840532, 0.0079340935, 0.08500084, 0.035642937, -0.10028547, -0.11797222, -0.008404935, 0.090064995, 0.10189991, 0.068805404, -0.103556104, 0.05808718, -0.022502618, -0.034001324, 0.082164444, 0.13604936, 0.10742082, -0.11067347, -0.09312047, -0.0082911365, -0.06639271, 0.12412504, 0.017931394, -0.11696782, -0.07365443, 0.13305509, 0.12859353, 0.058120593, 0.07424954, -0.073732905, -0.032249305, 0.06156406, -0.046110813, -0.08490877, 0.13509397, 0.0014211792, 0.10292347, 0.10606503, 0.12453182, -0.08115935, -0.079233065, -0.0746802, -0.02598561, 0.10755568, 0.09773322, -0.024558628, -0.119259275, -0.026165225, 0.04205921, 0.13462126, -0.03544069, 0.030289724, 0.10221766, -0.027309839, -0.0376793, 0.04334397, -0.04698555, 0.06480039, -0.09454972, 0.03946904, 0.058941476, -0.037224885, -0.008460414, 0.02706471, -0.07921834, -0.11071908, 0.081833966, -0.06737838, 0.0673934, 0.11005858, 0.115111776, 0.086647525, 0.0520771, 0.096982956, 0.10332347, -0.0810174, 0.05000061, -0.10446176, 0.12846029, -0.07790094, -0.017193235, -0.07607789, -0.089852065, -0.07257159, -0.036309447, 0.018895637, -0.054615017, -0.009427593, -0.038759593, -0.086232066, 0.080907635, -0.09355585, -0.07978621, 0.015002944, -0.10910585, 0.026324777, -0.015058701, 0.032632835, 0.07350606, -0.06711489, 0.0030540277, -0.046538163, -0.056871675, 0.1015463, -0.06803102, -0.031050839, -0.039605614, 0.06646993, -0.0504551, -0.06811538, 0.0509497, 0.074572675, 0.12424962, 0.10081304, -0.121191904, 0.031275444, -0.07111754, -0.02831118, 0.07930548, 0.04004726, 0.07000023, 0.1327537, 0.09773437, -0.08456665, 0.027818264, 0.03485583, -0.07531498, 0.021980394, 0.012981102, 0.019971278, 0.1124644, -0.08410343, -0.022478256, -0.101596065, 0.034072485, 0.11750194, -0.08418037, 0.026544938, -0.0125285555, -0.023453567, -0.021312967, -0.059893336, 0.041382644, 0.0066146334, 0.0333466, -0.05473376, 0.035257168, 0.046049878, 0.131303, -0.114965156, 0.069202006, 0.010234986, 0.10849443, 0.01780051, -0.003907525, -0.049475767, -0.015001416, -0.048693895, 0.008079569, -0.05661101, 0.11287519, 0.015944693, 0.12257162, -0.052502025, -0.07285128, -0.10342687, 0.0387019, -0.052601587, 0.002880311, 0.014829383, 0.000551665, 0.017270388, -0.025453217, 0.08523294, -0.093713656, -0.049381018, -0.108560964, 0.0972361, 0.124231786, 0.027196199, -0.064863965, -0.0010970682, 0.039523005, 0.09185581, -0.021838441, 0.10885903, -0.011076689, -0.0042732507, 0.024852991, -0.03817492, -0.11333629, -0.06757033, 0.048049763, -0.049254857, -0.06335737, 0.10945827, -0.012359852, 0.034475017, -0.08543467, 0.03051859, 0.09133527, -0.113779, 0.017278727, -0.10986458, -0.05764615, 0.11009712, -0.08914492, -0.116509095, -0.09763637, -0.01023083, 0.0072917393, 0.11651188, 0.04548474, 0.08784164, -0.13037513, 0.039367605, 0.006076376, 0.037130054, 0.08779597, 0.11430787, -0.045431037, 0.10896661, 0.05610556, 0.01826517, -0.022751411, -0.10740804, 0.067714065, 0.014999089, -0.07619539, -0.03439665, -0.024610367, -0.0023798435, -0.05758569, 0.12311806, 0.016318697, 0.044975277, -0.11849854, 0.06977211, 0.052697416, 0.068292715, 0.069717415, 0.057525568, 0.08634988, 0.0060971095, -0.027850073, 0.04664727, -0.031529907, -0.049790274, -0.015908936, -0.09028228, -0.1011208, -0.04906266, 0.07449087, 0.038352612, 0.030671567, -0.049319442, 0.12216637, -0.057601176, 0.06540541, -0.13150173, -0.13055906, -0.08444286, 0.08683034, -0.11216528, 0.025240649, -0.05264361, -0.10687178, 0.05754027, -0.075511344, -0.08822189, -0.06933071, -0.06302662, 0.01742749, 0.122963585, 0.10333677, 0.06226007, -0.05727906, 0.10372989, 0.07526658, -0.08158961, 0.022481218, 0.08000924, 0.11007471, -0.017229075, 0.037025314, -0.025514042, -0.1359816, -0.077936895, 0.022265231, 0.07983092, 0.10917579, -0.019494062, -0.006914911, -0.022967925, -0.12580346, -0.013404345, 0.10501124, 0.03615411, 0.057136208, -0.086991124, 0.0009153105, 0.098316655, -0.05936362, 0.11923837, 0.054248076, -0.018189415, 0.083446674, -0.026284358, 0.08466863, -0.11082385, -0.008181288, -0.09266819, 0.09090326, -0.043404784, -0.016180659, -0.05670762, 0.09894622, 0.10114577, -0.08344118, 0.053219195, 0.08596482, 0.040772967, -0.11997829, 0.07360916, -0.025715593, -0.05673435, -0.032152362, 0.088826954, 0.022258362, 0.053938843, -0.11678964, -0.09063863, 0.024922509, 0.050692968, 0.11294962, -0.10454464, 0.012991438, 0.016695894, -0.024679506, -0.12539893, 0.063152984, -0.075889125, -0.060236398, -0.102384515, -0.058012445, -0.09746937, 0.10225773, 0.113842666, -0.0698741, 0.05797844, 0.015538185, 0.069815196, -0.02733751, -0.04168709, -0.05590991, 0.10609136, 0.13836363, 0.06320202, 0.14071159, 0.06778447, -0.027510583, 0.07993855, -0.02920688, 0.07011723, -0.0128440065, -0.020277563, -0.05875288, 0.003219617, -0.08112807, -0.08640657, 0.12106219, -0.00028285632, -0.047425166, -0.072757915, -0.049009036, -0.024003234, -0.011762963, 0.025350278, 0.01619987, 0.056925945, -0.010479206, -0.099834375, -0.05906432, -0.063849576, -0.027986327, -0.03232863, 0.026586398, -0.07719437, -0.014949984, 0.122722454, -0.0684298, 0.010801673, -0.10735231, -0.017435178, 0.07012161, 0.08827092, -0.108447604, 0.12412289, -0.11180828, -0.05553578, -0.081604704, -0.07103779, 0.066123955, -0.09265604, -0.10017509, -0.051674563, 0.080281585, 0.04511316, -0.10787772, 0.062033188, 0.14010479, 0.035136595, -0.09480379, -0.02123018, -0.0050036097, 0.12542114, 0.09731837, -0.074579425, -0.041768555, 0.082685396, 0.0063636657, -0.05124031, -0.11743698, 0.11229378, 0.078822605, -0.024200598, -0.09680765, 0.021233886, -0.08334977, -0.054892533, 0.050730966, 0.109653324, 0.10568258, -0.09568612, 0.11607575, -0.047221985, -0.027926361, -0.056742817, 0.12008375, -0.107322685, -0.11638948, 0.004210322, 0.078309126, 0.095535524, 0.12819728, -0.0031686423, -0.0633677, -0.03373468, -0.050443687, -0.11091422, 0.047709182, 0.13250801, 0.018419525, 0.09796525, -0.032631446, -0.08777587, 0.14170767, -0.0001873993, -0.07153348, -0.018059183, -0.04895987, -0.03238819, -0.12513046, 0.032842495, -0.09916425, -0.0024866904, -0.09286828, -0.033073835, 0.039145194, 0.09299219, 0.023113966, 0.1239976, -0.0999893, 0.07942576, 0.04995241, 0.03994696, -0.10753689, 0.0066943513, 0.050699275, -0.05474119, -0.08368089, -0.061374344, 0.10353718, 0.01721794, -0.052545086, -0.008425193, 0.10662626, -0.0017581105, -0.08102374, 0.07061912, 0.027829846, -0.026118094, 0.10975718, -0.07999524, 0.11331849, 0.13708273, -0.1090851, 0.031031884, 0.091795385, 0.01236735, 0.10659029, 0.127627, 0.11045708, -0.08125638, 0.021982644, 0.12961926, -0.051120024, 0.10332126, -0.10301508, -0.026777007, 0.028116748, 0.0033642799, 0.10730988, 0.054351136, -0.03120663, -0.05741787, -0.08807559, -0.013597526, 0.027564093, -0.115187444, 0.11777975, -0.07882354, 0.0666295, -0.024175145, 0.011286795, -0.11918417, 0.08276436, 0.124722034, 0.079560414, 0.03883089, 0.018731654, 0.0012133867, -0.09638766, -0.060890626, 0.06660655, -0.056615144, -0.065351695, 0.057217248, -0.07547945, -0.0019799666, -0.12719603, 0.03025527, -0.06752768, -0.027565151, 0.04527313, -0.104177274, 0.040943194, -0.068370566, -0.14295009, 0.107253954, 0.0152225625, 0.089370795, -0.112625584, -0.060035564, 0.09585886, 0.06630147, -0.01286299, 0.009762796, 0.07529505, -0.13143586, 0.04242495, 0.01969962, 0.056674626, 0.116149016, -0.019067274, 0.04057783, 0.08429828, 0.038781103, -0.0880344, 0.024412107, -0.08895427, -0.063302614, -0.058927175, 0.017191697, 0.047242668, -0.02900619, -0.04817437, -0.02904223, 0.089648806, -0.03437682, -0.024278099, 0.069214456, -0.0040238085, -0.11211094, 0.050484527, -0.03300748, 0.040635236, -0.08316684, -0.12570892, -0.050892334, -0.10414579, -0.07559415, -0.10070814, -0.09932443, -0.054529455, -0.07800119, -0.13503279, -0.008185601, 0.0117315855, -0.051259607, -0.14470641, -0.06975252, 0.1055881, -0.082288854, 0.09608645, 0.034855265, 0.08086772, -0.08521645, 0.121441185, -0.118191175, -0.07664665, -0.019505294, 0.12027437, -0.07633659, -0.039090246, -0.018926643, 0.0013845649, 0.008241445, -0.14202793, 0.10946171, -0.06893887, 0.029447675, -0.051786833, -0.09744483, -0.10647614, 0.033805225, -0.006512916, -0.116570264, -0.09785801, 0.06232329, -0.061359845, -0.09865619, -0.033629097, 0.12150671, 0.0066758352, 0.047473565, 0.08285436, -0.09522684, 0.025010759, -0.07342457, -0.002223862, 0.08468091, -0.0889437, 0.110446624, 0.049553704, 0.08050085, 0.005529198, -0.13734819, -0.025835829, -0.06365134, -0.0003889214, -0.14111051, -0.05794411, 0.12380748, 0.025561554, -0.091073975, 0.101177454, -0.0684768, -0.017971925, -0.028478498, -0.093687795, -0.061827585, -0.096653685, 0.08434693, -0.039571114, -0.03533985, -0.13124864, 0.005306679, 0.07494593, 0.06442154, 0.052027028, -0.049266152, 0.09246306, 0.09956313, 0.07700247, -0.081995636, -0.056323156, 0.004018709, 0.014792189, 0.11269081, 0.090327516, 0.09336884, 0.06523916, -0.100984, 0.10790415, -0.0559135, 0.082480684, -0.011685051, -0.081930846, 0.08436601, -0.038160466, 0.016614467, -0.056240946, 0.072233334, 0.06958243, 0.023492426, 0.10893303, -0.025836624, 0.007845223, -0.07147385, 0.081904545, 0.019922003, -0.054534957, 0.027011529, 0.10643229, -0.00582584, -0.12728243, 0.10950726, -0.08357063, 0.036707595, -0.0027292073, 0.10306856, 0.028452545, -0.10579347, -0.04983478, -0.0744825, -0.0953106, -0.083789065, -0.09291308, 0.12565735, -0.115376875, 0.0051567554, 0.06346907, 0.031889185, -0.016266435, 0.100250185, 0.11091329, -0.03803774, 0.036717817, -0.060159482, 0.09988855, 0.02045764, -0.07450417, 0.019811884, -0.045044936, 0.01608567, -0.12278539, -0.025667712, 0.10189548, 0.055398017, 0.037411645, 0.04439503, 0.1274145, 0.011087671, -0.039531894, 0.0012923181, -0.11659657, 0.023488969, -0.074355066, 0.02508767, -0.055476673, -0.105916165, -0.08338356, -0.059201546, 0.08791758, -0.0058510676, 0.0024375468, -0.020402573, 0.11952309, -0.017583326, 0.117835, -0.06948951, 0.07947157, -0.057714045, 0.07496974, -0.07632966, 0.045978114, 0.027288616, 0.0813335, 0.06510292, -0.12834041, -0.024479337, -0.12520038, 0.028346434, -0.069437824, 0.023857072, 0.0117452, 0.09402187, -0.009311952, 0.12376988, -0.032078832, -0.056592964, 0.027646944, 0.12917808, 0.0006971359, -0.0882727, -0.041742958, 0.06341748, -0.061521128, 0.04766874, -0.08647227, -0.029930815, 0.06754668, 0.0918681, 0.0002309382, 0.0050484836, -0.0008780807, 0.08620952, 0.0030805469, -0.016174942, 0.052928016, 0.11050238, -0.06441649, 0.122773856, -0.025242247, 0.124572754, 0.034693614, -0.043961637, 0.050975084, 0.074898496, -0.053033493, 0.083068624, -0.11111027, -0.08233431, -0.08029887, 0.11714758, -0.067359045, 0.07417202, 0.0006172508, -0.031860895, 0.09992188, 0.0945728, 0.017192423, -0.007994816, 0.11619209, 0.07016885, 0.019283995, 0.08466089, 0.091976, 0.05564663, -0.11757781, -0.07617344, 0.063718736, -0.10206726, -0.014712609, 0.073755115, 0.038931698, 0.044871226, -0.037971288, 0.12508056, -0.09259823, -0.119643286, 0.0631195, -0.08116847, -0.013920635, 0.09092586, -0.054043807, -0.030982628, 0.039435133, 0.1102352, 0.02961114, -0.11391358, -0.10819049, 0.10603529, 0.10208462, -0.04550445, -0.08277863, 0.10160369, -0.09170167, -0.12080176, -0.045502774, 0.10692316, -0.012609534, -0.041305237, -0.12563166, -0.022641867, -0.054142267, -0.017326511, 0.07677233, 0.060380057, 0.08898321, 0.12931904, -0.018916652, 0.079343125, -0.122019574, -0.1050304, -0.08233741, 0.095483184, -0.081663266, 0.024173692, 0.083902374, 0.04317589, -0.12780719, 0.121637166, 0.06912319, -0.07603344, -0.031643182, -0.012069508, -0.03660255, 0.062245756, 0.08745736, 0.10062678, 0.083209366, -0.06438631, -0.106645055, 0.011559606, 0.049001664, -0.008936159, 0.06129375, 0.057881445, 0.065587595, 0.04146485, 0.09527089, 0.12450853, 0.0020023882, 0.056057587, 0.07025741, 0.0089891255, 0.08544052, -0.10723918, -0.105762206, 0.053522542, -0.03192825, 0.047216758, -0.09959954, 0.10538778, 0.10320683, 0.05702728, 0.11668256, 0.09993166, 0.045504704, 0.042286232, 0.08873689, -0.10899807, -0.10054473, 0.09985195, 0.090781614, 0.039002463, -0.1264669, 0.055434912, -0.0522262, -0.004398763, 0.10114309, 0.02790849, 0.046850532, -0.018794142, -0.10846166, -0.039562285, -0.0393819, -0.112241946, 0.118501484, -0.014676176, 0.08307484, -0.110183105, -0.013484113, -0.010637388, -0.059333064, -0.10157859, 0.06669392, -0.03506986, 0.064685866, 0.027623296, 0.06054564, 0.04642199, 0.099034116, -0.061317123, 0.015394852, -0.04767658, 0.01592274, 0.04287374, 0.07585089, 0.07067071, 0.109571025, 0.036154583, -0.022955097, -0.09911099, 0.110441834, 0.0053124726, 0.077571526, 0.11834103, -0.051626287, -0.024602592, -0.061887205, 0.053416908, 0.09064636, 0.097582355, -0.04446721, -0.07920493, 0.009227574, 0.070954785, -0.036739543, 0.049087927, 0.05494538, -0.11622617, 0.089593604, 0.08813001, -0.07073516, -0.07107742, -0.10524048, 0.029416025, 0.027085572, -0.096037164, 0.079047844, 0.027887732, -0.047310665, -0.0011792779, 0.069105834, -0.0063084513, -0.06431515, 0.07144345, -0.086758055, -0.10589375, 0.041076213, 0.11031403, 0.09751971, -0.061010018, -0.02090291, -0.07537018, -0.11699527, -0.02620142, -0.0036845803, -0.0098685995, -0.10152876, -0.21304663, -0.17798199, -0.14980216, -0.119091235, -0.09920981, -0.1433747, -0.064125344, 0.0014429212, -0.02455523, -0.13386242, 0.033628445, -0.08633688, -0.15654932, 0.0734574, -0.08373923, 0.0932814, -0.11387537, 0.017208586, -0.081380114, -0.056019887, 0.06766531, -0.03464327, 0.043667767, -0.18997695, -0.2361428, -0.21310781, -0.20900124, -0.0891701, 0.0106256, -0.08165132, -0.068842776, -0.089556694, -0.16589576, -0.17830549, -0.026888162, 0.02977388, -0.014551765, -0.11203631, -0.06487937, 0.08534083, 0.05449619, -0.023882493, -0.025035447, -0.0126179885, -0.0042961915, -0.03637684, 0.013373188, 0.010563648, -0.1142935, -0.20048563, -0.07428115, -0.20709921, -0.21274522, 0.045109317, -0.09523179, 0.05654908, -0.11568152, -0.12904719, -0.063844286, 0.014670667, -0.049389124, 0.0846151, 0.04604655, 0.08783045, -0.15063211, 0.079728104, -0.02715932, -0.03723277, 0.058809523, -0.12429878, -0.06866712, -0.042914115, 0.00046756165, -0.13244571, -0.1944802, -0.10939237, -0.18200032, -0.045521554, -0.07587777, -0.09925042, -0.111212425, 0.016830456, -0.066637106, -0.14785032, -0.08910574, -0.11752983, -0.007857517, -0.14066464, 0.055178437, -0.14496513, -0.096879356, -0.006950433, -0.10375073, -0.010785372, -0.053912938, -0.1779679, -0.028949197, -0.14484172, -0.18997689, -0.049710833, 0.0034033225, -0.17310609, 0.051419083, -0.17632228, -0.1258722, -0.072388664, -0.007895281, 0.06952857, 0.03651473, 0.025746454, 0.06797066, -0.07872331, -0.09836767, -0.041285906, -0.134163, -0.096610285, -0.032184426, -0.12917677, -0.029027166, -0.104657225, -0.22722152, -0.11767697, -0.024269, 0.036193214, 0.0026008645, -0.14681183, -0.111176975, 0.013972567, -0.009640501, -0.08723958, -0.055055168, -0.074347176, -0.109002754, 0.054127555, -0.14681146, 0.06604514, 0.04853428, 0.060944777, -0.11099841, -0.03554656, 0.0034253737, 0.07622833, -0.07679384, -0.22560982, -0.13108794, -0.14848538, -0.016040895, -0.04327207, 0.0043565584, -0.064122654, 0.029242113, -0.10515952, 0.01151209, -0.11391382, -0.12753612, -0.15264793, 0.058326405, -0.121911265, 0.04557216, -0.095734425, -0.14427263, -0.10001342, -0.084606305, -0.13939254, 0.108950004, 0.07656959, 0.100623555, 0.011271909, 0.0049337447, -0.0882952, -0.10954778, 0.071738094, 0.07668434, 0.102330536, 0.099937946, -0.07893595, 0.020740047, -0.06471097, 0.011007816, -0.08257469, 0.10280396, -0.117785536, -0.029306263, 0.08432566, -0.080562025, -0.04307071, 0.09560384, 0.041324183, 0.057657897, -0.05454114, 0.098593324, 0.1504354, 0.17215584, 0.16598336, -0.00042259437, 0.16278799, 0.13453372, 0.016220208, 0.050001133, 0.17352459, 0.00036614467, 0.106876, -0.031476244, -0.023786806, 0.04822122, -0.08227558, -0.07303698, 0.14517105, -0.015552651, -0.043714024, -0.09241356, 0.020567907, -0.090441674, -0.050595727, 0.088143505, -0.00093285134, 0.07799638, 0.05949088, 0.0969682, 0.10718525, 0.1321978, 0.17362852, 0.09960545, 0.01934013, 0.093641035, 0.03469263, 0.06613289, -0.049312446, -0.08483885, 0.11391076, -0.06956997, -0.022025524, 0.03196277, 0.107783765, -0.0053684805, -0.008001394, 0.108371146, 0.070743166, 0.07847311, 0.07008865, 0.0951358, 0.103086196, 0.14544828, -0.018570315, 0.045502782, -0.0074938815, -0.039948713, -0.00985425, 0.16639595, 0.17664197, 0.028491175, 0.12151279, -0.062325165, 0.009460596, 0.13735186, 0.094910085, 0.10587945, 0.07105531, 0.13184418, 0.09810042, 0.043273486, -0.055020444, -0.13039653, 0.08342227, 0.029948397, -0.003282527, 0.08913601, -0.016251668, 0.107744575, 0.113006756, 0.08450709, 0.18744744, 0.01890799, 0.017443907, -0.046896856, -0.058599856, 0.0713148, 0.01804246, 0.1269287, -0.06255354, 0.0030968976, -0.10547924, 0.04430545, 0.13649537, 0.09463533, -0.052162476, -0.10674005, 0.14972888, 0.13233794, 0.116599135, 0.052437, 0.032769114, 0.035382044, -0.045044027, 0.11642316, 0.14526677, 0.12061142, 0.09064768, -0.04212125, 0.030336129, 0.09075657, -0.051253133, 0.03465772, -0.016838323, -0.060464952, -0.085498296, 0.14058149, -0.005801055, 0.05040853, -0.01564998, 0.08022422, 0.157007, -0.02115682, 0.021806993, 0.009083643, 0.10965125, 0.05177689, 0.06630599, -0.052836258, -0.010845575, 0.0741504, 0.17809595, 0.11793825, 0.09553962, 0.14208405, 0.08356183, 0.15762152, 0.030679058, 0.027764207, 0.13185234, 0.105710424, 0.016833285, 0.030594207, -0.05683677, -0.12861864, 0.01890406, 0.10569693, 0.06523436, 0.1293549, 0.032809183, 0.050984994, -0.0978916, -0.09180601, -0.08526397, -0.12248132, -0.02367653, -0.0024937838, 0.086498395, 0.094420046, -0.1036865, 0.11173847, 0.12088379, -0.1076199, -0.047893427, 0.11383948, 0.072715476, 0.07927556, 0.0036381185, 0.028492406, 0.09205508, 0.030096933, 0.0831667, 0.010450527, 0.08591895, 0.09478094, 0.0029640347, -0.0069960803, 0.09376679, -0.01207988, 0.08283964, -0.05775509, 0.006128058, 0.005567357, 0.09692024, 0.121604264, 0.032638043, 0.08901174, -0.04079449, 0.08796048, -0.039887257, -0.0021406263, 0.05638227, -0.058595717, 0.04740998, -0.015101641, -0.072588876, -0.03949605, -0.12288586, -0.01007282, -0.004405543, 0.013890579, -0.07835888, 0.10859683, -0.120958626, 0.11962834, -0.046668902, -0.08687282, 0.091814, -0.09346022, 0.11715096, 0.0894161, -0.0041318685, -0.022717357, -0.08706971, -0.009716526, 0.06172517, -0.02607669, 0.09431103, 0.029307216, -0.003036186, -0.08687815, -0.031189702, -0.053084724, 0.076795265, 0.046866804, -0.077926666, -0.041163445, 0.07194553, 0.048036247, 0.0680511, -0.10253173, -0.033651263, 0.06026064, -0.09024519, -0.12271135, 0.10659467, 0.046884507, -0.1075899, 0.03733386, -0.08518331, -0.016302124, 0.0818418, 0.033500284, 0.05965747, 0.12044728, -0.11808652, -0.11813446, -0.016388074, -0.009741381, 0.047240242, -0.06596193, -0.11788796, -0.118167825, -0.057421766, -0.071764745, 0.011331081, 0.080005065, 0.028679013, 0.031222016, 0.030633837, -0.08599898, -0.050733224, 0.030792579, 0.099097565, 0.10360776, -0.113816045, 0.08367188, 0.02172029, -0.028136551, -0.11438823, 0.06608626, -0.04900854, -0.09445056, 0.12977195, 0.12347695, -0.04809121, 0.044294104, -0.03379222, 0.1234943, -0.1290997, -1.1175871e-05, -0.044237517, -0.024729677, -0.0010757148, -0.058828726, 0.125007, -0.03761772, 0.0045238435, 0.10518916, -0.12577488, 0.04504329, 0.09570269, -0.06206453, 0.07488574, 0.030858144, 0.04948923, -0.05234815, 0.098334685, -0.014766157, 0.023323774, 0.05472921, -0.04380527, 0.012498975, 0.015898481, 0.070381, -0.10696575, -0.052800275, -0.058108255, 0.030412272, -0.11888917, -0.051077597, 0.052332684, 0.021918848, -0.09783059, 0.074530974, -0.12258776, 0.057730272, 0.084286496, 0.023542792, 0.12319261, 0.07499862, -0.0047831833, -0.08069945, 0.056730762, -0.103911206, -0.053789407, 0.028977364, -0.031956077, -0.038531706, -0.03832055, -0.012737766, 0.0629597, -0.077149615, -0.034358554, 0.007438883, 0.105364814, -0.022906534, 0.069296286, 0.05353959, -0.0028536916, 0.079416916, 0.022680983, -0.08701743, -0.071429685, 0.010090157, 0.106296465, 0.047469974, -0.07509045, 0.059481785, -0.10471299, -0.022003382, 0.04902114, 0.07683538, -0.025964983, -0.09223343, 0.023250788, 0.11733748, -0.02673439, 0.063936085, 0.08254856, 0.07524185, 0.012550697, 0.06785533, -0.09107062, -0.12540202, 0.025043651, 0.067434505, 0.07944304, -0.06910506, -9.49353e-05, 0.018207014, -0.048868053, 0.06377293, 0.11689448, -0.02996517, 0.10031256, 0.019104347, 0.062132403, -0.038016565, -0.05431968, 0.092516795, 0.0006443858, -0.10280776, -0.07439791, 0.08108759, -0.10175623, 0.021817923, -0.021633476, -0.0060335323, 0.0884417, 0.0102311075, 0.05141516, 0.10531102, 0.062276274, 0.094925895, -0.0047532916, 0.035781786, -0.07270145, -0.05730415, 0.12265235, -0.023624904, 0.006981164, 0.015371144, 0.12648529, -0.08461353, 0.1222963, 0.10556777, 0.08706093, 0.12427336, -0.033969574, -0.02077248, -0.1148006, 0.024938881, 0.034929216, 0.11817464, 0.0986924, -0.054793872, 0.041637808, 0.06304549, -0.005862586, -0.12478524, 0.012048125, 0.10180631, -0.06154654, -0.11620193, -0.07019061, 0.018066451, -0.12047973, -0.00306423, -0.041499145, 0.10462345, -0.0799765, -0.11264909, -0.06401321, 0.11410637, 0.07947464, -0.10106157, -0.08312545, 0.023454979, -0.012469538, 0.08834745, 0.04807955, -0.0015255958, 0.06356205, 0.08137381, -0.08445144, 0.008028239, -0.014332451, 0.024331763, 0.039608687, 0.01642692, -0.09217929, -0.11801585, -0.10350669, -0.007492274, 0.0135286, 0.06410807, -0.1108868, 0.11217961, -0.06969488, 0.05296968, 0.02079083, 0.08807866, -0.11027466, 0.08978152, -0.122183405, -0.044224545, 0.056781963, 0.078449875, 0.014204651, 0.10167158, -0.08420475, 0.087331906, 0.0846525, 0.038272053, 0.05756353, 0.032383963, 0.11960949, -0.0056833997, -0.07756981, 0.054208532, 0.049002234, -0.03019235, -0.08261438, -0.10724432, -0.058422912, 0.11870255, -0.017145216, 0.050327867, 0.02357214, -0.0740783, -0.11631026, -0.034663003, -0.04969161, -0.051306117, -0.035933424, 0.09713081, -0.0061483267, -0.008850766, 0.09064362, 0.009887299, 0.0039966935, -0.038766418, -0.1043562, -0.0056712525, -0.029694967, 0.033932354, -0.045467354, 0.072805166, 0.09900872, -0.013771578, 0.114203416, 0.02128298, -0.0832467, 0.10469854, 0.060406644, 0.027689697, 0.022748336, 0.07007203, -0.11945101, -0.038491312, -0.02819647, -0.03818872, 0.0062987707, 0.1033797, -0.01122034, -0.010331174, -0.0007407484, -0.09045794, 0.035460297, 0.053217955, 0.02175594, 0.101359755, 0.1231277, 0.11873375, -0.06950872, -0.044102952, 0.017488778, 0.01729616, -0.01558755, -0.08568421, -0.045445602, -0.03500249, 0.011122468, 0.10298009, -0.040660623, -0.08474628, -0.109097615, 0.081708744, 0.08805818, 0.066716194, 0.021662874, 0.09368318, -0.033639632, -0.081417345, 0.13638158, -0.026923757, 0.033772927, 0.059608035, -0.0139254, -0.07461624, -0.086197995, -0.118929036, 0.13293314, 0.07883344, 0.08739326, 0.03076537, 0.12249865, 0.09825613, 0.09082702, -0.11301117, 0.04499547, -0.10190549, 0.03234857, -0.12235458, -0.11818016, 0.07527306, 0.08030164, -0.09785946, -0.025242023, 0.10471374, -0.07590706, 0.03598078, -0.11987334, 0.1311293, -0.10475708, -0.09437249, -0.05461372, -0.046181735, -0.05907637, -0.10735341, 0.09443158, 0.12899585, -0.02418611, -0.11846331, -0.05503854, -0.09183774, 0.11575683, -0.05427214, 0.10178288, -0.064720884, -0.0060609626, 0.13502093, 0.0815942, -0.1112965, 0.108771354, 0.002043073, -0.037454408, -0.0647694, -0.0037882829, -0.07902305, 0.0030058622, -0.10297786, 0.06663221, -0.020569263, 0.016874148, -0.07351785, -0.10871386, -0.121411934, 0.008548134, 0.0020538776, -0.103077956, -0.08766588, -0.017954871, 0.008811051, -0.050637465, -0.09126317, 0.06802673, 0.06223213, -0.026996968, 0.09086431, -0.021897178, -0.06689714, 0.1025747, -0.03284228, 0.1032182, 0.0019792723, -0.10459823, -0.05713324, -0.079297, 0.040023774, -0.08148496, -0.113281436, -0.11725733, 0.066709794, 0.011707836, 0.027001258, 0.08365555, 0.009567878, -0.056795917, 0.012492135, -0.066683054, -0.12688221, -0.08766659, -0.10386967, 0.06351757, -0.108038425, -0.101129696, -0.06489631, 0.033253223, -0.017144486, -0.017999634, 0.057623178, 0.07446164, -0.09935638, 0.03192404, 0.04104115, -0.057302974, 0.12450218, -0.016677514, -0.10448754, 0.052038535, 0.005576685, -0.05940864, 0.08145295, 0.065635026, 0.038642846, -0.07661151, -0.13892743, -0.06465661, -0.01363809, 0.102236785, -0.03441568, 0.00668289, -0.024724003, 0.10538323, -0.07601181, 0.07451267, -0.09044247, 0.03615574, 0.12090475, -0.08396185, 0.032172214, -0.042930648, -0.089032546, 0.007590647, -0.09956146, 0.11773221, 0.02572743, 0.111754715, 0.07979823, -0.07782957, 0.04287794, 0.07029416, -0.06290073, 0.058364578, -0.0047529964, -0.096268535, 0.09385143, 0.0082962485, -0.114817016, -0.088635445, 0.035663042, 0.11305788, -0.073878564, 0.04690957, 0.1028011, 0.015532304, -0.08145147, -0.031716444, -0.04286131, 0.09404212, 0.11946896, -0.06759495, 0.06931068, -0.07538365, -0.10009082, -0.054840945, 0.012312339, -0.0032580125, 0.107821964, 0.031092163, -0.097671025, -0.07888574, -0.02863259, -0.040339623, 0.069419265, 0.022285897, 0.022365928, 0.023889108, -0.035683826, -0.0669116, -0.044636086, 0.10320895, 0.0035205313, -0.10592233, 0.08515862, -0.12596431, -0.052593574, -0.09538953, -0.058478616, 0.03305802, -0.05592939, -0.062345553, -0.11026018, 0.08799502, 0.01983141, -0.0030700373, -0.04568299, 0.028086536, -0.13296825, -0.07102576, -0.053263627, 0.10638945, 0.082540065, -0.085622646, 0.09655019, -0.007950494, 0.040415388, 0.061293207, -0.13275456, -0.13220873, 0.054283157, -0.07291763, -0.049183004, 0.11378196, -0.079368316, -0.072019644, 0.06572859, -0.042381827, 0.03755501, 0.039174702, -0.009946367, -0.05512876, 0.006948193, 0.065035306, -0.01206829, -0.0041538556, 0.11572811, -0.12550241, -0.12714654, -0.115673214, -0.08999074, 0.032529294, -0.07216144, 0.036757752, 0.10148391, -0.046333443, -0.058325764, -0.11696871, 0.07912949, 0.047726188, -0.06492812, 0.05673606, -0.0040720217, 0.021002127, 0.03193875, -0.091606736, -0.092034444, 0.06881599, -0.119191885, 0.1181956, -0.099185064, -0.003059868, 0.049287483, -0.09442981, 0.08266639, 0.07911129, -0.12131966, -0.005294772, 0.02480248, -0.091855936, -0.0857973, 0.0062448666, -0.021480007, 0.08031448, -0.0607521, 0.1320517, -0.102732696, 0.11393256, 0.12657444, -0.113313355, -0.11890802, 0.12506026, -0.10201153, -0.095700145, 0.023472967, 0.07961777, 0.049581584, 0.122266114, -0.012778694, -0.029749336, -0.02631959, 0.044859286, 0.077503026, 0.012216859, -0.06649812, -0.03934455, -0.0019998958, 0.1304416, 0.11212143, 0.04060389, 0.0705039, 0.13455759, 0.1301131, -0.09477847, 0.109409, -0.016294103, -0.026978526, 0.05781889, -0.024242625, -0.014013772, -0.012801711, -0.014082376, 0.08020478, 0.119971976, -0.08775725, -0.09536937, -0.0009107408, 0.061414387, 0.113533914, -0.059297495, 0.12501463, 0.07171957, 0.051748183, -0.10811255, 0.047633424, 0.01815405, 0.066788465, -0.037119117, 0.016854191, 0.058218826, 0.048608482, -0.11105676, 0.12088494, -0.042652808, -0.093181446, -0.003914417, -0.07755703, -0.0925779, -0.102087215, 0.021378208, -0.0019070996, 0.0831024, 0.06830398, -0.00990298, 0.09948183, 0.062356085, -0.055453103, 0.101223975, -0.08224832, -0.01580603, -0.0070348806, -0.101008296, 0.11170204, -0.07410289, 0.016807789, -0.068508945, 0.069625884, 0.023346912, 0.06909986, 0.028516904, -0.073488764, -0.05614062, -0.0069977907, -0.08055073, -0.036120065, -0.020431247, 0.11829177, 0.008718918, 0.055953413, -0.11683224, -0.03606646, -0.0050274166, -0.09649044, 0.07204672, -0.032699008, 1.1101325e-05, -0.036872968, 0.114784576, 0.09592555, 0.056151643, 0.09579713, 0.071826205, 0.12281875, -0.0019006854, 0.08475936, 0.074798815, 0.11697734, -0.0073794303, -0.09263798, 0.00451443, 0.101305746, -0.05316082, 0.09356563, -0.018399915, -0.09038769, -0.08391539, -0.0461136, -0.0089589935, -0.018812712, -0.11553094, -0.08716595, 0.0892139, 0.12667623, -0.030347396, -0.086135425, -0.033804215, 0.046743184, 0.09679452, -0.05355146, 0.029065263, -0.096461706, -0.10366441, -0.075740896, -0.055524923, 0.06497568, -0.0732438, 0.11745325, -0.07483998, -0.070644006, -0.046873786, -0.0975292, -0.074448735, 0.080066435, 0.11222124, -0.05650715, 0.0860774, 0.12564361, -0.04247272, 0.12973937, -0.104266144, 0.070986025, 0.028466908, 0.00954999, -0.021615088, 0.017603964, -0.10123567, -0.11181651, 0.07536495, -0.12233724, -0.0044707656, 0.077004075, -0.020407677, -0.037377745, -0.045260236, -0.004242182, -0.032843754, 0.07439895, 0.12345448, -0.040057026, 0.06224516, -0.10311558, 0.0065169185, -0.06708085, -0.120848745, 0.102460906, -0.1264296, 0.038583487, -0.10287766, 0.093802236, 0.0896175, -0.020646453, 0.028688943, 0.11857894, -0.014629541, 0.032693516, 0.0062131104, 0.09098421, 0.117138244, 0.059323225, 0.055134904, -0.1191108, -0.105479464, 0.07166781, -0.0070143943, 0.036993936, 0.10946565, -0.04712366, -0.015395435, -0.114098795, -0.12861799, -0.1357943, 0.11360075, -0.11153013, -0.071674176, -0.04033599, -0.022549372, -0.019740053, -0.0971459, 0.1107278, -0.10595124, 0.114346325, 0.06800385, 0.027995247, -0.082103044, 0.032693528, -0.03356138, 0.060466286, 0.046682306, -0.12428461, -0.12786554, 0.063533396, 0.12332514, -0.13446845, 0.057043288, -0.11199692, -0.040793847, -0.0966654, 0.012388185, -0.12082388, 0.10250924, 0.046252567, -0.014748574, 0.0977482, -0.071556374, 0.020353727, -0.12585317, 0.04673965, 0.004891258, 0.113756135, -0.045509797, 0.055324383, -0.095472515, -0.050283436, -0.025537465, 0.038854994, 0.03943208, -0.10717105, -0.124379136, 0.0004326168, 0.08754374, 0.099721074, -0.013596634, -0.030768922, 0.04466854, -0.061264716, 0.1051953, -0.094236806, -0.06898299, 0.10482192, -0.06216853, -0.10941298, 0.05558281, 0.11707535, -0.119432196, -0.12976274, -0.13476275, -0.09705987, -0.108165376, -0.002491506, 0.083452836, 0.008086213, 0.07304253, 0.013140546, 0.039609168, 0.05096727, -0.077884205, -0.13563731, 0.102465004, 0.04473219, 0.050831992, 0.083643526, 0.09386994, 0.09421369, 0.033597168, 0.106696375, 0.06858548, 0.088670835, -0.02107813, -0.097706, -0.11681642, -0.041727632, 0.0029263098, 0.106452525, 0.08799715, -0.12498914, -0.10737429, -0.09998317, 0.12272749, 0.035799515, -0.007674207, -0.04971996, 0.116753906, 0.017899944, -0.0065951357, -0.07493998, 0.103432946, -0.06506416, 0.06228756, -0.06809085, -0.008409333, -0.024979208, -0.08891579, 0.11336558, -0.058516547, 0.0634302, 0.05429201, -0.087590724, 0.032434233, 0.121267214, 0.084497, -0.079444565, -0.03396382, -0.03524942, 0.057534903, -0.04499241, 0.061120182, -0.07828023, 0.0037216246, 0.0031336546, 0.102841035, 0.020569533, 0.021923006, -0.12841493, 0.12640736, -0.0030118972, -0.02076462, -0.120981686, -0.06982358, -0.11150547, -0.11204701, -0.010249242, 0.07918905, 0.069027424, -0.048336416, -0.12035735, -0.1091341, -0.11310768, 0.09143524, -0.0866683, 0.113677815, -0.12369186, -0.07427737, 0.11885621, -0.12349221, 0.10716121, -0.0036112815, 0.0019687712, -0.008124284, 0.01650703, 0.045239493, -0.06076791, 0.08662945, 0.105555475, -0.121771835, -0.115034506, 0.112342164, 0.09261653, 0.10404591, 0.027573556, -0.09124788, 0.05203511, -0.11276008, 0.10818511, 0.026736587, -0.099512756, -0.026379704, 0.11010791, -0.05400542, -0.07386051, -0.03199362, -0.05053702, -0.06541457, 0.10911161, -0.00785996, 0.077055305, -0.05971495, -0.010854512, -0.105838284, -0.12944406, 0.071799815, 0.12000546, -0.052405417, 0.12949008, 0.11528717, 0.0801719, 0.010377392, 0.10036202, -0.00016073883, 0.074989185, 0.059236184, -0.10691032, -0.07422599, -0.011486217, 0.00848563, 0.015737459, 0.1243895, -0.1262484, -0.055526353, -0.0992612, 0.01686731, -0.009237818, 0.03804247, 0.10522787, 0.013951525, 0.055145696, -0.08260217, 0.074895024, -0.07353762, -0.07113437, 0.05254872, -0.014338084, 0.041941956, 0.040626615, 0.113937944, -0.05107627, -0.12005102, -0.04706023, 0.11846748, 0.097528815, -0.08915421, -0.088599645, 0.11401984, 0.09649266, 0.06323683, 0.03680612, 0.05590053, 0.10717328, -0.042598784, 0.017768756, -0.014168315, -0.038905516, -0.024852403, -0.0071391463, -0.105569065, -0.008880325, -0.08252405, 0.021110564, -0.11927235, -0.06297152, 0.06557788, -0.004627317, 0.07518378, 0.12695467, -0.08307255, -0.107168645, -0.004010752, 0.06591061, -0.01025971, 0.013241485, -0.065173484, -0.083170116, -0.09968333, 0.022421509, -0.10339149, -0.072903134, 0.037784517, -0.05809705, 0.0941965, 0.028381884, 0.084395915, -0.055505984, 0.00565356, -0.053162165, -0.038005456, -0.10938079, 0.064072266, 0.014124513, -0.052142695, -0.08426535, 0.011409029, -0.114448585, 0.010231599, -0.068104744, -0.124842934, -0.014284201, -0.018744156, -0.006167151, -0.01860369, -0.12059048, 0.12124747, -0.08408642, -0.12137475, 0.09047398, -0.060878098, 0.013027757, 0.018668935, -0.0023595393, 0.11059922, 0.1229938, -0.044778652, -0.0308019, 5.221367e-05, -0.053381585, -0.05749215, 0.10994205, 0.1179156, 0.025758594, 0.09202589, 0.040399015, -0.008529916, 0.0769591, -0.09962867, -0.0964077, 0.034025043, 0.10709664, -0.016903155, -0.08571611, 0.074010506, 0.077185735, -0.04017867, 0.09549275, 0.0522272, 0.0685963, 0.07585704, -0.05630155, 0.007567182, -0.037347287, -0.02477131, 0.10376245, -0.004868835, -0.028097153, -0.015287824, 0.032049, -0.08152692, 0.0039826185, 0.09994723, -0.115800574, -0.109617546, 0.04082851, 0.09706409, -0.093100026, -0.021710604, -0.022094227, -0.056514315, -0.034597717, -0.025822632, -0.095201984, -0.10995866, 0.10674581, 0.11444326, 0.12542519, 0.122667134, -0.08394379, 0.069322154, 0.08254272, -0.08388412, 0.057411432, -0.084787704, 0.090076745, 0.06888285, 0.10364109, 0.019990444, -0.03979353, -0.050604217, -0.04299271, 0.07774986, 0.02270089, 0.10283716, -0.011265308, 0.010573566, -0.10347497, 0.022628888, -0.087479144, 0.014090866, 0.01478754, -0.0028658658, 0.11751826, -0.049253434, -0.025721848, 0.06837833, 0.06326234, 0.04264711, 0.042265743, -0.07467155, -0.0011231899, 0.06188652, 0.056326434, -0.048981026, 0.08930814, -0.049205363, 0.10084528, 0.040553495, -0.0012643933, 0.08022824, -0.044586964, 0.067004085, -0.012634665, -0.11317264, -0.029972352, -0.084449954, 0.0668003, -0.023981534, 0.057174608, -0.054867476, -0.10863395, 0.12558973, -0.04506004, 0.00018404424, -0.12205907, 0.080988765, 0.060226932, 0.04149258, -0.039113946, -0.025339402, -0.072905794, -0.12039409, -0.054004155, -0.05747067, 0.08946386, -0.05514378, -0.037699863, -0.02329164, -0.081952706, 0.059397593, -0.08176188, 0.05478458, -0.035795383, -0.12641679, 0.10048975, -0.1274992, -0.10260568, -0.009908676, 0.050820112, -0.10963413, 0.031330094, -0.0732528, -0.003386438, 0.03010133, 0.11360623, 0.002395451, -0.006126605, -0.0271684, -0.10861491, -0.07197039, 0.0060560405, -0.12774906, -0.024370477, 0.018765882, -0.0963101, -0.11602591, -0.10950798, 0.03587994, 0.003692001, -0.108740516, 0.0047941804, 0.034677476, 0.08217451, -0.054359205, 0.06391488, -0.07229164, 0.07910207, -0.013013795, -0.021764033, 0.0079520345, 0.00048711896, 0.056405425, 0.0749318, 0.052853197, -0.06515432, 0.021501347, -0.096738264, -0.025748037, -0.11877953, 0.121331364, -0.030820474, 0.013624087, 0.10976806, -0.022384621, 0.08895135, 0.121754736, -0.095399275, -0.11391534, -0.05087688, 0.10768768, 0.10310654, -0.09631348, 0.09883642, -0.051107347, -0.091524065, 0.031536832, 0.008272603, 0.12664652, 0.0577922, -0.08297629, 0.0238996, 0.11110279, 0.06774354, 0.016404852, -0.11781519, 0.048758566, -0.117328465, 0.09914757, 0.061917722, -0.12198887, 0.024693996, -0.05426573, -0.046660483, -0.01776947, -0.03821048, -0.0786486, 0.047696814, -0.11287569, 0.03797324, 0.056060374, 0.06436062, 0.0006533712, -0.05964023, -0.109391436, 0.052368402, 0.048859164, -0.012853622, 0.055741653, 0.02433145, -0.073480666, 0.12102291, 0.04000601, 0.115145534, -0.07966407, -0.002116412, -0.028034903, 0.04223655, -0.0955645, -0.04051707, -0.018012479, 0.109032854, 0.018555284, -0.0400903, 0.021081686, 0.11197665, -0.037352487, -0.056289293, 0.021711752, -0.12760241, 0.01735738, 0.06822765, 0.017472014, 0.022350043, 0.0023379773, -0.10164826, -0.065320015, -0.110706285, 0.08047229, 0.0174945, -0.031149529, 0.040546283, 0.023543254, -0.109058335, 0.056520134, -0.035231493, -0.10159976, 0.11623876, 0.00042788684, -0.09455329, 0.11328639, -0.06889737, -0.03244757, -0.045182884, -0.12082758, -0.09633911, 0.028880298, 0.07036574, 0.10752797, -0.11314522, -0.00504563, 0.0232718, 0.05978565, 0.053813428, 0.11676325, 0.008478999, -0.07121488, -0.07829784, -0.06580054, 0.01453343, -0.092585266, -0.047405563, 0.059646353, 0.051805377, 0.017797723, 0.056364253, 0.06022145, 0.07634814, -0.014675029, -0.063159116, -0.0859442, -0.10304857, 0.07703595, 0.029997543, 0.043344304, 0.018809736, -0.09906004, -0.039895736, 0.036765024, 0.108912334, -0.094047315, 0.06768206, 0.10774562, 0.021501526, -0.09000465, -0.063606314, 0.0018594861, -0.037972398, 0.019746825, -0.013798498, 2.1636486e-05, -0.096847616, -0.11025887, -0.1184247, 0.09732661, 0.06855729, 0.061333165, -0.08019747, -0.027894102, -0.08293977, 0.11906095, -0.081270576, 0.10801983, -0.013215512, 0.12303245, 0.11380747, 0.027833372, 0.054975063, 0.06846698, -0.054400653, -0.042745903, -0.08502674, 0.036605462, 0.11324656, 0.091820985, 0.035427243, 0.045966446, 0.06442694, 0.08786726, -0.115496874, 0.087311506, 0.028273508, -0.008905739, 0.08612347, -0.029306695, 0.0666659, -0.07399466, -0.096038125, -0.096903265, -0.030592695, 0.07375237, -0.036891647, 0.043531224, -0.08770804, 0.049679026, -0.112539455, 0.041417956, -0.034611583, 0.11270121, 0.07275447, -0.014307596, -0.110056974, 0.0426628, 0.1152643, -0.084199056, 0.027886018, -0.11851409, -0.08346964, 0.04613702, 0.12743822, 0.002314359, 0.04125023, -0.101809464, 0.100812584, -0.061560534, 0.08065915, 0.12581247, -0.062502995, 0.11389451, 0.10108134, 0.02707322, 0.013188392, 0.10485001, -0.032795995, 0.10921179, -0.026574023, -0.019015446, -0.12934783, 0.04486525, -0.07475339, 0.09560619, -0.117846854, -0.068745084, 0.10624629, 0.09878451, -0.009878628, 0.08467519, 0.0052414685, 0.06104122, -0.05718071, -0.075052604, 0.00014306605, -0.09073042, -0.11125281, -0.00227049, 0.093442515, 0.018883497, 0.083638355, 0.08454074, -0.075274155, 0.034933493, -0.054499887, -0.0702367, 0.07944068, -0.04009816, -0.112483494, -0.046271414, 0.11545029, -0.03412895, -0.07373231, 0.09343165, -0.105890006, 0.080376804, 0.024576217, 0.08704412, -0.110810876, 0.006156355, 0.12833503, -0.118001334, 0.098891884, -0.09224705, 0.02551961, -0.10035995, -0.017994985, -0.045266703, -0.085026406, 0.0977253, -0.09786105, -0.063216195, 0.08221549, 0.109864384, 0.052491277, -0.10097252, 0.08218488, 0.024511069, -0.023032576, 0.11167732, 0.124622434, -0.019353598, -0.047226995, 0.09229919, -0.02298364, -0.116102144, -0.0474059, 0.060829654, -0.027141288, -0.07956895, 0.082132444, -0.08977753, 0.036891803, 0.08103098, 0.048989564, 0.11929548, -0.052928694, 0.024046004, -0.087142825, -0.012183227, -0.10846374, 0.08520125, -0.06736765, -0.022134155, 0.11757141, -0.032798097, -0.0545725, -0.00044308603, -0.026746057, -0.03418912, -0.03642919, 0.0666417, -0.116891116, 0.11889365, -0.02278471, -0.03176021, 0.047259524, -0.06607082, -0.09455016, -0.07460971, 0.09753126, 0.015009224, 0.031640336, 0.075463235, 0.077098064, -0.012336057, -0.09994528, -0.11136802, -0.09164177, -0.011870472, 0.07296707, 0.12281278, -0.04441747, 0.0051322165, 0.010334361, -0.07520284, -0.013960495, -0.03931339, 0.06223381, 0.039049447, 0.08904359, -0.07662283, -0.08299715, 0.04082029, -0.04226127, 0.04408039, -0.03669026, -0.07825991, -0.12256519, 0.07892938, -0.04459922, -0.123843014, -0.0269419, -0.06963853, -0.036600243, -0.12079211, -0.09461903, 0.04678137, -0.055237588, 0.10826609, 0.12852415, -0.09353604, 0.1089079, -0.081192516, -0.06817149, 0.04949888, -0.019128758, 0.050602946, -0.00034410096, 0.009347688, 0.021513416, 0.014898163, -0.064348795, -0.09107869, -0.11365136, -0.0663971, 0.030156147, 0.10516209, -0.11929156, -0.059475727, 0.09411913, -0.03688784, 0.06670643, -0.069526665, -0.07540041, 0.04853707, 0.12786359, 0.04409813, 0.04807023, 0.097622134, 0.13190043, 0.088609055, 0.02660215, 0.0529136, 0.04800374, 0.10240667, 0.1270979, 0.020218097, 0.08859021, 0.073397666, 0.043096203, 0.12061436, -0.005436502, 0.04844741, -0.057725124, -0.098564394, 0.113437936, -0.0014038165, -0.048772667, -0.046396334, -0.059394453, 0.10450972, 0.03128812, 0.012661282, 0.09773938, -0.020278666, -0.11030291, 0.051560614, -0.012297998, -0.021581566, 0.028336344, -0.08380036, 0.09401254, -0.106264114, 0.08873027, -0.06843613, -0.094239235, 0.06660348, -0.11545572, -0.11991949, 0.004171969, -0.1018021, -0.054150615, -0.078193, 0.026930148, -0.096941754, -0.11832877, -0.082898386, -0.08486576, -0.05247474, 0.047017258, 0.03518695, 0.060024835, -0.10866878, 0.04554401, 0.062045064, -0.10140868, 0.12121372, 0.10357782, 0.045614284, 0.111291856, -0.08309815, 0.11526853, -0.038813014, 0.028138118, -0.016299304, -0.013363539, -0.06219365, 0.0884832, -0.10667628, 0.10705903, 0.11040541, -0.045418523, -0.015355933, 0.01545601, 0.0441369, 0.030254025, -0.07932764, -0.12172835, 0.10291818, -0.0090878885, 0.044834744, -0.073604666, 0.04016242, -0.03609672, 0.0776117, 0.030534538, -0.06625213, 0.1255684, -0.09456548, 0.016765364, -0.100154415, 0.0134972185, -0.02400865, -0.053753484, 0.07526621, 0.08649089, -0.08431778, 0.08267092, -0.03181155, 0.101110734, 0.12009549, 0.10560937, 0.003552258, 0.08566739, 0.09772548, -0.027467027, 0.045044377, 0.11854398, 0.06297904, 0.04923202, -0.087777585, 0.040082097, -0.060973406, -0.12684011, -0.06735353, 0.019864589, 0.05933693, 0.08393377, -0.074557126, -0.08809364, -0.12404004, -0.0033481568, -0.030050136, 0.10889651, 0.0096462825, 0.049792774, -0.13543051, 0.021314152, 0.013150035, -0.04962016, 0.025551176, 0.123323984, 0.11198841, 0.05432878, -0.0772724, -0.07317649, 0.06130095, -0.081913166, -0.044281367, -0.11803495, 0.04401804, -0.050083872, 0.06430039, 0.07255045, -0.101485, -0.06369458, -0.11403621, -0.009738275, 0.076602675, -0.12422907, -0.007109351, -0.09525532, -0.010204039, 0.07721427, -0.027916234, -0.049247846, 0.08035335, 0.08681725, -0.054386187, 0.050654728, -0.13141789, 0.0007118207, -0.0021531382, -0.067279026, 0.05255519, -0.045490563, -0.10934783, -0.042805396, -0.114872545, 0.056490507, -0.013780583, 0.10801086, 0.09250184, -0.11071013, -0.046210162, -0.015617358, 0.05139145, -0.1024317, -0.019196063, 0.08397742, 0.024573961, 0.044515856, -0.016064517, 0.104120046, -0.06492457, 0.08553141, 0.007341248, -0.007781068, -0.009574663, -0.061847426, 0.043081053, -0.024590613, 0.07419266, -0.10213212, 0.0003407743, -0.071216606, -0.0999941, -0.07967256, 0.0855514, 0.006252086, -0.09093158, 0.038071122, 0.065900974, -0.03267336, 0.085147455, 0.05320253, -0.09572386, -0.08245556, 0.024723843, 0.0034505888, -0.09773939, -0.09529099, -0.09638236, -0.04318408, 0.05705763, -0.003646776, 0.07483869, 0.03812548, -0.0982517, 0.08289165, -0.11298176, 0.037322644, -0.046233296, 0.060347654, -0.0666788, -0.083778076, -0.071402684, 0.056875143, -0.06124631, -0.057715606, 0.053827792, -0.07833752, 0.11353353, -0.02868468, 0.011238756, -0.07511218, -0.076603785, 0.040190645, 0.0912207, 0.032338683, -0.12511142, -0.13174151, 0.0884115, -0.061051674, 0.062700205, 0.03273525, -0.0020986397, 0.015137816, -0.045017254, -0.08175387, -0.07697739, -0.0028485572, -0.042919684, 0.09918641, -0.13308735, 0.07493118, -0.1050575, -0.065830186, 0.01823467, 0.017150052, 0.06413644, -0.12733842, -0.04060583, -0.02739529, 0.09242444, 0.11097458, -0.060283463, -0.06609534, -0.0058324225, -0.04844717, -0.10798351, 0.08003741, -0.002345163, -0.062182654, 0.12845954, 0.014597602, -0.07035675, -0.097814195, 0.1064625, 0.0010151875, -0.0690517, 0.13045786, -0.034843, 0.064411536, -0.04022399, -0.067039415, 0.10732664, 0.12813833, -0.10893427, -0.017318858, 0.05824094, -0.092888825, -0.05032489, -0.032817937, 0.005332008, -0.025478363, -0.012327689, -1.0450214e-05, -0.0034982897, -0.096024, 0.019068995, 0.06868797, 0.100393705, 0.073184386, -0.01306025, 0.084161915, -0.07982247, -0.01057195, 0.001399452, 0.0550085, -0.015886439, 0.03337424, -0.08170015, 0.01987351, 0.055793323, 0.016175192, 0.12586372, 0.10482995, 0.10421786, 0.032097843, -0.09570796, 0.059661385, 0.004716247, -0.08930014, 0.04893191, 0.10967635, -0.033927575, 0.06925339, -0.094418064, -0.10046521, -0.119269945, -0.012858127, 0.08389075, -0.089975625, 0.09082551, -0.0065510953, 0.067882314, 0.07598435, 0.053094298, -0.05848115, 0.031279262, -0.035186145, -0.1099157, -0.057687573, -0.021761099, 0.084902465, 0.04776638, -0.014713036, 0.11265282, 0.10778354, 0.013589927, -0.092528075, 0.12192931, -0.021193746, 0.050349545, 0.080302835, -0.06805784, -0.04104876, -0.07723693, -0.048487954, -0.08651895, -0.025451502, -0.016353877, -0.029360894, 0.074511066, 0.05004984, -0.023378804, 0.08578821, 0.029244125, -0.008428913, 0.016018152, -0.06980891, 0.08480037, -0.06530262, 0.09449382, 0.10017354, -0.06722076, 0.07437037, -0.020448057, 0.06641361, -0.10232545, -0.12306071, 0.014819933, 0.08634081, -0.10104516, 0.057253163, -0.087438874, -0.045932766, 0.019716943, -0.011122009, -0.052511685, 0.099640094, -0.057939664, -0.07944082, 0.03109123, 0.028946595, 0.095599756, -0.09044659, -0.036141403, 0.09298937, -0.038795598, 0.020217605, -0.0954957, -0.052126355, -0.07153195, 0.10454998, -0.015025541, 0.13551031, -0.040742647, -0.11384373, 0.12838404, -0.034798417, 0.0523939, -0.047548555, -0.06661066, 0.118731804, -0.016278679, -0.04990606, -0.022877423, -0.018145872, 0.053005647, 0.038191035, -0.09822553, -0.024547022, 0.0045343717, -0.07155655, 0.13164388, 0.028255107, -0.056450605, 0.11438467, -0.032986898, 0.11894874, 0.07084378, 0.10668386, 0.10128934, 0.037475098, -0.0012677759, -0.014275469, 0.008457556, -0.061384633, 0.021890804, 0.004310742, 0.04202722, 0.064842016, -0.08065856, -0.037757993, -0.02765964, -0.05110679, 0.11560124, 0.1228669, 0.018165752, 0.032819077, 0.013610035, -0.1165646, -0.12975968, -0.0998366, 0.03958851, -0.05778926, 0.049529925, 0.110820964, -0.05723478, -0.013182432, 0.0043159025, -0.022089563, -0.0434727, -0.09819703, -0.0882438, -0.11903306, -0.12571494, -0.012346901, -0.029386112, 0.090671465, -0.041358326, 0.08598973, 0.058796268, -0.12297601, -0.04506503, -0.085042514, -0.039739687, -0.006674886, -0.028723033, -0.12558062, -0.02059233, -0.06254637, -0.06172488, -0.011891523, -0.106308445, 0.06912074, 0.06921209, 0.08475338, -0.0010447565, -0.005871985, -0.12516826, 0.09258671, 0.10935508, 0.07498591, 0.026512481, -0.009963991, -0.041361343, 0.053181693, -0.06782707, -0.03737388, -0.08825706, -0.10073113, -0.07252465, 0.025739588, 0.0833475, -0.086604, 0.07896905, 0.104618594, -0.09067735, -0.060027473, 0.10285092, 0.023316778, 0.11621786, -0.094769455, 0.045859534, 0.06587956, -0.057104733, -0.013984078, -0.10695961, -0.061768737, -0.0054171938, 0.044041816, -0.060260516, 0.020180987, 0.003911464, -0.13074687, -0.06191319, 0.00689869, -0.07621118, 0.0074131684, -0.10292487, 0.045954484, -0.03245842, 0.02417897, 0.066555776, 0.017167259, -0.057033084, 0.032728627, 0.025669118, 0.055251062, -0.05263126, 0.040395055, -0.046909038, -0.01579771, 0.017187996, 0.07203996, 0.11158749, 0.023666373, 0.12152005, 0.11287145, 0.1061012, -0.07872695, 0.06736402, -0.098056234, -0.100794695, -0.09136058, 0.119822234, 0.028832361, -0.036218155, 0.0109826, -0.083682984, 0.089717194, -0.094124965, 0.020258171, -0.13531306, 0.07778282, -0.10052647, 0.08193617, -0.052939072, 0.0522121, 0.050261095, 0.03685988, 0.0949218, 0.06867053, 0.12193111, -0.0013224945, 0.011961807, -0.086558364, -0.10596113, -0.005374928, 0.06546644, -0.09571265, -0.12100064, 0.09473232, 0.03021147, -0.13219668, -0.036336172, -0.08974757, 0.015236826, 0.06281008, -0.12952854, -0.09063589, 0.009936506, 0.033949263, -0.0003330509, 0.039699778, -0.124982275, -0.11695091, 0.025311481, -0.00904147, 0.06759621, -0.13123396, 0.10638422, -0.09931011, 0.12073007, 0.11948967, -0.059657723, 0.10968307, -0.12918307, 0.09099543, -0.047331803, 0.08051708, 0.09752822, -0.03300678, -0.112535216, 0.011887506, -0.01496084, -0.0061338767, -0.11286077, -0.119580574, -0.107905425, 0.09722501, 0.040687457, 0.092060685, 0.09403454, 0.0020617843, -0.10890409, 0.01012522, -0.099364616, -0.0065866187, -0.030201867, 0.075877756, 0.09204097, 0.12050465, -0.07679336, 0.03863345, 0.0016062558, 0.076731354, 0.11548613, 0.12277165, 0.013223648, 0.0740587, 0.062494263, -0.05747482, -0.045346282, 0.112133, 0.040840983, -0.0011876076, 0.06339739, -0.12435819, -0.034270093, -0.11150089, -0.011122808, -0.022338316, 0.0235392, 0.008384347, 0.07004386, -0.010032609, 0.05854249, 0.08037381, -0.0452646, -0.018475369, 0.015501395, 0.084101155, 0.07651389, 0.09445591, 0.12079126, -0.034253746, -0.100294076, -0.09630509, -0.046504453, 0.0222532, 0.04073392, 0.044488594, -0.000820294, -0.103737906, 0.041641712, 0.1115125, -0.017308876, 0.06786001, -0.01903925, -0.015632473, 0.016080573, 0.08042875, -0.10521541, 0.053202316, -0.04832778, -0.1108747, 0.10814689, -0.013043761, -0.09105415, 0.044516638, 0.12146357, -0.04283294, 0.12941274, 0.019690484, -0.032678843, -0.043664746, -0.113542706, 0.023639694, -0.12205012, 0.017989606, 0.03526309, 0.08942185, 0.033564106, 0.118125856, 0.027927652, 0.07742673, 0.0071852654, -0.075281836, -0.055418298, 0.07504456, 0.09181644, -0.1004211, -0.1088079, 0.08884634, 0.031819552, 0.022440866, -0.017266527, -0.060151562, 0.018844098, 0.05001247, 0.10062276, 0.04480116, -0.09453502, 0.10165319, -0.055307552, 0.117504, -0.036654614, -0.033623405, 0.038624287, -0.04182718, -0.013015404, -0.050101988, -0.1290993, 0.10393594, -0.048326693, 0.11301656, -0.09776588, 0.047709852, -0.00010830164, -0.102869235, -0.04538983, 0.035829425, -0.04645601, 0.058437213, -0.11857875, -0.030926332, -0.1257179, 0.097917974, 0.0036938041, -0.07146962, -0.08907847, 0.0822877, 0.01097928, -0.035509042, 0.06151274, -0.10228074, -0.050415963, 0.12603903, 0.025793046, 0.056776017, -0.091226086, -0.11546988, 0.06011699, -0.0077772513, 0.08382584, -0.013208643, -0.04803191, 0.00070630014, -0.12928797, 0.005000666, 0.10703592, 0.047209576, 0.101849675, -0.12477261, 0.025140196, -0.011708051, 0.06137228, 0.03641455, 0.056234017, 0.082760066, 0.03250049, 0.036625057, 0.12176594, 0.058015153, 0.04910499, -0.08232772, -0.013661072, -0.014847249, -0.12363689, -0.08521153, -0.1244547, -0.11767643, -0.1138015, -0.08928062, -0.074379, 0.12605977, 0.022562653, -0.027724579, -0.009434491, -0.03157617, -0.031268597, -0.049624242, -0.008630291, 0.11087464, -0.030345917, 0.054058686, 0.0013480932, 0.05945061, -0.12628815, 0.11910933, -0.0932125, -0.05023592, -0.100290924, 0.07583387, 0.12724471, -0.022977635, 0.112972975, -0.051682375, -0.063326724, 0.047354713, 0.02980946, -0.042671494, -0.003524959, 0.0321209, 0.12623984, 0.026563257, 0.0306212, 0.019155845, -0.07776132, 0.025172174, 0.066719264, 0.054536074, 0.006548643, -0.04861313, 0.08885865, -0.058841422, 0.12538892, 0.029695272, 0.04794982, -0.11436081, 0.03633286, 0.0938988, 0.12800688, 0.010717526, 0.06361635, 0.10718873, 0.046377018, 0.078782305, -0.049416736, 0.0720257, 0.06261712, 0.07652593, 0.058576494, -0.022645421, 0.07788281, -0.07671792, -0.06999509, 0.03900212, -0.09298724, -0.004817575, 0.07591641, 0.00048343837, 0.07737163, 0.02659358, -0.12063493, 0.08827673, 0.095201954, 0.12804118, 0.10724723, 0.086771, -0.040104568, -0.055610508, 0.09604587, 0.12698501, 0.106188506, 0.12952125, 0.07103895, -0.07739599, -0.04837077, 0.058526725, -0.09807162, 0.08451508, 0.03864348, -0.11793126, -0.09520006, 0.12016316, 0.019291952, -0.10698519, 0.104607314, -0.08055744, -0.040706344, -0.054201536, 0.045196533, -0.036147058, 0.00039958954, 0.01268056, 0.10576889, -0.01450108, -0.12959003, 0.12368649, 0.025858313, -0.108890444, 0.109219715, 0.100464135, -0.079287104, 0.044735536, -0.080313504, -0.044691615, -0.056254655, -0.07232566, -0.08931151, 0.086727664, -0.10447064, -0.023757689, -0.023362681, -0.064540826, 0.057494253, 0.11827956, -0.10782232, -0.052129693, -0.03608138, 0.10197289, 0.12561125, -0.08593798, -0.066844836, -0.094677806, -0.052661948, -0.03194224, -0.07318947, -0.082031935, -0.011418678, -0.003625825, 0.048291728, 0.073067516, -0.09652574, -0.090582594, -0.056607567, -0.03981564, 0.07502414, 0.1127619, -0.057200424, 0.043033868, -0.028113943, -0.034930293, 0.13152799, 0.063626, -0.11811081, -0.029640704, -0.12019058, 0.08428324, 0.07401583, -0.08347308, 0.022658613, -0.043343764, -0.06671883, -0.061315883, 0.073592216, -0.037875902, -0.011146491, -0.011533773, 0.020587325, 0.1393606, -0.093936056, 0.018470861, 0.10963952, 0.041468546, 0.026615184, -0.00878082, 0.019118309, -0.0032409274, 0.059015874, -0.018458813, -0.11191307, -0.03762104, 0.045366894, 0.055121556, 0.047809396, -0.030685069, -0.11736772, 0.018080996, 0.009747971, -0.078980274, -0.02935905, 0.06291027, -0.0036689108, 0.06789172, 0.105907, 0.018747328, -0.0046810955, -0.085308075, -0.07090387, 0.13615358, -0.012864926, 0.016804187, 0.08663736, -0.051556133, 0.033602197, 0.10136861, 0.13712767, 0.013414907, -0.065856464, 0.13637076, 0.0037162548, -0.06950069, -0.03331815, 0.06556702, 0.091006525, -0.05105025, -0.05645971, 0.0012145874, -0.09547712, 0.096650876, 0.07734186, -0.055563774, -0.095284395, 0.05017503, -0.07400978, 0.07286806, 0.033418592, 0.008065254, 0.12091821, 0.10327293, -0.05165269, -0.11061121, -0.022676859, 0.081256114, 0.10224625, -0.108580716, -0.042475726, 0.0886264, -0.0045316136, 0.08822218, 0.019649426, -0.06885731, 0.10933632, 0.025053104, 0.12713802, -0.008492318, 0.030291282, 0.103663445, -0.016246505, 0.042645015, -0.09000318, 0.09272393, 0.015417613, -0.033408105, -0.020522365, -0.027839245, -0.11424942, 0.07933866, -0.06297846, 0.05457508, 0.12576982, -0.03383615, 0.06534738, 0.022644162, 0.024976103, 0.019817851, -0.09220736, -0.10458232, -0.0757333, -0.0657824, -0.002079543, 0.10992975, -0.0034554615, 0.038957324, -0.09319257, -0.11992097, -0.013118675, 0.109023966, 0.018910108, 0.07777962, 0.12124577, 0.036923688, -0.032743856, 0.078349814, 0.011000551, -0.07795488, 0.012929456, -0.118819326, 0.026688544, -0.097964026, 0.0126944035, -0.010976365, -0.061519105, -0.007424805, 0.023101686, 0.041374817, 0.12550853, 0.02602613, 0.032053098, -0.02017819, -0.09553806, 0.0465074, -0.08393084, 0.06755746, 0.028082777, -0.00060045463, 0.047597587, 0.033489384, 0.068551116, 0.09104763, -0.080804676, 0.08721085, -0.068612084, 0.08921105, -0.058652304, -0.11605556, 0.03852558, -0.0045150816, -0.0049328133, 0.11232704, -0.001942873, -0.00802137, -0.0380357, 0.058267906, -0.02350831, 0.030076042, -0.043686844, -0.109138034, 0.09392242, 0.021979213, -0.023136266, 0.044759154, -0.058114566, -0.043694742, 0.11397657, 0.087350726, 0.07916902, 0.11000741, 0.0062569147, -0.1184259, -0.0108005935, -0.075344585, -0.039706297, -0.0986484, -0.1190721, 0.106874466, -0.06746893, 0.05109128, 0.013140294, -0.10068274, 0.024403805, -0.13332887, 0.008018194, -0.009090137, -0.13700405, -0.05616261, 0.08014199, 0.09012437, -0.026000038, -0.121207945, 0.1048955, -0.05852124, -0.08940221, -0.03617082, 0.06657507, 0.014016668, -0.08544952, -0.019960957, -0.0864433, -0.02176038, 0.038098786, -0.038735244, -0.075574994, 0.11212338, 0.048590146, -0.10281291, -0.0970096, 0.027085213, -0.11130443, -0.11894506, 0.094809264, 0.038860966, -0.13142426, -0.08572872, 0.04925588, -0.049435075, -0.010456094, -0.032156978, -0.08094701, 0.10687855, 0.0069880304, 0.055373177, -0.058558065, 0.039034016, -0.118247524, -0.01082653, 0.027803482, 0.07244035, -0.030507887, -0.092160635, -0.037370097, -0.12226481, 0.06562981, 0.06537476, 0.038213585, 0.058900516, 0.10408002, -0.11123728, 0.0048621795, -0.075466, 0.09546304, -0.041059587, 0.110326104, 0.055360664, 0.046026144, -0.09810181, 0.11392938, 0.08196384, -0.077242, 0.06722762, -0.045816824, -0.044648644, 0.04819716, -0.11537447, 0.065533504, 0.10236017, 0.08759724, -0.09229954, 0.017589543, 0.046731044, -0.026630962, -0.017871836, 0.09425327, -0.13671568, 0.009750088, -0.092133775, -0.1302272, 0.031857796, 0.0041018464, -0.13582437, -0.051646553, -0.00096826314, 0.011461354, -0.07292082, 0.036581792, -0.05261622, 0.103867084, 0.027326316, -0.10392388, 0.00013363245, 0.010052706, 0.07953096, -0.13580754, -0.07537657, -0.11177105, 0.10799916, 0.07268587, 0.10892025, -0.027688919, 0.10568432, -0.06936092, -0.08696692, 0.08013708, -0.0145575795, -0.030428778, -0.11443598, -0.078857526, -0.11629449, -0.12926066, -0.004793003, -0.06974638, -0.03572895, 0.08107076, 0.060954798, 0.081308745, -0.114775166, 0.11667819, -0.045489855, -0.074377075, 0.070314124, 0.084881485, -0.11603061, -0.004175544, 0.12834167, 0.061783507, -0.046446323, 0.07000676, -0.08343534, 0.088372275, 0.018671751, -0.119839, -0.06462975, -0.056563556, 0.021089211, -0.12042263, 0.056577235, -0.06878984, 0.109935984, 0.09079555, -0.014474988, -0.038656197, 0.12586546, 0.016500935, 0.088897586, -0.08538957, 0.09706642, -0.12053006, -0.058886178, -0.106428325, -0.008569501, -0.026874386, 0.050539806, -0.065281786, 0.02657412, 0.11908555, -0.03194435, 0.0009031147, -0.071395144, 0.12840176, 0.04767506, 0.11458483, 0.048117206, -0.005817488, -0.020025142, -0.11713124, -0.063936666, -0.08335155, 0.10743752, 0.1187015, 0.060791954, 0.015890956, 0.075274035, 0.03767903, 0.039352655, 0.077141315, -0.038331136, 0.046431154, 0.063086316, 0.069728926, -0.11586099, -0.1261984, 0.05079049, -0.09667707, -0.09761065, 0.08314563, -0.11851783, -0.013468578, 0.10739051, -0.012949817, 0.014866278, -0.08311394, -0.086313084, -0.061903544, -0.06702996, -0.057467423, 0.12209067, -0.07724033, -0.019682683, 0.04089503, 0.088974506, -0.0036919713, 0.07791147, 0.015698865, 0.06466265, -0.06487247, -0.011779644, -0.0007047206, 0.07823539, 0.12732428, 0.09312089, -0.11342453, 0.12615615, 0.013174936, 0.00916189, 0.09225416, 0.0046084374, 0.008970484, 0.10267086, -0.07968261, 0.097677976, 0.0016968846, 0.094523296, 0.07218693, -0.013988763, -0.00133726, 0.0625644, 0.10646823, -0.111849226, -0.11318896, -0.022696093, 0.065932065, -0.041457765, -0.09943426, -0.08706424, -0.014813013, -0.11692142, -0.07457876, 0.1201327, -0.008906759, 0.0842946, 0.060957238, -0.017565586, 0.03818749, -0.12922415, -0.12814392, -0.11230651, 0.031945243, -0.09580438, -0.08942601, -0.116124086, -0.09156638, 0.050924763, -0.11754073, -0.04119616, 0.057573095, -0.06307567, 0.123962134, 0.11386247, 0.10616006, -0.05117832, -0.00062696636, 0.08502823, 0.089478806, 0.0029137433, 0.08637552, -0.054659694, 0.030255511, 0.12642118, 0.07730712, 0.11981194, 0.038335383, 0.025710031, 0.120633185, -0.10094825, 0.0065131634, -0.12018501, 0.08973199, 0.114195734, -0.11520645, -0.08595073, 0.11402674, -0.057865687, 0.009053871, 0.04940009, 0.08731355, -0.015885815, -0.09632926, 0.011551499, -0.098712206, 0.12543654, 0.0041859746, 0.06968668, 0.07632291, -0.079480335, -0.10195144, -0.044933878, 0.08708735, -0.08599691, 0.021709427, -0.003048569, -0.06016524, -0.06394301, 0.06936991, 0.095324054, -0.05035261, 0.03541699, -0.10891648, -0.08161285, 0.09399463, 0.03675969, -0.027834862, 0.11787474, 0.043096244, 0.014529675, 0.06323263, -0.109563716, 0.013608456, -0.10322057, 0.042207703, 0.11833048, 0.0086848885, -0.094738916, 0.010592565, -0.0043887645, -0.12818542, 0.011156544, -0.073835105, 0.08466551, 0.08742127, -0.06135439, 0.069814354, -0.014217034, 0.09887324, 0.034610376, -0.058628187, 0.04690011, 0.03022848, -0.053690583, 0.12571606, 0.07102573, -0.12339493, -0.0047447234, 0.11780745, 0.11741352, -0.02987612, 0.012113005, -0.09322752, 0.08077878, -0.015223809, 0.03731455, 0.107314825, -0.11377742, -0.023225285, 0.08767411, -0.07245086, -0.050931722, -0.024669074, -0.121727414, -0.050011456, -0.093033694, 0.11134216, -0.09872276, 0.054627657, 0.10460639, 0.1048052, 0.049971774, -0.119848095, 0.054716825, -0.0040985644, -0.09316169, -0.011848725, 0.06589733, 0.110445365, 0.001027301, 0.05251783, 0.06001243, 0.10187873, 0.074187994, 0.100366786, -0.0014489889, 0.10426137, -0.09892414, 0.029676393, -0.076238565, 0.04439667, 0.10260382, -0.11916609, -0.041847795, -0.118952096, -0.038114592, -0.0035773516, 0.07370491, 0.07609381, -0.089146726, -0.047423795, -0.09747254, -0.074277714, -0.055593237, -0.10828991, 0.093341455, 0.10029808, -0.068575904, -0.08115918, 0.10794474, 0.12727901, 0.06540944, 0.011955515, -0.00094664097, 0.07434113, 0.046075955, 0.06588288, 0.08568105, -0.062016517, -0.0023326427, 0.0679151, -0.048930354, 0.062802896, 0.08345933, 0.11126739, 0.059084922, -0.0077475086, 0.045392066, 0.09974167, -6.686151e-05, -0.022411115, -0.012308337, 0.08052212, 0.017466202, -0.10306516, -0.0962673, 0.048998177, 0.060506955, -0.103556186, -0.059795924, 0.0040670484, 0.08066581, -0.08700196, 0.07704598, -0.11823524, -0.07280257, 0.07131009, -0.058670007, 0.016140372, -0.07774854, -0.12919746, -0.1282412, 0.07490347, -0.021993265, -0.0015446097, -0.105141744, -0.0330533, -0.05374168, -0.11201832, 0.0270333, -0.04352828, -0.09862684, -0.10427784, -0.10689981, 0.0802212, 0.021267053, -0.031313676, -0.056099635, 0.11131334, 0.07018911, 0.11437694, -0.0058576623, 0.05140992, 0.10460868, 0.051314883, 0.131016, 0.1281741, 0.07207424, -0.012553889, -0.035913546, -0.0021015115, -0.06169436, 0.107534856, 0.04065416, 0.14321518, 0.030385656, -0.016253203, 0.05022012, 0.036217835, -0.090220794, -0.005869158, -0.08822029, -0.1265604, 0.10135352, 0.0069074365, 0.083711624, 0.06362378, -0.035242196, -0.0865594, 0.06858487, 0.11735705, 0.124933235, 0.0661612, 0.06003997, 0.0002138814, -0.03612855, 0.09115723, 0.04466916, -0.006688745, 0.010428569, -0.0027174077, -0.08085373, -0.12440667, -0.11429281, 0.03803912, 0.07611902, -0.1053357, 0.042117674, -0.056572046, -0.029693829, -0.06924995, 5.5502398e-05, -0.08459515, -0.025403015, -0.058071084, 0.05302836, -0.064956866, 0.06705584, -0.08914476, 0.09048948, -0.01689197, -0.0226241, 0.16888048, 0.17059037, -0.11368903, 0.008885953, -0.025920173, -0.12785059, 0.09986826, 0.048427284, -0.116713434, -0.008460811, 0.063051574, 0.12107886, -0.0838136, 0.124629416, 0.117218964, 0.13302656, 0.057597175, -0.041028257, -0.04006251, 0.036830973, -0.08741048, -0.08892958, -0.0074258773, -0.08187661, 0.14037296, 0.012980898, -0.073886685, 0.019746333, -0.013629903, 0.073925115, -0.018478135, 0.12019063, 0.09747446, -0.12171013, -0.04188701, -0.1058835, -0.084227726, -0.018252168, -0.08283857, 0.038478944, 0.1288228, -0.02416586, 0.04150281, -0.020267852, -0.084111646, -0.048116826, -0.064832225, -0.07221127, 0.0034743585, 0.043763928, -0.023304991, -0.010555619, 0.09639919, -0.076622136, 0.07494782, 0.012972089, 0.037674848, -0.048336588, -0.08838698, 0.02199478, -0.09798108, -0.09901581, -0.10667249, 0.11215315, 0.041624695, -0.05013098, 0.0651971, -0.032876093, 0.15015098, 0.061556485, -0.07415643, -0.043698397, 0.046286013, -0.008919163, -0.14526036, -0.04415417, -0.13361593, -0.0116358735, 0.10612325, -0.124125324, -0.11036544, -0.039647847, 0.067597464, -0.096585356, -0.08481261, -0.03733435, -0.03751869, -0.10881412, -0.014253043, -0.014360414, 0.06747312, 0.10174711, 0.01301638, -0.0055158846, -0.09061216, 0.074917585, 0.022430705, -0.034013607, 0.127711, -0.10819217, 0.09989384, -0.11074857, 0.020815745, 0.033828348, 0.01858744, -0.12743007, 0.052891955, 0.12645826, 0.054505542, -0.035273246, -0.10735755, 0.005009383, -0.05998931, -0.110581204, 0.104289785, -0.039483078, -0.08852019, 0.026409358, -0.119719826, -0.061484642, -0.10027009, 0.105476454, 0.049376078, -0.001994913, 0.009166063, 0.1048703, -0.06257293, -0.0030412395, 0.10461603, -0.08102894, -0.035804976, -0.10195844, -0.08514649, -0.044109117, -0.050157245, -0.06300849, 0.033144396, 0.027649293, -0.045855947, 0.097959146, -0.07415012, -0.052530184, -0.015093244, -0.065068886, -0.09044545, -0.14129792, 0.08736574, 0.1219653, -0.08889003, 0.06899028, 0.039689768, 0.05190414, 0.11685973, -0.07110476, 0.068132445, 0.020866485, 0.05581223, 0.009558202, -0.12907451, 0.095168635, -0.10741704, -0.03176699, 0.050506648, -0.07653418, -0.019689253, 0.090737216, 0.067378804, -0.064690515, 0.0844348, 0.024392374, 0.043109067, 0.005842516, -0.08025317, 0.017211728, -0.046794027, -0.080383115, 0.021406813, 0.09681384, -0.0013439166, 0.07065183, 0.09251918, 0.042558864, -0.104681246, -0.07845019, -0.13251384, 0.09962269, 0.032439604, -0.09480522, -0.07175068, -0.004297531, -0.07004458, 0.07758627, -0.10631305, -0.1151532, -0.081562154, 0.06483974, 0.09090643, 0.032475997, 0.092723064, -0.041169666, 0.13014066, -0.09462806, -0.07634608, 0.07219092, 0.115939975, 0.06696176, -0.10885804, -0.07585118, -0.12819347, 0.07674305, -0.120001346, -0.100498006, 0.06771009, -0.15781035, -0.14979106, -0.010503949, -0.16038018, -0.08925316, -0.05877391, 0.1279239, 0.111123, 0.037268028, -0.03660197, -0.035611946, 0.07372444, -0.0131591465, 0.09359142, 0.0021197058, -0.118311666, -0.050901942, -0.010026589, -0.08344045, -0.104164116, 0.09313948, -0.11782328, -0.0647794, -0.002319251, -0.09337873, -0.12753163, -0.010931111, 0.033252876, 0.06910124, 0.07194272, 0.12267014, -0.01764465, -0.0625813, 0.03553527, -0.06400264, 0.040960234, -0.047861405, 0.08703307, -0.042097844, -0.056584522, -0.12171142, 0.0155955525, 0.076077506, -0.014294988, -0.115114965, 0.09905379, -0.0030499515, -0.048192523, -0.11926048, 0.033644624, 0.008616337, 0.012184019, -0.03728875, 0.11013229, -0.0867406, 0.11353299, 0.06554527, 0.12495841, 0.11277449, -0.05048174, 0.12976444, -0.051297422, 0.026670856, 0.13445559, 0.06848255, -0.061785836, 0.039531343, 0.13232455, -0.094991006, 0.011606815, 0.046638653, 0.07046147, 0.0015836846, 0.08901759, 0.07890413, 0.111425795, -0.0660047, 0.11646972, -0.097771786, -0.023342613, 0.0035002641, -0.100747, 0.100802556, 0.08822634, 0.1126067, 0.10255457, -0.042008203, -0.10553549, -0.10020515, 0.12309781, 0.021537168, -0.025179237, -0.090538636, -0.0023837753, -0.0507657, -0.06348398, 0.018203009, 0.112209864, -0.11541766, 0.0884968, -0.04080471, 0.12098615, -0.047182564, 0.072473995, -0.12148237, -0.114890635, 0.043564495, 0.09707963, -0.07954344, 0.072151855, 0.069314145, -0.057884093, -0.052260965, 0.0017916956, -0.019836117, -0.026338613, -0.06354622, 0.015828457, -0.03798786, 0.040109303, -0.11091964, -0.044064708, -0.11899691, 0.054662604, 0.043217734, -0.001105592, -0.034467112, -0.089910895, 0.04720741, 0.040185075, 0.110135496, -0.0844962, 0.023903592, 0.13483995, 0.11302359, 0.081822395, 0.0559456, 0.04074446, 0.018912645, -0.05752932, -0.015868468, -0.03256271, 0.1131591, 0.07486453, -0.031363975, 0.0146678835, 0.09998613, -0.012343423, -0.0714521, -0.05447867, 0.035580993, 0.115450256, 0.067634195, 0.019350726, -0.106335856, 0.10821211, 0.12669343, -0.120748505, -0.041652, -0.01785542, -0.07943114, -0.062355258, -0.10751326, -0.067485966, -0.07735459, -0.09740801, 0.109268434, -0.085195616, 0.0070670065, 0.12591356, 0.10882938, -0.09392241, -0.1132747, 0.051365677, -0.027965158, 0.0035077743, 0.082269065, 0.019812984, -0.06709466, -0.040794227, 0.100523144, 0.043289393, -0.09016969, -0.08419904, -0.053684987, -0.06520391, -0.062895425, 0.08436866, 0.09314982, -0.10562158, 0.10313986, 0.001596247, 0.12515356, -0.090487525, -0.067925036, -0.0040771826, 0.12451478, 0.037690975, -0.02154335, 0.06458173, 0.01771571, 0.034805372, -0.0137000475, 0.021175649, -0.016059298, 0.075941816, 0.1068529, -0.051809885, -0.092958026, 0.046347115, 0.0413961, -0.0674558, 0.11132375, 0.06849143, -0.073800966, 0.0015677038, -0.1210031, 0.11984774, -0.11242486, 0.021733651, 0.043684833, 0.09163472, -0.008079097, -0.06842801, 0.11447589, -0.031939298, -0.05613657, 0.11226702, -0.12494718, 0.10614227, 0.03848234, -0.10842255, 0.07886012, -0.0636386, 0.07063568, 0.025452718, 0.04017681, 0.071547896, 0.09813978, -0.0055950955, -0.05810804, 0.091441855, -0.09839244, 0.063208, -0.124812506, 0.0008008742, -0.06153966, 0.07325168, -0.11989782, 0.04267786, -0.026637495, -0.033134177, -0.1291247, -0.084647946, 0.10300472, -0.095522724, 0.10123577, 0.08071285, 0.07471836, -0.06165957, 0.12174624, 0.03568692, 0.068877906, -0.022088476, 0.05194862, 0.08551624, 0.06763448, 0.044144843, 0.047824375, 0.035375204, 0.044013795, 0.014739262, 0.017399577, 0.048207052, -0.10010003, 0.09637557, 0.0782129, 0.051141545, 0.036951244, 0.118978724, -0.09915376, -0.07229959, 0.0057969377, -0.07199455, -0.1253382, -0.08062763, -0.06465096, 0.022691328, -0.06706677, -0.0054245805, -0.012906434, 0.013172349, -0.064344026, -0.06835657, 0.002826548, -0.03618279, -0.085357204, 0.11628013, 0.09461091, 0.11801502, 0.015438034, 0.035390254, -0.07654253, 0.06638312, -0.08224758, 0.022204293, 0.10048888, 0.12077026, -0.07809271, -0.06678599, -0.061368555, 0.122907236, -0.07410779, -0.016960254, -0.047211662, 0.017134817, -0.11383579, -0.03900022, -0.09938235, 0.022829434, -0.13349068, -0.055015337, -0.048872545, 0.10309039, -0.0261197, -0.026987312, -0.1200592, 0.0064170356, 0.11059099, -0.07960821, 0.0043363986, -0.03577602, -0.11392716, 0.01129136, 0.022325829, 0.061602585, 0.0034795755, 0.004416869, -0.12638666, 0.105003946, 0.101718105, -0.061763674, -0.10518133, 0.061396316, -0.13503705, 0.10784821, -0.07957876, -0.08282719, 0.062717855, 0.061823912, 0.026178567, 0.054160807, 0.07626463, 0.11708836, 0.114389606, -0.049979605, 0.020561516, 0.12167378, 0.101244524, 0.0805525, -0.08091129, 0.055322215, 0.12203373, -0.11240731, -0.01110993, -0.104857616, -0.032015413, 8.891025e-05, -0.0011910916, 0.10061468, -0.103463516, 0.022660144, 0.09596903, -0.025852947, 0.12088053, 0.10103415, -0.057953015, -0.10596542, 7.2107774e-05, -0.020717718, -0.08193359, 0.11994752, -0.038300052, 0.09977612, 0.0052906647, -0.070841305, 0.04683962, -0.09461947, 0.033310395}; //layer 1 weights
float layer1Biases[] = {-0.0052679046, 0.0, 0.0, 0.0, -0.007854422, -0.1477389, 0.0, -0.7118399, 0.0, 0.0042985156, -0.0060052224, 0.0, 0.0, -0.0059931185, -0.006005225, 0.0, 0.001294113, 0.0, -0.3973825, -0.006003786}; //layer 1 biases
float layer2Weights[] = {-0.2633674, -0.33673796, 0.02324757, 0.29224843, 0.14105439, -0.34209368, -0.27785194, -0.0987929, 0.0640744, -0.13873409, 0.0054158866, -0.35414556, 0.36629212, 0.15812361, 0.33294284, -0.1410782, -0.101394355, 0.054085433, 0.19686736, -0.14375779, -0.33960736, -0.26768872, 0.31009322, 0.03338808, 0.09354578, 0.15347876, 0.025781542, 0.008634842, 0.32704294, 0.32021734, -0.27139357, 0.2360043, 0.22361267, 0.0657099, -0.32066563, 0.38438994, -0.052042108, -0.075463414, 0.2169505, 0.009547588, 0.27777392, 0.15643829, -0.021503568, -0.036269337, -0.32032847, -0.0976814, 0.22194439, -0.28543693, 0.33993888, -0.1708741, -0.0383237, -0.31445378, -0.25714707, 0.32045472, -0.37318173, 0.18733412, -0.076575994, -0.22879177, -0.28673467, -0.3470987, -0.331281, -0.024170041, 0.037684053, -0.121899545, 0.05642628, -0.13646096, 0.14699882, 0.14006107, 0.018018126, 0.30014238, 0.37372944, -0.16030616, 0.35583407, 0.06263992, 0.22777472, -0.022716433, 0.009994342, 0.10186595, 0.19921532, -0.1587274, 0.08986062, -0.29236707, 0.31889027, 0.321815, 0.2331833, 0.1692583, 0.1648004, -0.0014253103, 0.37388653, 0.29079077, 0.19944762, 0.26396698, -0.28988925, -0.2654421, 0.21265815, -0.05960223, -0.042900532, 0.20273405, -0.2672052, 0.24549843, -0.25825042, 0.19366062, 0.23558074, -0.19481717, 0.30969408, 0.2934049, -0.13423568, 0.13615364, 0.1999793, 0.05008452, 0.12417569, -0.30427504, 0.03211093, -0.17737347, 0.289641, 0.3634935, 0.3136152, -0.057926834, -0.30962488, -0.013271188, 0.046596617, -0.1630323, -0.09544724, 0.20853275, -0.23480971, -0.022679955, 0.3448953, -0.17101657, 0.24639595, 0.2441476, -0.3078517, 0.085374445, 0.32968813, 0.009149224, -0.0042496324, -0.028807878, -0.03400895, -0.2365816, -0.14767666, 0.14902216, -0.16370942, 0.33868098, -0.3760146, -0.3798282, 0.073035106, -0.20871794, 0.1382674, 0.014958842, 0.26519704, 0.21390647, 0.2823157, -0.12818792, 0.060883254, -0.06393406, -0.14351086, 0.07893509, -0.38243142, 0.0072284937, -0.2677923, 0.22761577, -0.16384801, 0.116411924, -0.02306354, 0.025359184, 0.016211256, -0.080579914, -0.27704138, 0.17777784, 0.15137005, 0.2196858, -0.15377268, -0.08198598, -0.27295935, 0.25096774, -0.22702244, 0.12820947, 0.060873177, -0.10691771, 0.24488384, -0.35900608, -0.049346954, 0.17579985, 0.061628133, 0.13364029, -0.018511772, -0.35153577, -0.11718729, -0.010004087, -0.1489658, 0.27611583, 0.174631, -0.13284117, 0.3173135, 0.35911536, 0.04275328, -0.030377269, 0.24746653, -0.19215319, -0.25039813, -0.2602834, -0.014743796, 0.12272102, -0.3719552, 0.11918497, -0.009759114, -0.3485612, -0.21172512, 0.049160033, 0.051524967, 0.37090462, 0.21881272, -0.09172681, 0.1338222, -0.2807786, 0.24435212, -0.32991946, 0.32077527, 0.015777051, 0.23878798, 0.14872769, -0.3859466, 0.25911158, -0.37171456, 0.19369209, -0.24471548, -0.266317, 0.370041, -0.2538237, 0.24892586, 0.30341178, -0.11680558, 0.052709848, -0.032830983, -0.28274065, -0.29571244, 0.25266302, -0.20848566, -0.06493166, -0.2974027, 0.26786137, 0.19388133, -0.37027213, -0.09398711, 0.22675431, 0.15947253, -0.11046398, -0.30098972, -0.11920771, -0.25216845, -0.3188071, 0.18366224, -0.3232273, -0.035879016, 0.07287985, -0.32347763, 0.3837604, -0.078133725, 0.25615388, 0.17636599, -0.3007089, -0.06728275, -0.31902263, 0.20790893, -0.06451696, 0.21269591, -0.09198793, -0.35114813, 0.17438738, 0.06037742, 0.30715024, 0.041155815, 0.28795326, -0.1955761, -0.2323623, 0.15811807, -0.37542677, 0.029355794, -0.3575705, -0.42154458, -0.36356354, -0.2727597, -0.14859332, 0.11773443, -0.14611576, 0.08988991, -0.10284951, 0.38091844, -0.34783247, 0.31501657, 0.20120725, -0.023467565, 0.18600655, 0.093955874, -0.19423428, 0.3788532, -0.37276924, 0.28516483, 0.3463865, 0.26777378, -0.07635647, -0.1101814, -0.16572139, 0.16903454, 0.06783646, 0.13800849, 0.2947562, -0.18987545, -0.09934035, -0.3739509, 0.22621861, -0.058945015, 0.3454951, 0.2372073, 0.19930615, 0.21779075, -0.093304515, -0.050658286, -0.2926153, -0.29228202, -0.3729441, -0.028668344, -0.022310436, -0.3054486, 0.12711936, 0.14960307, -0.13235992, 0.35351223, -0.27851224, -0.32919627, -0.0037210882, -0.30425954, 0.19325358, 0.030467212, 0.04333225, -0.19714679, 0.16711497, 0.15883374, -0.34178606, 0.15087974, -0.11327121, 0.15268248, -0.38243273, -0.15123273, 0.3404585, 0.15052032, -0.19499308, 0.3615592, -0.3407162, -0.22485314, 0.31103897, -0.20918772, -0.1592487, 0.081677824, -0.26890427, 0.3131948, -0.008443683, 0.21981043, -0.06216103, -0.1603502, -0.37712035, -0.26763836, 0.2612887, 0.03024754, -0.26683533, -0.14858833, 0.14681444, -0.053017527, -0.36128744, 0.29373038, -0.1868364, -0.10565895, 0.1581865, 0.09879455, -0.028234154, 0.25358403, -0.17834267, 0.23183663, 0.091927946, 0.31955096, -0.25734478, -0.11189082, 0.09673917, -0.27940202, -0.29499587, -0.1783784, -0.33604977, -0.11966357, -0.22194742, 0.16419667, -0.2803266, 0.14895242, 0.14703059, -0.25527722, -0.098466575, 0.314667, -0.056630194, -0.32903078, 0.29886776, 0.1540749, 0.37212372}; //layer 2 weights
float layer2Biases[] = {-0.08404971, -0.38955185, 0.0, 0.0014292076, -0.17126341, -0.74322486, 0.0, -0.17430441, -0.55083215, -0.07781248, -0.5830925, 0.0, -0.012440857, 0.48500392, -0.007598198, -0.0176154, 0.0, 0.0, -0.0026679668, 0.0}; //layer 2 biases
float layer3Weights[] = {0.3763476, 0.40803376, -0.33434927, -0.08291321, 0.004081257, 0.35812464, 0.40759152, 0.00685142, 0.18301626, 0.45981115, 0.36909255, -0.30538684, -0.0049653333, 0.3029411, -0.2510021, -0.38013005, -0.48442703, -0.5061816, -0.0020785828, -0.39070034}; //layer 3 weights
float layer3Biases[] = {-0.01847052}; //layer 3 biases

float sensorData[] = {-0.4, -0.405, -0.41000000000000003, -0.41500000000000004, -0.42, -0.425, -0.43, -0.435, -0.44, -0.445, -0.45, -0.455, -0.46, -0.465, -0.47000000000000003, -0.47500000000000003, -0.48, -0.485, -0.49, -0.495, -0.5, -0.505, -0.51, -0.515, -0.34285714285714286, -0.34714285714285714, -0.3514285714285714, -0.3557142857142857, -0.36000000000000004, -0.3642857142857143, -0.3685714285714286, -0.3728571428571429, -0.37714285714285717, -0.38142857142857145, -0.38571428571428573, -0.39, -0.3942857142857143, -0.3985714285714286, -0.40285714285714286, -0.40714285714285714, -0.4114285714285715, -0.41571428571428576, -0.42000000000000004, -0.4242857142857143, -0.4285714285714286, -0.4328571428571429, -0.43714285714285717, -0.44142857142857145, -0.2857142857142857, -0.28928571428571426, -0.29285714285714287, -0.29642857142857143, -0.3, -0.30357142857142855, -0.3071428571428571, -0.3107142857142857, -0.3142857142857143, -0.31785714285714284, -0.3214285714285714, -0.325, -0.32857142857142857, -0.33214285714285713, -0.3357142857142857, -0.3392857142857143, -0.34285714285714286, -0.3464285714285714, -0.35, -0.35357142857142854, -0.35714285714285715, -0.3607142857142857, -0.36428571428571427, -0.3678571428571428, -0.22857142857142856, -0.23142857142857143, -0.2342857142857143, -0.23714285714285716, -0.24, -0.24285714285714285, -0.24571428571428572, -0.24857142857142858, -0.25142857142857145, -0.2542857142857143, -0.2571428571428571, -0.26, -0.26285714285714284, -0.26571428571428574, -0.26857142857142857, -0.2714285714285714, -0.2742857142857143, -0.27714285714285714, -0.28, -0.28285714285714286, -0.2857142857142857, -0.2885714285714286, -0.2914285714285714, -0.29428571428571426, -0.17142857142857143, -0.17357142857142857, -0.1757142857142857, -0.17785714285714285, -0.18000000000000002, -0.18214285714285716, -0.1842857142857143, -0.18642857142857144, -0.18857142857142858, -0.19071428571428573, -0.19285714285714287, -0.195, -0.19714285714285715, -0.1992857142857143, -0.20142857142857143, -0.20357142857142857, -0.20571428571428574, -0.20785714285714288, -0.21000000000000002, -0.21214285714285716, -0.2142857142857143, -0.21642857142857144, -0.21857142857142858, -0.22071428571428572, -0.11428571428571428, -0.11571428571428571, -0.11714285714285715, -0.11857142857142858, -0.12, -0.12142857142857143, -0.12285714285714286, -0.12428571428571429, -0.12571428571428572, -0.12714285714285714, -0.12857142857142856, -0.13, -0.13142857142857142, -0.13285714285714287, -0.13428571428571429, -0.1357142857142857, -0.13714285714285715, -0.13857142857142857, -0.14, -0.14142857142857143, -0.14285714285714285, -0.1442857142857143, -0.1457142857142857, -0.14714285714285713, -0.05714285714285716, -0.05785714285714288, -0.05857142857142859, -0.0592857142857143, -0.06000000000000002, -0.060714285714285735, -0.06142857142857145, -0.06214285714285716, -0.06285714285714288, -0.06357142857142858, -0.06428571428571431, -0.06500000000000002, -0.06571428571428574, -0.06642857142857145, -0.06714285714285716, -0.06785714285714288, -0.06857142857142859, -0.06928571428571431, -0.07000000000000002, -0.07071428571428573, -0.07142857142857145, -0.07214285714285716, -0.07285714285714288, -0.0735714285714286, 0.0, 0.0, 0.0, 0.0, 0.0, 0.0, 0.0, 0.0, 0.0, 0.0, 0.0, 0.0, 0.0, 0.0, 0.0, 0.0, 0.0, 0.0, 0.0, 0.0, 0.0, 0.0, 0.0, 0.0, 0.05714285714285712, 0.05785714285714283, 0.058571428571428545, 0.05928571428571426, 0.05999999999999997, 0.060714285714285686, 0.0614285714285714, 0.06214285714285712, 0.06285714285714283, 0.06357142857142854, 0.06428571428571425, 0.06499999999999997, 0.06571428571428568, 0.06642857142857139, 0.06714285714285712, 0.06785714285714282, 0.06857142857142853, 0.06928571428571426, 0.06999999999999997, 0.07071428571428569, 0.0714285714285714, 0.0721428571428571, 0.07285714285714283, 0.07357142857142854, 0.11428571428571432, 0.11571428571428576, 0.11714285714285717, 0.1185714285714286, 0.12000000000000004, 0.12142857142857147, 0.1228571428571429, 0.12428571428571432, 0.12571428571428575, 0.12714285714285717, 0.12857142857142861, 0.13000000000000003, 0.13142857142857148, 0.1328571428571429, 0.1342857142857143, 0.13571428571428576, 0.13714285714285718, 0.13857142857142862, 0.14000000000000004, 0.14142857142857146, 0.1428571428571429, 0.14428571428571432, 0.14571428571428577, 0.1471428571428572, 0.17142857142857143, 0.17357142857142857, 0.1757142857142857, 0.17785714285714285, 0.18000000000000002, 0.18214285714285716, 0.1842857142857143, 0.18642857142857144, 0.18857142857142858, 0.19071428571428573, 0.19285714285714287, 0.195, 0.19714285714285715, 0.1992857142857143, 0.20142857142857143, 0.20357142857142857, 0.20571428571428574, 0.20785714285714288, 0.21000000000000002, 0.21214285714285716, 0.2142857142857143, 0.21642857142857144, 0.21857142857142858, 0.22071428571428572, 0.22857142857142856, 0.23142857142857143, 0.2342857142857143, 0.23714285714285716, 0.24, 0.24285714285714285, 0.24571428571428572, 0.24857142857142858, 0.25142857142857145, 0.2542857142857143, 0.2571428571428571, 0.26, 0.26285714285714284, 0.26571428571428574, 0.26857142857142857, 0.2714285714285714, 0.2742857142857143, 0.27714285714285714, 0.28, 0.28285714285714286, 0.2857142857142857, 0.2885714285714286, 0.2914285714285714, 0.29428571428571426, 0.2857142857142857, 0.28928571428571426, 0.2928571428571428, 0.2964285714285714, 0.29999999999999993, 0.30357142857142855, 0.3071428571428571, 0.31071428571428567, 0.3142857142857142, 0.3178571428571428, 0.3214285714285714, 0.32499999999999996, 0.3285714285714285, 0.3321428571428571, 0.3357142857142857, 0.33928571428571425, 0.3428571428571428, 0.34642857142857136, 0.3499999999999999, 0.35357142857142854, 0.3571428571428571, 0.36071428571428565, 0.3642857142857142, 0.3678571428571428, 0.34285714285714286, 0.34714285714285714, 0.3514285714285714, 0.3557142857142857, 0.36000000000000004, 0.3642857142857143, 0.3685714285714286, 0.3728571428571429, 0.37714285714285717, 0.38142857142857145, 0.38571428571428573, 0.39, 0.3942857142857143, 0.3985714285714286, 0.40285714285714286, 0.40714285714285714, 0.4114285714285715, 0.41571428571428576, 0.42000000000000004, 0.4242857142857143, 0.4285714285714286, 0.4328571428571429, 0.43714285714285717, 0.44142857142857145}; //one slice of sensor data to perform inference on

void main(){
	float workingVector1[20];
	float workingVector2[20];
	
	clock_t startTime, stopTime;
	startTime = clock();
	
	for(int k=0;k<10000;k++){
		//layer 1 - for each of 20 neurons, a neuron has a weight for each of 336 input values and a bias
		for(int i=0;i<20;i++){
			float acc = 0.0f;
			for(int j=0;j<336;j++){
				acc += layer1Weights[(i*336)+j] * sensorData[j]; // multiply accumulate for a specific neuron
			}
			acc += layer1Biases[i]; //add neuron bias
