#include<math.h>
#include<time.h>
#include<stdio.h>

float layer1Weights[] = {-0.35089847, -0.42861086, -0.47658238, -0.37845388, -0.3356474, -0.48801428, -0.22667761, -0.331232, -0.22484674, -0.3189081, -0.33395708, -0.28886822, -0.36459514, -0.4388289, -0.23672834, -0.31811735, -0.23758963, -0.25007153, -0.23675272, -0.28709936, -0.17720237, -0.45096055, -0.2523956, -0.27076304, -0.18518753, -0.23572232, -0.3283555, -0.40737036, -0.3410711, -0.19838494, -0.41661313, -0.2724237, -0.33728844, -0.29468435, -0.3494781, -0.28687912, -0.16954295, -0.11895935, -0.37433386, -0.10339336, -0.34281614, -0.19488418, -0.3349592, -0.09666052, -0.30389613, -0.1878877, -0.18201481, -0.15709162, -0.3340021, -0.2922061, -0.3199411, -0.1546563, -0.26088604, -0.35024935, -0.059360106, -0.20490257, -0.12650721, -0.16707747, -0.099181004, -0.08291084, -0.12346669, -0.19272016, -0.31753975, -0.23140319, -0.15090781, -0.17425981, -0.28982967, -0.057818796, -0.30740803, -0.23915377, -0.101660214, -0.102040835, -0.28292122, -0.07614957, -0.10461032, -0.018758444, -0.15971817, -0.07695913, -0.19088554, -0.04551838, -0.027815865, -0.22744375, -0.11166391, -0.036312517, -0.19955996, -0.21797536, -0.09543845, -0.23219228, -0.121983685, -0.23681402, -0.11316336, -0.12967764, -0.04915766, -0.076238126, -0.21192797, -0.15630428, -0.081715584, -0.016388746, 0.060210437, -0.12079001, 0.06381722, 0.026877724, -0.0027009728, -0.029756702, -0.10405245, 0.027976315, -0.017742328, 0.016586756, -0.05053665, 0.051287353, -0.05875376, 0.08701827, -0.18033302, -0.069974735, -0.042312656, -0.04601947, -0.009890648, 0.06648243, 0.0014966951, 0.049363326, 0.08549824, 0.08998643, -0.007276366, -0.0514447, 0.09283053, -0.034908902, 0.093679674, -0.12106839, -0.1299688, -0.025180938, 0.05534663, -0.13288055, -0.0026849783, -0.055589903, -0.12700951, 0.12612182, -0.03116333, -0.010500511, 0.059335936, -0.11282084, 0.05785009, -0.042516813, -0.10672997, 0.05275189, 0.10535362, 0.093140624, -0.041216224, 0.09354384, 0.064135596, 0.12942861, -0.08849592, 0.122923784, 0.16688843, 0.16535102, -0.082374185, 0.11430851, 0.1478055, -0.007909556, -0.0037484667, 0.07655166, 0.14622255, -0.08026151, 0.00016162852, 0.16936524, -0.058722075, 0.18807589, 0.14187741, 0.049133047, 0.18045893, 0.13529631, 0.14043209, 0.1617947, 0.22846165, 0.097850606, 0.058651797, -0.0250652, 0.19280289, 0.088126995, 0.088314906, -0.009674773, 0.099735506, 0.24729286, 0.25200182, 0.040439595, 0.23706783, 0.072286345, -0.027546542, 0.19074091, 0.22629447, 0.14607109, 0.13210906, 0.18070701, 0.019874118, 0.17220287, 0.00041238836, 0.17307426, 0.097602054, 0.25057688, 0.17233333, 0.22447446, 0.20263788, 0.081598304, 0.019452548, 0.22007723, 0.21751705, 0.18495263, 0.15927337, 0.18080318, 0.13029665, 0.029801909, 0.16403438, 0.13443474, 0.049111087, 0.047679305, 0.2732745, 0.18277287, 0.05002487, 0.29634953, 0.096935935, 0.06833213, 0.12736619, 0.08000109, 0.043645896, 0.19509779, 0.28175262, 0.3130319, 0.23989479, 0.23159912, 0.12784256, 0.053948663, 0.08149321, 0.11230796, 0.3238131, 0.34113434, 0.10541771, 0.20707521, 0.34201914, 0.2775915, 0.07190998, 0.0715424, -0.2661022, -0.3217555, -0.33622882, -0.39453825, -0.3269624, -0.46823347, -0.24067338, -0.40166366, -0.3489581, -0.35124004, -0.26891142, -0.36360627, -0.20504543, -0.4312635, -0.26257336, -0.3875507, -0.35717517, -0.26490837, -0.3511307, -0.20657672, -0.17452613, -0.35107365, -0.18004909, -0.4009515, -0.34732094, -0.2745071, -0.19215178, -0.40366456, -0.17160249, -0.13310151, -0.23878394, -0.18943596, -0.2888551, -0.26850083, -0.24923669, -0.37521, -0.25698447, -0.23875214, -0.32523713, -0.26848066, -0.12098579, -0.108206674, -0.20336539, -0.24207897, -0.26320976, -0.10237275, -0.32659134, -0.13078259, -0.14004698, -0.19471075, -0.12473578, -0.16956076, -0.33316547, -0.11852964, -0.18493943, -0.2973666, -0.2581769, -0.17729317, -0.07079303, -0.22288965, -0.1212411, -0.32276124, -0.19973299, -0.10454013, -0.0614786, -0.060101368, -0.06436539, -0.108472206, -0.057039402, -0.27532023, -0.020421373, -0.25682986, -0.0733387, -0.16358791, -0.06933007, -0.23332997, -0.1734338, -0.22908539, -0.07825309, -0.02368322, -0.11870011, -0.26456928, -0.00874531, -0.2416236, -0.080855995, -0.24288605, -0.10694424, -0.039493054, 0.03931183, -0.026260694, -0.030166578, 0.027808119, -0.22742942, 0.038605414, -0.20943815, -0.15183368, 0.014079883, -0.2122426, -0.112362504, -0.20582567, -0.1297835, -0.10095398, 0.0683935, 0.046915412, -0.11082846, 0.03364574, 0.05732105, -0.07346253, -0.1219447, -0.18241279, -0.10985529, 0.08395171, -0.015677342, 0.098477736, -0.09189039, -0.0015454409, -0.16779426, 0.09283344, -0.09379113, -0.054350343, -0.16519175, -0.04606133, 0.11942963, -0.0010496238, -0.094512254, 0.037178885, -0.06556943, -0.11836832, -0.0138653265, 0.11774898, 0.13237227, 0.11577412, -0.061165158, -0.032678656, -0.088313095, 0.0022471712, 0.050423015, 0.13849439, 0.031293567, 0.052287586, -0.10032022, -0.043610077, 0.09406645, 0.1568267, 0.023026975, -0.022309812, -0.0297292, -0.07941384, 0.031035613, 0.012762445, 0.100573964, 0.10599359, -0.003217621, -0.03067091, 0.031195963, -0.076645985, -0.044653613, 0.07642055, -0.030170716, 0.0871051, 0.0659465, 0.08239881, 0.057425015, -0.011627486, -0.04871818, 0.074734084, 0.21440375, 0.22427827, 0.033195015, 0.15174875, 0.15489264, -0.014469177, 0.0039301026, 0.13596809, 0.00027126315, 0.12556796, 0.04647985, -0.03197172, -0.029048307, 0.09429522, 0.014731526, 0.19232453, 0.23025985, 0.10112913, -0.017971523, 0.1723129, 0.028597403, -0.007064782, 0.082407735, 0.19476014, 0.04318622, 0.21836424, 0.221428, 0.083324604, 0.037571326, 0.22518939, 0.14226921, 0.044630174, 0.11901823, 0.27162197, 0.06779935, 0.03918032, 0.28229013, 0.27014098, 0.01876378, 0.28841242, 0.09319175, 0.15818797, 0.06398797, 0.055143274, 0.02170089, 0.19393523, 0.03073861, 0.20869464, 0.20382333, 0.21551718, 0.22966349, 0.2947766, 0.14732279, 0.1890866, 0.28479058, 0.07166628, 0.3095027, 0.22087824, 0.089781426, 0.120678656, 0.257879, 0.2498616, 0.17733972, 0.07695758, 0.2166496, 0.13507496, 0.3227686, 0.24172707, 0.31967384, 0.076375775, 0.27066183, 0.15053022, 0.10900324, 0.21144195, -0.40008026, -0.37855986, -0.40456843, -0.40719134, -0.4243636, -0.48059854, -0.41734028, -0.21573366, -0.38696626, -0.3553309, -0.3336088, -0.2114447, -0.44387013, -0.17294347, -0.23209117, -0.29223412, -0.21033977, -0.40182394, -0.17159487, -0.41025725, -0.22904995, -0.18273444, -0.211535, -0.2145557, -0.38447785, -0.1870511, -0.21273158, -0.18508033, -0.3066385, -0.36304846, -0.22870068, -0.22099267, -0.14045204, -0.32771364, -0.18767114, -0.3315673, -0.24761933, -0.2303199, -0.25830197, -0.15331818, -0.1479546, -0.30391702, -0.11526796, -0.28655553, -0.09111091, -0.08924605, -0.174186, -0.16978359, -0.1699948, -0.3255848, -0.21004795, -0.25561258, -0.3027685, -0.13869037, -0.1701386, -0.29074398, -0.14384946, -0.3209382, -0.19806041, -0.19337273, -0.106558606, -0.1727538, -0.06980475, -0.12249372, -0.10350915, -0.1152411, -0.03390068, -0.071213774, -0.1535772, -0.22144933, -0.28494194, -0.24707083, -0.22852527, -0.052471526, -0.15042682, -0.19902809, -0.09687054, -0.061219845, -0.15219632, -0.15322709, -0.12955251, -0.042181186, -0.19877392, -0.013636178, -0.21250197, -0.16082323, 0.014055936, -0.15804732, 0.036498267, 0.02235013, -0.011752915, -0.038413577, -0.03093267, -0.13284215, -0.05051532, 0.02875455, -0.091794066, 0.008483524, 0.055787425, 0.062381566, 0.026452417, -0.12844218, -0.029979551, -0.04398663, -0.005933396, -0.16528434, -0.13559261, -0.07586851, -0.10493664, -0.10445152, -0.06029291, -0.009490621, -0.064866476, -0.17172387, 0.031699292, 0.020176446, -0.11565302, 0.029774843, 0.061870065, -0.070567295, -0.15529422, 0.016472781, 0.0648081, 0.056264594, -0.1134547, -0.07366748, 0.10234423, 0.020603625, -0.15583113, -0.12706386, -0.14017904, 0.03525987, -0.13513398, 0.10350805, -0.03445056, 0.11329735, -0.05981802, -0.023642913, 0.08394079, 0.04182617, 0.010358069, -0.09337955, -0.022334259, 0.1183104, 0.0973331, -0.08762306, 0.03973406, 0.07533612, 0.089187875, 0.11358412, 0.051312875, 0.0087441, 0.12632437, 0.015315181, 0.08531737, -0.052785248, -0.04678012, 0.011915471, 0.057300735, 0.08418373, 0.09853871, 0.06133439, -0.04661169, 0.03985671, 0.124616995, 0.12309873, 0.09262131, 0.21594691, 0.09532085, 0.093109176, -0.051002342, 0.13526343, 0.11578509, -0.0048501925, 0.11217784, 0.19529802, 0.030038005, 0.18665, 0.04564699, -0.04408282, 0.022336358, -0.019020809, 0.08795946, 0.23836897, 0.09048996, 0.22097464, 0.077607326, -0.0065427925, 0.11758595, 0.05457269, 0.041266516, 0.178573, -0.005118439, -0.013643375, 0.18788685, 0.19499634, 0.23433703, 0.25342298, 0.093983926, -0.016057892, 0.14126863, 0.02080675, 0.07344157, 0.11737276, 0.0018990184, 0.22148772, 0.036810935, 0.2786013, 0.04507077, 0.06222452, 0.069969594, 0.27179196, 0.11918769, 0.07335399, 0.2490118, 0.16641495, 0.12618665, 0.13726865, 0.1802392, 0.24402146, 0.093474634, 0.17667872, 0.11887217, 0.07021503, 0.2620365, 0.1221807, 0.12929758, 0.2709195, 0.20413087, 0.2195187, 0.21767777, 0.12495734, 0.04513967, 0.062129002, 0.2198655, 0.3265488, 0.32807848, 0.20107889, 0.29504737, 0.28549448, 0.48072898, 0.26835263, 0.33869332, 0.36822823, 0.265197, 0.29015788, 0.52855736, 0.52631825, 0.3016783, 0.2496955, 0.4465385, 0.29327852, 0.50791717, 0.3818672, 0.26862514, 0.35294002, 0.38280198, 0.2901671, 0.45628747, 0.20809716, 0.20658663, 0.18336518, 0.18074377, 0.30575767, 0.34598032, 0.2627171, 0.43048093, 0.3518918, 0.2775309, 0.31166905, 0.2761755, 0.33835864, 0.26882792, 0.30646336, 0.13872394, 0.1310455, 0.34355855, 0.24555944, 0.3362062, 0.25943306, 0.36210415, 0.29945725, 0.39263055, 0.1954279, 0.17872931, 0.13792308, 0.15291436, 0.3019229, 0.19260019, 0.12894312, 0.1208616, 0.31208912, 0.29491583, 0.34365287, 0.32616788, 0.25162554, 0.33168292, 0.13104546, 0.053208027, 0.04854044, 0.15449783, 0.28776348, 0.042382732, 0.15434636, 0.32559326, 0.028775292, 0.29406753, 0.31707078, 0.17298451, 0.2788657, 0.25683057, 0.073177226, 0.06165929, 0.03890889, 0.08516084, 0.20857394, 0.0958953, 0.18559605, 0.09532844, 0.26152647, 0.24703068, 0.049656183, 0.048469733, 0.2454278, 0.20863163, 0.24000672, 0.19537027, 0.22374171, 0.07127466, -0.012314973, 0.22467971, 0.07677157, 0.23783876, 0.17838842, 0.0151557885, -0.05910864, 0.20539422, -0.019928522, 0.039377775, 0.08489746, -0.033434745, 0.034930464, 0.10108765, 0.065782964, 0.12666312, -0.06661883, 0.037298806, 0.06091481, 0.18680693, -0.014182729, 0.01435691, 0.10939424, 0.09700152, -0.018187435, 0.030816834, -0.116396785, -0.057818644, 0.10318995, 0.042581674, 0.13238443, -0.09827644, 0.013378666, 0.10109978, -0.122412145, -0.11684503, 0.008413167, 0.08055547, -0.0576415, 0.011291842, -0.08653398, -0.09346587, -0.055276852, 0.07699681, -0.10983071, 0.06724676, -0.114948854, 0.10638097, 0.046261266, 0.05375459, -0.13064471, 0.044936318, -0.16318813, -0.078598306, 0.024641879, -0.036765955, 0.060619727, -0.14798704, -0.06285995, -0.034253307, -0.063547805, -0.1356679, -0.033987418, -0.10411034, -0.17732622, 0.042520795, -0.06864616, -0.2160432, -0.16669664, -0.059320327, 0.03086014, -0.02197895, -0.06916955, 0.034507617, 0.046388272, -0.2285785, -0.21786328, -0.18993619, 0.0021467824, -0.01934338, -0.07654331, -0.23340817, -0.1506229, -0.08063163, -0.17407611, -0.2195749, -0.13529836, -0.065070845, -0.11281821, 0.00914173, 0.014393514, 0.009050109, -0.11962018, -0.100686714, -0.16227052, -0.028572954, -0.089256525, -0.24368958, -0.18889032, -0.2494122, -0.25995186, -0.29601932, -0.009129971, -0.20640938, -0.17101184, -0.18090935, -0.16920966, -0.01842527, -0.048866984, -0.26580048, -0.13908559, -0.15196136, -0.2593578, -0.1334098, -0.2836591, -0.25541693, -0.1748935, -0.0846176, -0.13642061, -0.1908105, -0.06319219, -0.30176216, -0.09927887, -0.07892793, -0.09398256, -0.26379225, -0.3473309, -0.32407257, -0.35240728, -0.28992653, -0.10429946, -0.11123883, -0.20278747, -0.31958047, -0.22276859, -0.14843419, -0.36456618, -0.29576075, -0.10239637, -0.2370383, -0.2400291, -0.10208798, -0.31739306, -0.16993144, -0.2282485, -0.1045109, -0.18115158, -0.10442452, -0.3416844, -0.21634845, -0.14899059, 0.42320904, 0.4945869, 0.41960248, 0.3167215, 0.2549089, 0.32656273, 0.4248207, 0.36274236, 0.24888778, 0.36858055, 0.3560922, 0.21188307, 0.4853217, 0.2457803, 0.41005552, 0.34300736, 0.45421547, 0.3457089, 0.36718914, 0.4054506, 0.33156967, 0.37524694, 0.45737213, 0.36049613, 0.17935398, 0.40945297, 0.21887115, 0.19270147, 0.186289, 0.30042428, 0.22921859, 0.42806047, 0.3477716, 0.14126143, 0.15567483, 0.26707813, 0.2770159, 0.21429458, 0.2385435, 0.22848931, 0.24302576, 0.3772007, 0.2670841, 0.16004023, 0.30664635, 0.35414076, 0.34739506, 0.3524368, 0.346645, 0.13596424, 0.23516385, 0.08114288, 0.11601805, 0.18322238, 0.27811086, 0.2872178, 0.1925286, 0.15403609, 0.16046114, 0.30652216, 0.28009945, 0.10784031, 0.14181437, 0.27356157, 0.23023777, 0.12962222, 0.0997193, 0.18742639, 0.27061293, 0.1520332, 0.26129743, 0.15037441, 0.006922582, 0.14993946, 0.20862366, 0.044597365, 0.28067404, 0.10695974, 0.07020024, 0.04640007, 0.12781641, 0.10423335, 0.13493119, 0.007582259, 0.028810095, 0.2309236, 0.2383958, 0.13346066, 0.14785932, -0.03312364, 0.09314633, -0.030216893, 0.1987195, 0.010055013, 0.03883414, -0.057123467, 0.0971972, 0.20126328, 0.12283366, -0.061371922, 0.066933006, -0.047274616, 0.16864939, 0.0008973134, 0.06495236, 0.057012398, 0.13301873, -0.0714751, 0.062239137, 0.08716365, 0.011824495, 0.15479156, 0.022446563, 0.09570322, -0.009828873, 0.06694055, 0.0547662, 0.16386607, 0.0662337, -0.0538138, -0.039530493, -0.030254276, -0.13279639, 0.116208054, 0.06679883, 0.04498029, -0.10273594, -0.14146125, -0.12697454, 0.0050310027, -0.104716934, -0.013609369, 0.024055652, 0.10760022, 0.08045302, -0.09255845, -0.02603754, -0.10116548, 0.074006364, -0.1041539, -0.050586253, 0.017666386, 0.108614735, -0.08463008, -0.017924862, -0.043747135, 0.042782065, 0.054673832, -0.18883936, -0.16360924, -0.03591522, -0.080795124, -0.15053508, -0.046155255, 0.026368959, -0.11760746, -0.10673854, -0.14832136, -0.029390816, 0.024555156, 0.039863247, -0.11310725, -0.15028381, -0.0056465142, -0.1054445, -0.018999225, -0.15978657, -0.17818171, -0.17321178, -0.0076718647, -0.017976955, -0.2033686, -0.040764913, 0.03873892, -0.17143811, -0.24128601, -0.15232536, -0.036450535, -0.22167875, -0.067348205, -0.018371128, -0.21336603, -0.26884657, -0.06493329, -0.05533676, -0.26827163, -0.22433689, -0.17119604, 0.0075785317, -0.022504047, -0.27427948, -0.16361117, -0.012421561, -0.12288899, -0.27516687, -0.18188785, -0.17913042, -0.17493342, -0.22289714, -0.11881002, -0.098906405, -0.03570757, -0.27748173, -0.10934954, -0.15490581, -0.1621308, -0.31143546, -0.22800678, -0.19666038, -0.07290392, -0.26973295, -0.29404852, -0.18394132, -0.23404974, -0.31493545, -0.11631267, -0.2850342, -0.1244688, -0.15763468, -0.13251847, -0.22873592, -0.07375634, -0.06282885, -0.12734044, -0.2542742, -0.2705462, -0.24570252, -0.28121313, -0.098891996, -0.14666969, -0.15625997, -0.3380859, -0.103831, -0.19838959, -0.23881997, -0.17348921, -0.32731983, -0.33277342, -0.2376718, -0.09849308, -0.49058402, -0.4340679, -0.34277472, -0.4209981, -0.32636946, -0.32717556, -0.3377147, -0.2905592, -0.43414435, -0.472681, -0.4757025, -0.46566355, -0.3091658, -0.46057466, -0.46936172, -0.29762182, -0.3212171, -0.20505737, -0.38756636, -0.35957608, -0.24269189, -0.17203763, -0.17995726, -0.20928821, -0.1718396, -0.21662539, -0.19317992, -0.14694749, -0.35697964, -0.2578487, -0.3985818, -0.18326302, -0.3871097, -0.28603846, -0.108301915, -0.33523652, -0.106905006, -0.11688244, -0.12653127, -0.33620736, -0.113197215, -0.32569772, -0.29168326, -0.2991207, -0.22677949, -0.35732618, -0.095013306, -0.16617028, -0.09965115, -0.08591432, -0.29614913, -0.30911323, -0.21046495, -0.0958916, -0.28524414, -0.17639664, -0.14234741, -0.19084859, -0.03911383, -0.2682924, -0.23892646, -0.29845044, -0.07354914, -0.05223445, -0.30355218, -0.18949433, -0.060831346, -0.22474639, -0.17498505, -0.03970845, -0.07417944, -0.17291033, -0.0068054553, -0.029133983, -0.24201672, -0.13436864, -0.22234668, -0.22560337, -0.0070612277, 0.00096097763, 0.008374192, -0.25026542, -0.1540778, -0.15435697, -0.20857428, -0.005060949, 0.035242863, -0.096334934, 0.019701239, -0.2236049, -0.033399366, -0.02123736, 0.01698697, 0.040141463, -0.09908543, -0.05451313, -0.09653624, -0.16642946, -0.13906491, -0.046496432, -0.13331732, -0.19225362, -0.17550527, -0.018671386, -0.045670994, -0.12907153, 0.06991136, -0.06295874, -0.031005338, -0.15127718, 0.028197719, -0.0052404064, -0.1202674, -0.08310577, -0.13821822, -0.08944458, -0.04485514, 0.02937145, -0.012624695, -0.13285327, -0.03259467, 0.013697508, -0.13658035, 0.06997423, 0.115540005, -0.05327638, 0.054345988, -0.026661221, 0.06046706, 0.010479022, 0.10219896, 0.061159182, 0.12932034, 0.024985066, -0.05070406, -0.095650695, 0.059711322, 0.016433083, 0.011784814, -0.04837782, -0.122378945, 0.11833523, -0.032247547, 0.1597808, 0.07063341, -0.09606751, -0.087413125, -0.02246276, 0.08276782, -0.06255382, 0.0625103, -0.0045658355, 0.10339694, 0.111472994, -0.09138866, -0.0037856658, 0.18754883, -0.026915083, 0.17831431, 0.13577293, 0.069024906, 0.17934044, 0.15555774, 0.04951797, -0.066493355, 0.028664174, 0.09392075, 0.0059757377, 0.18951438, -0.016448453, 0.020857934, 0.15319218, -0.00944167, 0.12678562, 0.13218273, 0.061980296, -0.023206068, -0.02532192, 0.20358993, 0.15480097, 0.22517331, 0.117760114, -0.032071892, 0.16663326, 0.18141143, 0.09766345, 0.04418914, 0.12858422, 0.07363974, 0.2650692, 0.20151818, 0.17260963, 0.11494278, 0.007830638, 0.13190244, 0.013728392, 0.14330892, 0.1860334, 0.12264169, 0.14396939, 0.2566245, 0.018172918, 0.16220216, 0.18946666, 0.021569494, 0.2309567, 0.03933691, 0.19969812, 0.13334805, 0.15666474, 0.1874321, 0.16822302, 0.1905734, 0.16203728, 0.032286953, 0.13798304, 0.109035216, 0.3144186, 0.11883829, 0.17201404, 0.28826427, 0.30289608, 0.17755923, 0.2129634, 0.17440486, 0.22059403, 0.074608855, 0.13325606, 0.18348378, 0.051531833, 0.243115, 0.06745889, 0.08332109, 0.10135514, 0.2838505, 0.21432969, 0.34943515, 0.26957944, 0.189891, 0.35408223, 0.3413323, 0.42653608, 0.5489071, 0.41780156, 0.44019338, 0.24138777, 0.5082563, 0.3569738, 0.29440746, 0.45481524, 0.26325333, 0.3294979, 0.48696712, 0.44731063, 0.45797703, 0.30626404, 0.25101465, 0.37846944, 0.40228295, 0.47192866, 0.39459664, 0.43653035, 0.45444912, 0.2136198, 0.41394588, 0.41060606, 0.33724785, 0.37031358, 0.22238322, 0.42562285, 0.349607, 0.20590355, 0.2673315, 0.37333485, 0.30707085, 0.3234694, 0.16871938, 0.17807505, 0.29508638, 0.17290175, 0.23607925, 0.3644918, 0.17337629, 0.1431243, 0.2217793, 0.18322442, 0.27721116, 0.2409759, 0.35091868, 0.362966, 0.17019959, 0.24642418, 0.12242861, 0.23015168, 0.3112853, 0.13455442, 0.21763432, 0.2544962, 0.21202025, 0.27259427, 0.33806413, 0.29560423, 0.0900648, 0.24975213, 0.09747113, 0.29110673, 0.09411755, 0.20722891, 0.06513841, 0.26804534, 0.28531277, 0.25824362, 0.022248747, 0.15470466, 0.10221178, 0.15899763, 0.11977935, 0.23922122, 0.008966499, 0.07149638, 0.19241096, 0.13659032, 0.05759279, 0.14738606, 0.21001016, -0.023411175, 0.15293185, 0.2220423, 0.115169436, 0.228354, 0.19412264, 0.11106312, -0.032226965, 0.15659541, -0.041496746, 0.16403835, 0.040120363, -0.0028754075, -0.0183563, 0.011425, 0.19480798, 0.07190821, -0.07973097, -0.07953999, 0.0578352, -0.028388837, 0.09034668, 0.018838879, -0.0061138975, 0.039241485, 0.12481912, -0.053257845, -0.072464235, 0.017618937, -0.006518487, 0.03521261, 0.004956761, 0.001627365, -0.08124836, 0.11601871, 0.1374729, -0.13723543, -0.14149635, 0.10118029, -0.06785932, -0.072530195, -0.08674672, 0.13301462, 0.05726509, 0.093120314, 0.08536886, -0.137904, 0.026363945, 0.07981706, -0.09504887, -0.13993882, 0.038619716, -0.012474039, -0.0927858, -0.052196827, -0.0731606, 0.08141076, -0.0022548595, -0.18748622, -0.084259, -0.15635198, 0.0119889155, -0.1156231, -0.031845253, 0.025930438, -0.16669154, -0.117358536, -0.16510592, -0.013797019, 0.03155727, 0.0050177784, -0.21481091, -0.020015523, -0.09378755, 0.020521265, 0.023473207, -0.0056262836, -0.20641643, -0.056163047, -0.07904926, -0.22363187, 0.021754084, -0.033539318, -0.08873806, -0.12189766, -0.21992162, -0.15843396, 0.0107385935, 0.027999042, -0.26982096, -0.04924405, -0.20470862, -0.04141265, -0.08230164, -0.008495488, -0.022207556, -0.25296515, -0.20734376, -0.2203991, -0.2569057, -0.11676851, -0.2561331, -0.06492197, -0.21075553, -0.08129353, -0.012717385, -0.17808144, -0.17290854, -0.29851612, -0.058366615, -0.211618, -0.27644208, -0.3021722, -0.089616984, -0.08844573, -0.092655435, -0.122202165, -0.15844414, -0.30227527, -0.13128701, -0.23867176, -0.219726, -0.15270212, -0.22655247, -0.25672728, -0.09720668, -0.14079742, -0.114934206, -0.34439334, -0.2265528, -0.23588246, -0.30143628, -0.12867224, -0.17159888, -0.19362763, -0.17744802, -0.120770015, -0.15598139, -0.094960555, -0.21043538, -0.1856667, -0.14870593, -0.30392963, -0.22341467, -0.21495983, -0.31044734, -0.21430509, -0.3059852, -0.26450494, -0.29711473, -0.33817694, -0.29170036, -0.21826856, -0.2101611, -0.357494, 0.32978943, 0.3594741, 0.51552826, 0.44629273, 0.27114934, 0.4675799, 0.27389494, 0.37218538, 0.30305785, 0.24420837, 0.22618032, 0.3165616, 0.38663536, 0.35572374, 0.39129603, 0.2239261, 0.2093276, 0.38548845, 0.42898726, 0.4432812, 0.41337854, 0.16650951, 0.17496854, 0.21352254, 0.40552098, 0.3702124, 0.24513246, 0.36853334, 0.33701715, 0.3861371, 0.36917558, 0.21639395, 0.2879821, 0.18904151, 0.32823008, 0.21672931, 0.21156925, 0.33021742, 0.3795112, 0.19976206, 0.16257037, 0.21303897, 0.31019145, 0.0934299, 0.25249776, 0.22461794, 0.18673125, 0.3322887, 0.16713804, 0.24434407, 0.124436, 0.13543051, 0.25093865, 0.1872386, 0.2026466, 0.22005785, 0.21606767, 0.06314528, 0.3305126, 0.1506308, 0.27306595, 0.31847635, 0.23792738, 0.20639363, 0.30080244, 0.28843343, 0.058450222, 0.23054814, 0.0516678, 0.11921347, 0.0145793725, 0.13364902, 0.106707096, 0.038226925, 0.19130528, 0.03556444, 0.15869991, 0.13460353, 0.12436363, 0.045672346, 0.2096209, 0.15189862, 0.12504186, 0.120489985, 0.25725144, 0.1237158, -0.034075357, 0.228247, 0.2462034, -0.008544037, 0.18110792, 0.048480563, 0.065525144, -0.01149837, 0.07743114, 0.14329375, -0.04317512, 0.08502505, 0.121629894, 0.14837937, -0.030907167, 0.0033644286, 0.07864022, 0.19443403, -0.030368282, 0.026649015, 0.18242842, 0.1044802, -0.030566957, 0.073407255, 0.18579611, 0.18070064, -0.107297614, 0.10997207, 0.15071377, -0.082754925, -0.011551403, 0.08425608, 0.039092727, 0.12550516, -0.123052396, 0.12561548, -0.010080587, -0.007766026, 0.06875933, -0.11875155, -0.064866, -0.036130965, 0.07698731, -0.13311876, 0.088286236, -0.12533239, 0.06466746, -0.072451696, 0.05421956, -0.031336203, -0.10073908, -0.03704625, 0.022834264, -0.095543474, -0.025066223, 0.012032751, -0.13074622, -0.12675235, 0.06187329, -0.056196623, -0.0720264, -0.10347679, 0.044804074, -0.044947173, -0.05579939, -0.06960485, -0.16959567, -0.10993535, 0.050777618, -0.10558384, 0.052900434, -0.155039, -0.12080071, -0.17828918, -0.17362833, -0.18756066, -0.0998535, -0.04890969, -0.18827122, -0.087806515, 0.04570736, -0.15151674, 0.020664563, -0.15318015, -0.10248168, -0.053850792, 0.010994281, -0.22854365, -0.24318285, -0.035887886, 0.0018559091, -0.21656816, -0.11047269, -0.21124183, -0.23567915, -0.25227118, -0.07671905, -0.21507485, -0.17713009, 0.0057908488, -0.052276034, -0.0746337, -0.055636432, -0.04909071, -0.17452478, -0.2592034, -0.19820568, -0.17980981, -0.23651809, -0.093843706, -0.17252088, -0.09072338, -0.17525491, -0.29335803, -0.028757831, -0.12588324, -0.18987021, -0.054782625, -0.19585459, -0.31202453, -0.2793839, -0.12924352, -0.22330019, -0.3123861, -0.21289296, -0.2116397, -0.20491052, -0.13249592, -0.05449781, -0.30999935, -0.2519732, -0.096376374, -0.10889826, -0.24420206, -0.17963451, -0.16346805, -0.24707498, -0.31260008, -0.075463906, -0.1344445, -0.12190882, -0.24266568, -0.29005656, -0.23094204, -0.25043106, -0.14677131, -0.3216019, -0.18974677, -0.16323915, -0.24253377, -0.14091499, -0.08526396, -0.24571775, -0.11150926, 0.2761594, 0.3676448, 0.35705394, 0.5455185, 0.2760663, 0.38062724, 0.54246616, 0.24784222, 0.30899566, 0.4906741, 0.25691324, 0.23122117, 0.29768643, 0.3703939, 0.43234038, 0.42138153, 0.28498173, 0.44074613, 0.26688117, 0.35151765, 0.24422947, 0.4404963, 0.20688088, 0.22035596, 0.39593285, 0.4253157, 0.19810094, 0.17007908, 0.29773098, 0.25458136, 0.32681772, 0.3262892, 0.15491445, 0.2765806, 0.27323905, 0.3922628, 0.18645136, 0.35703564, 0.15178312, 0.19187711, 0.28806445, 0.23471148, 0.17489044, 0.22325218, 0.13976704, 0.22784299, 0.300627, 0.18396208, 0.292411, 0.35768893, 0.10505392, 0.32456398, 0.15913653, 0.12457186, 0.15131325, 0.13412532, 0.16694993, 0.29742408, 0.22847174, 0.22952916, 0.20884643, 0.15795131, 0.18432976, 0.14509915, 0.12801084, 0.0450354, 0.29394808, 0.3141593, 0.19783981, 0.047982894, 0.18914616, 0.22355388, 0.04072153, 0.09214958, 0.21507755, 0.13893959, 0.18670984, 0.25815743, 0.13926034, 0.09907857, 0.11241876, 0.24917522, 0.20353988, -0.008586562, 0.08660646, 0.13475454, 0.19781332, 0.098719455, 0.20978492, 0.038164914, 0.25218746, 0.1966975, 0.215888, 3.6897123e-05, 0.02767245, 0.19918458, 0.16678594, 0.060323596, -0.035365973, 0.12785532, 0.010533984, 0.1718569, 0.09636045, 0.057493348, 0.13767947, 0.11746777, -0.053595442, 0.18115743, 0.08703068, 0.113836244, 0.008705575, -0.09564555, 0.047819737, 0.00020652248, -0.09510721, -0.001618857, 0.11143033, -0.033564404, -0.11316169, -0.03249887, -0.003471464, -0.027640989, 0.16145833, 0.05936687, 0.079987675, -0.0082949875, -0.0213627, 0.116765626, -0.014153686, -0.031469148, 0.053094923, -0.12709935, 0.033204895, -0.0747794, -0.07193515, -0.008087107, 0.11498507, -0.072900206, -0.16158862, 0.055249743, 0.0024354376, 0.11701518, -0.10687512, -0.12559776, -0.09068819, -0.05016834, -0.020001233, -0.0072395727, 0.07841476, 0.07436622, -0.013611472, 0.00021268924, -0.053190373, -0.10232977, -0.17695561, 0.03358895, 0.060994655, 0.061495677, -0.1285182, -0.0011713607, -0.2157875, -0.17031673, -0.078763306, 0.04219207, -0.17555597, -0.22151744, -0.21696834, -0.21813788, -0.08395226, -0.0071040546, -0.035734408, -0.13941763, -0.16443583, -0.24381402, -0.16718657, -0.22328247, -0.20217796, -0.043537628, -0.14184423, -0.08684192, -0.06406629, -0.094485335, -0.023940861, -0.01189938, -0.12928881, -0.04649641, -0.19824257, -0.26264274, -0.13102883, -0.14314468, -0.053935196, -0.19678533, -0.29430404, -0.19771563, -0.13680735, -0.15620886, -0.10319386, -0.28882682, -0.034025382, -0.23298493, -0.29034707, -0.17318107, -0.17986992, -0.20276041, -0.20959754, -0.2688115, -0.31242424, -0.17661929, -0.08695738, -0.16867718, -0.052917723, -0.335491, -0.18351239, -0.19035833, -0.12796418, -0.26391834, -0.19523622, -0.07649263, -0.25507632, -0.33454487, -0.29930988, -0.16648178, -0.24067268, -0.1339347, -0.13547778, -0.102299765, -0.31932464, -0.071842514, -0.31033447, -0.11267248, -0.09805326, -0.11629991, -0.24320826, -0.11041805, -0.1594395, -0.29918888, -0.37707993, -0.10178182, -0.3697012, -0.23867273, -0.23463528, -0.3345378, -0.42063224, -0.42617893, -0.36111555, -0.28516147, -0.32582858, -0.38679215, -0.2893031, -0.37012523, -0.32489282, -0.37832302, -0.29942247, -0.27825177, -0.3167863, -0.36855733, -0.4338686, -0.19693245, -0.25809893, -0.30711126, -0.2318566, -0.38131723, -0.32555735, -0.27245304, -0.14902523, -0.4071271, -0.38687217, -0.22166812, -0.3004421, -0.36043912, -0.1843146, -0.27998328, -0.30794194, -0.11396532, -0.10865307, -0.10419889, -0.37856847, -0.26298922, -0.24327695, -0.16042581, -0.24296711, -0.10649211, -0.17556764, -0.10186844, -0.15398914, -0.07621509, -0.16989966, -0.16761771, -0.06972468, -0.32276827, -0.31431216, -0.106835835, -0.18245338, -0.28328487, -0.07572713, -0.2406494, -0.30313292, -0.24672301, -0.21161197, -0.1631244, -0.036349986, -0.30058855, -0.21943565, -0.02479438, -0.15345675, -0.2772033, -0.22826344, -0.13850956, -0.24159758, -0.18508977, -0.107853614, -0.26699752, -0.13135542, -0.24012098, -0.07375417, -0.20969702, -0.2587201, -0.124696806, -0.062293604, -0.00903183, -0.07692287, -0.22300385, 0.0046306746, -0.24940145, 0.019989647, -0.25261408, -0.006705033, -0.18910648, -0.181857, -0.14490965, -0.20443277, -0.0039728284, -0.18853554, 0.04124218, -0.07225507, 0.012088196, 0.037419364, -0.22494109, -0.16872506, 0.055611245, 0.013186853, -0.14383997, 0.01649833, -0.011288914, 0.013042341, -0.19752124, 0.036637016, -0.12633009, -0.07517736, 0.010365083, -0.060048036, 0.05836906, -0.029041093, -0.09403319, 0.11309053, 0.08919065, -0.10873865, -0.06340102, -0.1568441, 0.09328052, -0.042569157, 0.03568051, 0.093574926, -0.054341514, -0.10776138, -0.010934042, -0.11917021, 0.08804433, -0.060676247, 0.10158084, 0.09076296, 0.059657875, 0.08745573, -0.11952699, 0.14714785, 0.001542835, 0.08735967, 0.014719934, -0.032760546, 0.07089662, 0.027540967, 0.14968042, 0.1731407, 0.10597525, 0.14468804, 0.0013145669, 0.02751899, 0.058674812, 0.12062476, -0.06616255, 0.13717122, 0.002015203, 0.19184588, -0.08312452, -0.08171452, 0.05022017, 0.061689716, 0.047019012, -0.07196559, 0.13279657, 0.14849265, 0.13315466, -0.060057484, -0.0019200754, 0.13866562, 0.028932862, -0.021445246, 0.1661225, 0.10150821, 0.20708513, -0.030079968, 0.11394024, 0.18376215, -0.055033106, 0.091567, -0.047864184, 0.11830915, -0.009989915, 0.037529264, 0.06322958, 0.09469396, 0.054086536, 0.24611683, -0.007795172, 0.1901537, 0.1691524, 0.062110703, 0.23601379, 0.14071356, 0.06031295, 0.1026997, 0.23858106, 0.038908675, 0.2112399, 0.055622615, 0.011436119, 0.06315819, 0.28195593, 0.10812225, 0.01512802, 0.06670772, 0.13192567, 0.027132945, 0.076801084, 0.09295755, 0.16651651, 0.19452676, 0.12741344, 0.24132071, 0.19677661, 0.17152674, 0.05782833, 0.17184058, 0.062202815, 0.08806685, 0.07781989, 0.14413439, 0.07062539, 0.050455112, 0.17242262, 0.15352309, 0.2882614, 0.25112474, 0.14504269, 0.308183, 0.28684998, 0.11644473, 0.11103569, 0.11353945, 0.09720444, 0.20697796, 0.10053936, 0.24120808, 0.07592826, 0.10272716, 0.3152121, 0.2068738, 0.09409491, 0.1752141, 0.2778158, 0.46811306, 0.42464408, 0.4389336, 0.45752895, 0.41616598, 0.33038396, 0.3607123, 0.28631723, 0.43200928, 0.3801853, 0.3434073, 0.41437632, 0.4458736, 0.37744862, 0.43401203, 0.2938298, 0.2015665, 0.28094202, 0.38509047, 0.39558268, 0.40298042, 0.4183456, 0.4204812, 0.18215388, 0.20730586, 0.21042126, 0.43946296, 0.22131234, 0.25956878, 0.3963468, 0.29669848, 0.2157819, 0.37410027, 0.17589502, 0.3072086, 0.19272938, 0.34048438, 0.25158283, 0.19808047, 0.2545999, 0.29179072, 0.23446195, 0.39506486, 0.27510017, 0.34062096, 0.14653452, 0.20034163, 0.3511979, 0.29689273, 0.18443574, 0.19190566, 0.121821634, 0.2806272, 0.088255905, 0.06325132, 0.2206406, 0.2964406, 0.14488553, 0.15164016, 0.090923175, 0.2705099, 0.21747062, 0.14029175, 0.32642943, 0.2647414, 0.2896537, 0.08825097, 0.23495045, 0.28640264, 0.06473973, 0.23093992, 0.07882144, 0.172099, 0.18396784, 0.078950085, 0.23341541, -0.008146105, 0.20230304, 0.12076552, 0.12811269, 0.14446947, 0.09909478, 0.16470006, 0.13954325, 0.25333488, 0.0654455, 0.20032436, 0.2480064, 0.24495995, 0.13293888, 0.13788791, 0.18545799, -0.024532456, 0.17474306, 0.14621961, 0.11091498, -0.038826037, 0.08525132, -0.050490096, 0.20091562, 0.010847243, -0.028256832, 0.014185622, 0.18470694, 0.049553294, -0.06486567, -0.08615994, 0.044805814, 0.073108114, -0.08378934, 0.047081903, -0.072044075, 0.1460426, -0.092378095, 0.1309246, 0.06846575, 0.057579696, -0.014347887, 0.051880002, 0.14723343, 0.062138572, 0.14531319, 0.0402825, 0.13241065, 0.045023266, 0.12986849, -0.023761448, 0.08266931, -0.0056897337, -0.09336134, -0.018899065, -0.0413872, -0.07782341, -0.16341282, -0.04334496, -0.063077115, -0.0031663363, 0.0061249104, -0.05550739, -0.052318804, -0.086308375, 0.08851862, -0.07377571, -0.006743017, -0.15766786, 0.045169003, 0.048473075, -0.08326495, -0.14060217, 0.005771659, -0.031471997, -0.068137676, -0.053852558, -0.20857026, -0.2100491, -0.1626959, -0.15641753, 0.025591165, -0.13133717, -0.07342621, 0.059511222, -0.22985055, -0.08935207, -0.16127953, -0.09474514, 0.04355118, -0.15839326, -0.20962083, -0.16027066, -0.036409743, -0.25627458, -0.2576194, -0.1452792, -0.22141391, -0.09123959, -0.15404221, -0.055792604, 0.021996666, -0.15393642, -0.1515505, -0.13294789, -0.20475538, -0.046234626, -0.07200982, -0.14163779, -0.1966576, -0.06505529, -0.17687978, -0.22256146, -0.26404756, -0.10264191, -0.24030231, -0.12269311, -0.021627778, -0.26567033, -0.1642602, -0.20752521, -0.027234897, -0.10283809, -0.04560202, -0.23242538, -0.2472375, -0.22041073, -0.0424569, -0.20839125, -0.06684655, -0.27259308, -0.17949216, -0.27680534, -0.3155356, -0.2776059, -0.14127672, -0.056260668, -0.13803688, -0.17916463, -0.15759204, -0.097404145, -0.3210349, -0.24107769, -0.17489924, -0.25305608, -0.1960285, -0.21990694, -0.23611875, -0.16600822, -0.32091388, -0.27224022, -0.36579585, -0.32997194, -0.22460239, -0.31948933, -0.19053961, -0.17276898, -0.13774888, -0.15693574, -0.10431954, -0.29548717, -0.245284, -0.18963385, -0.10876677, -0.48899534, -0.32365277, -0.2942424, -0.2289437, -0.3615163, -0.28226745, -0.48160177, -0.44974065, -0.4059837, -0.20613414, -0.22703645, -0.252319, -0.3782782, -0.30076587, -0.45983553, -0.4359955, -0.4392069, -0.34235004, -0.39297014, -0.32437745, -0.3152315, -0.35476685, -0.18609837, -0.21230887, -0.19932802, -0.3183414, -0.31587577, -0.14271356, -0.21272998, -0.13561074, -0.4056284, -0.2890244, -0.27420703, -0.2851959, -0.15844375, -0.36096317, -0.28898412, -0.2974972, -0.27595133, -0.19158536, -0.27731895, -0.15433829, -0.36498043, -0.108045824, -0.14488545, -0.09608926, -0.21254355, -0.076598525, -0.0813342, -0.3392628, -0.19285607, -0.19166802, -0.28951588, -0.10165171, -0.292633, -0.2987629, -0.27454427, -0.3200676, -0.31420854, -0.17903508, -0.05415557, -0.05326031, -0.26713187, -0.25895664, -0.24616693, -0.023863629, -0.020741556, -0.12635192, -0.2537596, -0.14677718, -0.04897361, -0.25888965, -0.28135234, -0.08443941, -0.16432646, -0.1291908, -0.12398677, -0.14869612, -0.011654442, -0.13446964, -0.22948115, -0.24205503, -0.24894308, -0.25043905, -0.09021571, -0.020424858, -0.22494738, -0.0050259824, -0.11844308, 0.030731631, -0.16750002, -0.021393005, -0.104933634, -0.17997515, -0.14300117, 0.00069810764, -0.21643336, -0.0605784, 0.056571096, -0.2164891, -0.14653145, 0.076777756, 0.018333908, -0.029885974, -0.06718766, -0.2081088, -0.042341635, 0.0068771075, 0.0044466346, -0.15710053, -0.038315263, -0.10411421, 0.017134639, -0.11157039, -0.0014449045, 0.026124667, -0.069683045, -0.004771589, 0.061250705, -0.04601739, -0.019768631, -0.052405424, -0.0544143, -0.040257875, 0.0067509343, -0.091040164, 0.045678303, -0.019457577, -0.063315414, 0.088491626, 0.023368862, -0.12079861, -0.013689466, -0.060127564, 0.090714104, 0.1172961, -0.039275117, -0.08733597, 0.04265361, 0.06359256, -0.116581865, -0.007120812, -0.027745746, 0.1729485, 0.070682615, 0.07667031, -0.06688259, 0.16959685, 0.005635039, -0.012821241, 0.17230256, 0.114328496, 0.0239133, -0.08537289, 0.0031910716, 0.16606876, -0.03706181, 0.070584156, -0.07540765, 0.10616397, 0.14093995, 0.0712642, 0.16696115, -0.02377844, 0.08147206, 0.0012382525, 0.22363885, 0.12644619, 0.17500883, -0.018943958, 0.0077880477, 0.007867018, 0.10422362, -0.052166153, -0.040589057, 0.10363694, 0.062463824, -0.024259442, 0.107944444, 0.20220853, 0.008944399, 0.15582182, 0.014717603, 0.2364742, 0.18816684, 0.053067505, 0.19572115, 0.17821617, 0.18623614, 0.023782795, 0.20835043, 0.25338027, 0.12960707, 0.027773561, -0.017380977, 0.060952447, 0.07485085, 0.096760854, 0.16450617, 0.19276069, 0.25325, 0.16299836, 0.033538364, 0.06573908, 0.027958844, 0.22423057, 0.2706258, 0.1406741, 0.080640085, 0.18618627, 0.20405301, 0.15930074, 0.2947106, 0.2537037, 0.24008942, 0.17505446, 0.2054829, 0.25916573, 0.089203864, 0.25629452, 0.18498184, 0.22332127, 0.27276284, 0.198322, 0.23695329, 0.08474339, 0.106933154, 0.23272622, 0.32005396, 0.33218572, 0.24039467, 0.24166423, 0.31241035, 0.21076229, 0.29673746, 0.063630626, 0.29788575, 0.3464545, 0.19815615, 0.12776366, -0.5018602, -0.21096618, -0.4183589, -0.36269054, -0.43166623, -0.42911556, -0.43579552, -0.34329638, -0.4704029, -0.31398213, -0.35128525, -0.35330662, -0.3523995, -0.35981345, -0.30159727, -0.2198322, -0.2564688, -0.325826, -0.22153853, -0.41141307, -0.3501173, -0.41374394, -0.15103629, -0.2684833, -0.20056914, -0.16821739, -0.28598893, -0.34581167, -0.25688744, -0.13414344, -0.35924172, -0.21863471, -0.2693598, -0.2904194, -0.307031, -0.30128434, -0.1668959, -0.1616414, -0.23103717, -0.2116051, -0.24502254, -0.2529408, -0.237758, -0.23711905, -0.29738706, -0.12450244, -0.29817227, -0.15577391, -0.13534115, -0.27312046, -0.07606287, -0.17069736, -0.28834137, -0.24202578, -0.042685468, -0.089222714, -0.13217407, -0.21030284, -0.055955485, -0.21461856, -0.18222913, -0.30218983, -0.2999896, -0.1521557, -0.23273183, -0.09170195, -0.17286897, -0.14211576, -0.18829872, -0.02638125, -0.0879566, -0.04931281, -0.107935585, -0.14075044, -0.01803797, -0.0865197, -0.2414661, -0.17373541, -0.05331053, -0.26153153, -0.14347176, 0.030051049, -0.023647297, -0.23694256, -0.24268997, -0.028541386, -0.20695333, -0.19317557, -0.07202318, 0.035076793, -0.19939065, -0.042336207, -0.028076902, -0.10545374, -0.19650216, -0.040695257, 0.007830344, -0.12256328, -0.07536309, 0.007945814, -0.15933521, -0.19005182, -0.10023358, -0.12040479, -0.12793157, -0.15402572, 0.01321552, -0.034346268, -0.12830013, 0.075678326, -0.13482949, -0.05207421, 0.024463579, 0.07372063, 0.11264873, -0.17546014, -0.066981636, -0.06790806, -0.0037492665, -0.07443612, -0.094737545, -0.1526603, -0.02752984, -0.1171718, -0.004952605, 0.0155951185, -0.08655068, 0.00058772543, -0.08300117, -0.030420085, 0.08334637, -0.07705555, -0.057951145, 0.13963851, 0.09760374, 0.11702511, 0.08000886, 0.047562093, -0.03793694, 0.02804391, -0.03302684, 0.082660444, 0.039689824, -0.073940165, -0.058827166, 0.018759547, 0.07475334, -0.017179422, -0.057061657, 0.15973529, 0.11942842, 0.039242078, -0.03659551, 0.0054907035, 0.0391048, 0.08630464, 0.16900465, 0.15273981, 0.03607748, -0.015397782, 0.06315433, 0.19394846, -0.0372139, 0.15998669, 0.012864885, 0.13154653, -0.042617396, 0.21893156, -0.004115401, -0.039997578, -0.012596666, 0.0647133, 0.18858103, 0.09762201, 0.10665729, 0.13666978, -0.003992684, 0.23228136, 0.08126192, -0.019865042, 0.10600378, -0.0031263889, 0.24983175, 0.14680798, 0.21134286, 0.053746138, 0.09128627, 0.09613449, 0.10098588, 0.11340108, 0.06644833, 0.100678645, 0.26841012, 0.23657304, 0.055385575, 0.007313944, 0.089783765, 0.16573097, -0.0059090303, 0.15078026, 0.19589277, 0.16747709, 0.028156763, 0.11772979, 0.23577794, 0.25427514, 0.15125938, 0.18646562, 0.22231007, 0.16751632, 0.07320456, 0.09994552, 0.24456368, 0.09493203, 0.166902, 0.19753492, 0.3159864, 0.24488743, 0.3101964, 0.14173724, 0.21145765, 0.2563343, 0.1891938, 0.12778051, 0.20761348, 0.055271126, 0.24696417, 0.10533718, 0.33468777, 0.24061598, 0.10629626, 0.27441216, 0.21439105, 0.18960878, 0.2223892, 0.1442354, 0.11401482, 0.20134108, 0.2523235, 0.24605216, 0.25069657, 0.4847287, 0.41418144, 0.3595582, 0.2238032, 0.29363763, 0.37248948, 0.46715444, 0.41026255, 0.22962624, 0.3425096, 0.3565588, 0.28612295, 0.4200042, 0.3939686, 0.37781054, 0.19737023, 0.28410196, 0.3247507, 0.34053072, 0.4181105, 0.4480173, 0.29361257, 0.33020857, 0.40417528, 0.2983333, 0.17908378, 0.35854107, 0.29815674, 0.21592885, 0.20137383, 0.32359734, 0.23431213, 0.35934868, 0.32763335, 0.18814991, 0.3318003, 0.3108299, 0.36212894, 0.2799439, 0.34134996, 0.20759119, 0.34197307, 0.118416354, 0.13730523, 0.1311864, 0.30376446, 0.33911517, 0.19413443, 0.33427554, 0.18157463, 0.12878639, 0.28614673, 0.123414814, 0.30752203, 0.29551592, 0.14037777, 0.31423235, 0.17861766, 0.22878657, 0.29187515, 0.049347457, 0.20320506, 0.1678686, 0.14360143, 0.2993431, 0.2656968, 0.17326249, 0.25488454, 0.02239639, 0.11942118, 0.099226475, 0.17241526, 0.12480183, 0.24463592, 0.25458443, 0.12398227, 0.104379565, -0.004998828, -0.024874048, 0.11926234, 0.17630646, 0.05063344, 0.14327775, 0.07594717, 0.14859661, 0.13532257, 0.15477614, 0.025607055, 0.19091614, 0.18366121, -0.0047588865, 0.10768579, -0.060137, 0.20312664, 0.09616455, -0.04352939, 0.17442445, 0.053684294, 0.06428837, 0.16307756, 0.10856168, 0.18277133, -0.08535333, 0.18474056, 0.13468593, 0.076449476, 0.08913488, 0.04988482, -0.09263832, -0.01982901, 0.03667758, -0.08385366, 0.06026558, 0.102272965, -0.07104629, -0.005266006, 0.14701444, -0.06213854, 0.05575521, 0.12315028, 0.12528926, 0.064440124, -0.04876061, -0.054768454, 0.103542626, 0.09403269, -0.054512154, 0.11094763, -0.10184625, 0.08244862, -0.14086537, -0.14313339, -0.073309034, 0.0469964, -0.14074185, -0.1530064, 0.08891174, -0.10420169, 0.10469841, -0.11767577, 0.02377515, -0.112880565, -0.10716088, 0.029662872, -0.11185854, -0.045853533, -0.20022716, -0.1648168, -0.096207514, 0.08081988, 0.016236652, -0.0677711, -0.10007092, -0.042414512, 0.068755545, -0.08753917, -0.046501298, -0.12853977, -0.098511785, 0.012466083, -0.031467713, -0.12458904, 0.036118407, 0.01146887, -0.115806654, -0.22439483, -0.01391546, 0.011432634, -0.04196284, -0.03840862, -0.15710954, -0.060013577, -0.25110084, -0.18589589, -0.14572519, 0.029896304, -0.12103671, -0.07700984, -0.15075727, -0.05521466, -0.24883702, -0.14578485, -0.12298188, -0.10916407, -0.25669459, -0.20568593, -0.24263826, -0.066354886, -0.07596759, -0.03669614, -0.11879093, -0.20372087, -0.1815136, -0.11500596, -0.13152753, -0.014601288, -0.30424985, -0.17171037, -0.037610568, -0.16686548, -0.29060584, -0.28819382, -0.046419233, -0.24033022, -0.16805218, -0.09052537, -0.14084694, -0.1864712, -0.040477935, -0.22811808, -0.1130807, -0.1486631, -0.21862294, -0.21400742, -0.22111273, -0.28468525, -0.19499433, -0.2234497, -0.25843927, -0.07392672, -0.27358007, -0.09127045, -0.08679995, -0.25233647, -0.22205845, -0.21757498, -0.16539904, -0.34323445, -0.19955999, -0.22040555, -0.09493233, -0.34710014, -0.28991288, -0.18921429, -0.24235757, -0.13768479, -0.2553176, -0.33782873, -0.146845, -0.46434778, -0.48382187, -0.30797866, -0.39347637, -0.25374004, -0.29108474, -0.27509063, -0.4209841, -0.43405253, -0.21959266, -0.32897294, -0.26099867, -0.3485658, -0.23811628, -0.3220023, -0.22268678, -0.21332112, -0.1897774, -0.21181785, -0.323986, -0.33071703, -0.3278149, -0.13988969, -0.1750639, -0.23217812, -0.2860703, -0.27257293, -0.23634475, -0.2041108, -0.39702952, -0.35155743, -0.34871337, -0.39407083, -0.21993886, -0.1765448, -0.21905088, -0.37184414, -0.29699993, -0.15466225, -0.32619402, -0.12070855, -0.30282065, -0.24443868, -0.19695292, -0.16938104, -0.16535337, -0.34632358, -0.18868448, -0.077852175, -0.2647128, -0.18331526, -0.15490744, -0.254108, -0.31551772, -0.10576515, -0.08175939, -0.15634954, -0.2725897, -0.31594667, -0.25888285, -0.15295939, -0.06881431, -0.30581436, -0.29436263, -0.23139852, -0.13243416, -0.14727673, -0.03763559, -0.20818694, -0.064720914, -0.27600923, -0.044724327, -0.06426146, -0.2463201, -0.16880201, -0.057107005, -0.05776283, -0.20284261, -0.13302661, -0.22447526, -0.04574354, -0.070301086, -0.12154255, -0.2046992, -0.2371557, -0.09220978, -0.1857004, -0.00680185, 0.017031353, -0.066909306, -0.050614826, -0.04076366, -0.09555266, -0.13089477, 0.0327691, 0.05619363, -0.20167805, -0.057372212, 0.047445774, 0.033846132, -0.13520016, 0.04257683, 0.033810984, 0.00667722, -0.031560294, -0.2008422, -0.06543418, -0.085292265, -0.13462184, 0.06390089, -0.09023538, 0.07297132, 0.025016584, -0.16088875, -0.0041656257, 0.002189727, 0.058463544, 0.074487284, -0.16546978, 0.053892035, -0.037997436, 0.087960325, 0.01905363, -0.14289436, 0.0997121, 0.09524201, 0.03282193, -0.11280336, -0.08195637, -0.13455836, 0.0818557, -0.038886845, -0.14166792, -0.038079318, 0.08113459, -0.0055262633, -0.05304521, 0.13774075, 0.09901192, -0.09650056, 0.1535021, 0.099419504, -0.026844036, 0.0076665133, -0.08311723, 0.09969238, -0.032481823, 0.09082464, -0.092225984, -0.04336989, -0.05600539, 0.17101324, 0.092470825, -0.09821746, -0.07330037, 0.046105105, -0.042034063, -0.09780153, -0.041703, 0.17674112, 0.13360733, -0.020464448, 0.12436204, -0.07545083, 0.17789276, 0.11044376, -0.03290873, 0.20009802, 0.13158844, -0.015877416, -0.0029808076, 0.20583637, 0.22698553, 0.052913524, 0.090654366, 0.18796714, 0.041844625, 0.14030595, 0.14082031, -0.03401278, 0.111666664, 0.052296314, 0.12035355, 0.06566968, 0.09155467, 0.19434841, 0.18068479, -0.0015593618, 0.24152237, 0.23342288, 0.1254359, 0.013086768, 0.17704937, 0.028730623, 0.26603004, 0.08962381, 0.082547255, 0.013414393, 0.031271353, 0.2199927, 0.03916887, 0.20380291, 0.21308988, 0.010433059, 0.18388698, 0.1441187, 0.08516881, 0.23677535, 0.07036624, 0.22896385, 0.16572532, 0.060688883, 0.250129, 0.011420397, 0.12866297, 0.15358126, 0.07342063, 0.10451196, 0.19070409, 0.1675705, 0.12954889, 0.023787186, 0.0831408, 0.10204186, 0.31684196, 0.30385372, 0.20694664, 0.26311198, 0.22888725, 0.19765082, 0.3134396, 0.2747242, 0.20276931, 0.12054217, 0.30291858, 0.22327438, 0.1036304, 0.27479926, 0.05404145, 0.14811537, -0.23673731, -0.31461352, -0.41679302, -0.4734709, -0.3229601, -0.27104783, -0.35277778, -0.20625901, -0.42696458, -0.3635105, -0.3876948, -0.23068962, -0.4506911, -0.3938293, -0.42890266, -0.45044637, -0.24288148, -0.15806733, -0.4316766, -0.41814965, -0.37452602, -0.3068488, -0.19723587, -0.3617261, -0.28369746, -0.15918577, -0.28501442, -0.30235288, -0.23183872, -0.37574616, -0.17041753, -0.3919037, -0.37422958, -0.21432838, -0.28753728, -0.37017387, -0.15049075, -0.36537442, -0.20544173, -0.18289259, -0.13965772, -0.21717198, -0.13440505, -0.10001914, -0.16101709, -0.19295114, -0.17333494, -0.26929057, -0.23228697, -0.23457722, -0.3013974, -0.29107898, -0.2057301, -0.14597425, -0.062817045, -0.1387035, -0.27987748, -0.060625866, -0.13107195, -0.15372282, -0.1025614, -0.17044732, -0.027403938, -0.030760646, -0.110057995, -0.24992822, -0.16062944, -0.14907077, -0.076756544, -0.04609083, -0.019950783, -0.027694015, -0.158758, -0.22669856, -0.24595515, -0.008203123, -0.12958075, -0.06324503, 0.0021013408, -0.14311852, -0.22045025, -0.19841595, -0.020014064, 0.024374014, -0.10772008, -0.15997343, -0.20376863, -0.06358372, -0.014299709, -0.10968132, -0.09080813, -0.0803188, -0.20203033, -0.13011524, 0.041713797, -0.1699966, -0.020177234, -0.09363605, -0.034875695, 0.05486677, -0.014400211, -0.21177277, 0.064260595, 0.052943833, -0.054346133, -0.08119129, -0.02614377, -0.13596363, 0.053263318, -0.0083809905, -0.05532305, 0.07939859, -0.10665344, -0.13530932, -0.06440721, -0.1368193, -0.11472792, -0.014376205, -0.07988995, 0.012999757, 0.048303913, 0.11271272, 0.088386424, -0.024896737, 0.05662338, 0.10086139, 0.103597395, 0.06551459, -0.09731754, -0.14274111, -0.046484, 0.0048241364, -0.03472524, -0.014867182, -0.014342489, 0.0948339, 0.13936362, 0.058993023, 0.12496333, 0.017944789, -0.120479904, -0.05793267, -0.07506906, 0.12643103, 0.16269885, -0.01922301, 0.005208769, -0.071123414, 0.039407175, -0.08418202, 0.07780397, 0.07802531, -0.10644207, 0.073883094, -0.078964055, 0.04972276, -0.09784732, 0.03364374, 0.098357506, 0.19389391, 0.016818983, 0.12792808, 0.14632972, 0.13383721, -0.07997796, 0.08169066, -0.014286151, 0.19701438, 0.088432185, 0.19783266, 0.032179445, 0.023426235, 0.18095078, -0.059990667, 0.22455478, 0.13455066, 0.112251624, 0.10460697, 0.13845347, 0.2355152, 0.15559417, 0.23129962, 0.07367297, 0.08417449, -0.047984295, -0.008843325, 0.11315317, 0.055700686, 0.07914587, -0.00761747, -0.0013854498, 0.044774227, 0.029591698, 0.042346653, 0.18876098, 0.020218428, 0.18360418, 0.0132279135, 0.020809641, 0.19223347, -0.010397626, 0.024857339, 0.11895349, 0.018829241, 0.11682662, 0.14770852, 0.19321188, 0.25586906, 0.07566535, 0.2825347, 0.2311007, 0.21649015, 0.08502285, 0.21189754, 0.17734154, 0.24114572, 0.13386337, 0.15970987, 0.23329306, 0.13121527, 0.12178526, 0.048799098, 0.020571573, 0.087409444, 0.17115869, 0.16646634, 0.036379866, 0.21709271, 0.29439119, 0.25236738, 0.10351037, 0.26125532, 0.2613883, 0.15671654, 0.10273258, 0.16920877, 0.26630422, 0.10892799, 0.32898703, 0.28768814, 0.4753331, 0.4893976, 0.39699578, 0.41236547, 0.27685717, 0.22818181, 0.38234615, 0.4249583, 0.43443847, 0.34485668, 0.24150638, 0.41213003, 0.20713335, 0.39927226, 0.27677122, 0.4637798, 0.25113246, 0.39451313, 0.4145263, 0.2768975, 0.27815807, 0.31430617, 0.36927658, 0.35117447, 0.39521703, 0.42041954, 0.36493397, 0.40507022, 0.39350006, 0.41786483, 0.17546538, 0.16283445, 0.19874299, 0.23182599, 0.16726823, 0.35390103, 0.40671217, 0.26265553, 0.16850483, 0.14405414, 0.35451946, 0.28406465, 0.20417303, 0.19032378, 0.31890544, 0.3747916, 0.11361406, 0.36793235, 0.35951895, 0.3215832, 0.0786124, 0.20891044, 0.13148676, 0.22602291, 0.12871073, 0.057048246, 0.24874741, 0.13244365, 0.23409766, 0.06601586, 0.16260229, 0.29910532, 0.076339334, 0.31702974, 0.1806858, 0.25492504, 0.12449534, 0.13410807, 0.22933728, 0.09592085, 0.1255514, 0.05523917, 0.0070056734, 0.08076031, 0.25616226, 0.19894385, 0.14185297, 0.16807555, 0.17141053, -0.019847043, 0.13704003, 0.09011127, 0.19484757, -0.016717039, 0.20379546, 0.17883046, 0.045755833, -0.025558617, 0.13008127, 0.04629962, 0.19521275, 0.05048565, 0.08023946, 0.06377097, 0.093259156, 0.16283742, -0.065596916, 0.18924741, 0.19184783, -0.06533333, -0.025920993, 0.161385, -0.0063361833, 0.003472883, -0.066811435, 0.16804983, -0.08036559, 0.14592586, 0.036107406, 0.13655885, 0.00065912807, 0.10108605, 0.1474311, -0.032305077, 0.12023941, 0.13982072, -0.10001107, -0.09856455, 0.00049550546, 0.082896665, -0.103688955, 0.15622455, -0.10836313, 0.09342768, 0.13292602, -0.091000825, -0.10920708, -0.047031563, -0.042712826, 0.002883196, 0.094391026, -0.037720617, 0.047354855, -0.12040739, -0.10817786, 0.115636684, 0.026548147, -0.13576213, 0.0785667, 0.011527469, 0.0010161535, -0.08351849, -0.02551711, -0.181533, -0.12539977, 0.0823515, -0.00083828287, -0.02163513, -0.09301062, 0.03183003, -0.16730145, -0.085937485, 0.0003405815, 0.013003415, 0.053887527, 0.03756981, 0.04101817, -0.03928966, -0.024350084, 0.047403593, -0.18968754, -0.20896962, -0.010772316, 0.0049968986, -0.06112086, -0.12500212, -0.054252196, -0.23823225, -0.11166684, -0.20471962, -0.00093479693, -0.16978122, -0.08829628, -0.19453008, -0.07226151, -0.070035614, -0.082752004, -0.25549725, -0.19209105, -0.12599392, 0.010629149, -0.07846985, -0.20835814, -0.114952244, -0.24265364, -0.16753066, -0.16856454, -0.2698722, -0.08812489, -0.13355303, -0.14020583, -0.1938928, -0.036615282, -0.25775215, -0.10315426, -0.16188024, -0.2666458, -0.096409634, -0.051553573, -0.25839993, -0.27194387, -0.2268891, -0.10959474, -0.10944729, -0.116243064, -0.05113479, -0.073304094, -0.15747915, -0.31425872, -0.2996942, -0.25997877, -0.32099962, -0.28442925, -0.16938433, -0.1281493, -0.09454255, -0.11244581, -0.09508372, -0.09009908, -0.2980366, -0.22924908, -0.26956305, -0.09878557, -0.21811254, -0.091994956, -0.080701984, -0.11405129, -0.19165926, -0.31693596, -0.09712764, -0.1416121, -0.19274731, -0.33714482, -0.27670398, -0.09596515, -0.25149572, -0.33301812, -0.22311108, -0.23552828, -0.34780997, -0.40196353, -0.45417616, -0.47097978, -0.4198585, -0.4258622, -0.4178637, -0.4104583, -0.4228426, -0.2157251, -0.4472746, -0.38162154, -0.22359493, -0.19281629, -0.3526764, -0.25563097, -0.26808903, -0.16887958, -0.3188228, -0.34895095, -0.28341475, -0.19555146, -0.34097013, -0.27178687, -0.23202394, -0.41640404, -0.17622659, -0.15887932, -0.2587191, -0.25650057, -0.23242639, -0.2579451, -0.35292396, -0.35122943, -0.35436282, -0.35631013, -0.1554052, -0.17772132, -0.19627114, -0.35151783, -0.34334698, -0.37242064, -0.36629072, -0.21426095, -0.2795245, -0.27527905, -0.09888749, -0.1640026, -0.09777031, -0.22317733, -0.32265055, -0.09546954, -0.33421254, -0.0664831, -0.2139442, -0.32499504, -0.098294675, -0.19540146, -0.15908638, -0.30916768, -0.31868246, -0.29902825, -0.17975669, -0.04847823, -0.1585107, -0.13867097, -0.14194244, -0.13266212, -0.21376525, -0.018973421, -0.05642571, -0.26332322, -0.035710137, -0.05129181, -0.057234604, -0.06599611, -0.08584688, 0.00094459037, -0.2679225, -0.24295807, -0.09583695, -0.05269047, -0.10663383, 0.0029841727, -0.057782356, 0.02446844, -0.15912527, -0.23136397, -0.019895727, -0.18966098, -0.10850269, -0.13136984, -0.11077149, -0.21679832, 0.04017276, -0.14605449, -0.08128882, -0.053075235, 0.006389394, -0.13336399, -0.035017908, -0.20392574, -0.11226465, -0.14980313, -0.084946565, 0.07949978, -0.115448095, -0.094700344, -0.12908863, -0.05925846, 0.030744702, -0.16092123, -0.038906377, -0.13587904, 0.063890554, 0.087067336, -0.048933968, -0.034875534, -0.0037302892, -0.16474806, 0.10868653, -0.07316862, 0.099556096, -0.12999591, 0.089722924, 0.095692225, -0.060504094, 0.009397761, 0.13989544, -0.078484744, -0.13504997, 0.1437043, -0.00769545, 0.10179592, 0.15873484, 0.16277707, -0.022644803, -0.09451323, 0.102619655, -0.09072265, 0.007920538, 0.016453208, 0.09107766, 0.123347394, -0.022970488, 0.09235492, -0.021159833, 0.04724591, -0.073828444, 0.19077994, -0.013717087, 0.074729785, 0.104206145, 0.0916288, 0.010828105, 0.029442849, 0.19794154, -0.07935964, -0.019392649, -0.037375353, 0.06826202, -0.01154886, 0.112631485, -0.03163442, -0.036069088, 0.14251801, 0.0275632, -0.005619879, 0.02104889, 0.16475634, 0.21975766, 0.17046028, 0.00402201, 0.13430382, 0.14525601, 0.038356856, 0.06518528, 0.12568685, 0.24093796, 0.1301575, 0.07137032, 0.17807356, 0.05842405, 0.019541904, 0.12156378, 0.038431156, 0.040337745, 0.26143846, 0.109997764, 0.08381377, 0.01562668, 0.19238335, 0.17062052, 0.033051997, 0.12360571, 0.08471325, 0.014337439, 0.22568418, 0.006972838, 0.04701586, 0.10392041, 0.13508546, 0.15499699, 0.1512631, 0.040906586, 0.16274172, 0.06554738, 0.103339754, 0.10064418, 0.05303732, 0.1323467, 0.17723104, 0.07586496, 0.15228151, 0.2671313, 0.25193402, 0.22116318, 0.26683322, 0.27913716, 0.11761299, 0.318303, 0.25114882, 0.110207334, 0.10081331, 0.31060597, 0.25902447, 0.24146779, 0.17327107, 0.09820969, 0.1812293, 0.26623526, 0.2694066, 0.17720126, 0.07601749, 0.27467906, 0.17664245, 0.23975173, 0.067427866, 0.17222826, 0.26939192, 0.23854746, 1.716492, 1.7567993, 1.68488, 1.6335661, 1.3895162, 1.5207889, 1.3450327, 1.5943627, 1.5575674, 1.2991903, 1.5277219, 1.4912784, 1.4350632, 1.3094704, 1.3359784, 1.1456585, 1.1848879, 1.2379677, 1.2632555, 1.2487609, 1.0755098, 1.1983839, 1.1708951, 0.97302866, 1.0238128, 1.0085067, 1.1949319, 1.0390799, 0.9068017, 0.98561484, 1.0998731, 0.8871193, 0.9624095, 1.055052, 0.79862124, 0.9743061, 0.77019167, 0.86834335, 0.7780579, 0.8975988, 0.88050836, 0.7497521, 0.67501307, 0.8462734, 0.6649905, 0.74605906, 0.71500736, 0.83889663, 0.8435504, 0.6325217, 0.63736385, 0.8026005, 0.6166308, 0.8029083, 0.5900845, 0.6271986, 0.5336002, 0.7467169, 0.549704, 0.66917694, 0.7260576, 0.5539842, 0.54940456, 0.51315814, 0.5322624, 0.47812566, 0.38499054, 0.59079933, 0.6151494, 0.5581425, 0.5846819, 0.5711703, 0.5024624, 0.5012956, 0.49631754, 0.29397377, 0.3658028, 0.3909578, 0.39258316, 0.5061501, 0.4418875, 0.42663604, 0.2988811, 0.35983402, 0.49753213, 0.43222523, 0.48011726, 0.30559385, 0.40741783, 0.22376053, 0.3242644, 0.3969375, 0.42637363, 0.43995395, 0.18742017, 0.22242013, 0.23014411, 0.33279002, 0.30997872, 0.26862457, 0.38754803, 0.1825598, 0.20000406, 0.2791446, 0.1817514, 0.08686044, 0.080206856, 0.1421007, 0.06773162, 0.08424922, 0.32210886, 0.21495819, 0.20564914, 0.19496812, 0.2345041, 0.2165524, 0.23877673, 0.11314005, 0.26051813, 0.16815706, 0.08953776, 0.2339357, 0.056590877, 0.102753446, 0.22058679, 0.114018954, 0.16173999, 0.11180449, 0.064676575, -0.07584905, 0.025619281, 0.06922534, 0.053345457, -0.06481544, 0.18021901, -0.03701945, 0.1369406, -0.08187963, 0.064626545, -0.10771505, 0.056114078, 0.15134862, -0.11362036, -0.119663864, 0.13904291, 0.0037078822, -0.14986348, 0.114840694, -0.12698807, -0.11736865, 0.016660742, -0.14035122, -0.055142865, -0.0904511, -0.11744912, -0.104601845, -0.07757691, -0.20723931, -0.122227475, -0.15681829, -0.0075247865, -0.061066646, -0.06333215, 0.01179858, -0.04419494, -0.1263495, -0.2463677, -0.037434913, -0.05333101, -0.23656452, -0.011391192, -0.20752364, -0.21383013, 0.018764695, -0.034598548, -0.048327103, -0.19567007, -0.05065051, -0.2418969, -0.19989975, -0.011235651, -0.2706656, -0.23750511, -0.21274939, -0.27607265, -0.2986698, -0.22199301, -0.1216012, -0.106994025, -0.13398567, -0.31107277, -0.25271884, -0.22795327, -0.118918076, -0.18909831, -0.289219, -0.12174616, -0.28977278, -0.20535704, -0.26847708, -0.14130248, -0.1926423, -0.13958642, -0.10057752, -0.13947432, -0.1371959, -0.16130915, -0.16166832, -0.35547945, -0.2020356, -0.25177124, -0.1820364, -0.11820099, -0.18051842, -0.34847826, -0.33668834, -0.18566237, -0.37335244, -0.37312385, -0.18908127, -0.33373934, -0.16356064, -0.14888567, -0.18714912, -0.38455197, -0.43471605, -0.15797924, -0.17873164, -0.3847383, -0.20435755, -0.27265635, -0.29976425, -0.3301286, -0.43913567, -0.38332865, -0.28676486, -0.32775486, -0.4290268, -0.21804112, -0.40092912, -0.47462672, -0.3566682, -0.28484848, -0.2608893, -0.24331477, -0.41192597, -0.28235167, -0.286743, -0.43970054, -0.24649777, -0.297887, -0.2646418, -0.37627152, -0.42495498, -0.4515738, -0.42364532, -0.18521781, -0.31565377, -0.18336703, -0.2199721, -0.30250466, -0.31721896, -0.20546697, -0.39464092, -0.35700735, -0.28693727, -0.281098, -0.23944795, -0.22964488, -0.31734326, -0.16788512, -0.35559255, -0.25896153, -0.12916376, -0.23164375, -0.27747223, -0.21906699, -0.101253726, -0.11527589, -0.18972199, -0.13098893, -0.13336079, -0.080756195, -0.10385522, -0.34037346, -0.09410544, -0.07752792, -0.108604714, -0.16221969, -0.13068879, -0.18128148, -0.07896909, -0.15945226, -0.074511416, -0.098269105, -0.13743417, -0.2081429, -0.24538329, -0.20920663, -0.21964091, -0.0864219, -0.17281607, -0.29166612, -0.10958338, -0.13261004, -0.025882713, -0.29771587, -0.13376273, -0.08572609, -0.2518596, -0.22844937, -0.033703517, -0.20318913, -0.10447261, -0.07714565, -0.27937558, -0.24524151, -0.16459945, -0.14164987, -0.2133894, -0.16312584, -0.086540796, -0.2533256, -0.08743925, -0.015324774, -0.22078675, 0.038961392, -0.09114596, -0.050911896, -0.014813277, -0.121932395, -0.20281526, -0.12325954, -0.22515748, -0.1621472, -0.20788416, -0.1029091, 0.016410194, -0.017845325, -0.007966866, -0.17630267, -0.18881129, -0.077939674, -0.10341632, 0.044421185, -0.099554084, -0.014455631, -0.00052018557, -0.09563956, 0.015934823, 0.01521403, -0.13037588, -0.061825875, -0.089757, -0.099575855, -0.026890868, 0.10202997, -0.039074477, -0.13489924, 0.041023422, -0.004387853, -0.10918617, 0.020275842, 0.040758576, 0.05888147, -0.07276802, 0.046332538, -0.06268341, -0.12860502, 0.113132335, -0.044966303, -0.11185544, 0.15929574, 0.021839697, -0.018231094, 0.0749545, -0.070799865, 0.047993436, 0.032572594, -0.07344182, 0.113569304, 0.09931586, -0.095091246, -0.028678805, -0.08863351, -0.054515593, -0.04450851, -0.080883674, -0.07011236, 0.15543129, 0.19184987, 0.0120993275, 0.19967851, 0.1501117, 0.10532356, 0.12517081, 0.06571456, -0.07225153, 0.021882117, 0.07277543, -0.042467136, 0.01969704, -0.07075596, -0.021328988, 0.10672827, 0.22747143, 0.035224188, -0.05203354, 0.047539253, 0.10626138, 0.0674168, -0.02781108, 0.15457736, -0.045146123, 0.0142798675, 0.19820209, -0.0069464124, -0.017045114, 0.23420043, 0.1287328, 0.033003625, 0.074481785, 0.2355134, 0.018001039, -0.026851403, 0.0026892438, 0.103803925, 0.22935797, 0.055464502, 0.21223474, 0.15714873, 0.16147281, 0.07824382, 0.12029474, 0.25796723, 0.07408158, 0.0006611598, 0.21734199, 0.21323307, 0.06894914, 0.08168936, 0.006273485, 0.108884625, 0.30046704, 0.10754639, 0.18149227, 0.050935812, 0.022031182, 0.15126075, 0.26450074, 0.09232187, 0.107748725, 0.27747968, 0.07554557, 0.2567681, 0.14423563, 0.102435775, 0.1065366, 0.26932606, 0.23154859, 0.22084783, 0.28098097, 0.2270918, 0.06915904, 0.20954587, 0.1962701, 0.11645078, 0.15659013, 0.19465491, 0.25828987, 0.29203683, 0.14736144, 0.14277953, 0.3559377, 0.14197876, 0.13690953, 0.14446294, 0.10115714, 0.11070663, 0.20095511, 0.32473573, 0.5237487, 0.5149679, 0.30477712, 0.23773284, 0.43392196, 0.28698918, 0.46855658, 0.24585935, 0.34305102, 0.40573224, 0.4366628, 0.2569674, 0.36942935, 0.2080162, 0.20149231, 0.3386392, 0.307842, 0.20961204, 0.39363918, 0.2303753, 0.32741836, 0.17107636, 0.32319915, 0.38234973, 0.28114265, 0.4375688, 0.32846072, 0.24953099, 0.32216358, 0.18608552, 0.272021, 0.28193226, 0.3736591, 0.16144411, 0.3305894, 0.3512855, 0.37043127, 0.16837384, 0.34585688, 0.29799747, 0.33246416, 0.2644108, 0.15144297, 0.27261895, 0.2658905, 0.12939289, 0.20353848, 0.29760084, 0.18536112, 0.14770976, 0.31623647, 0.1634378, 0.15927695, 0.09810563, 0.28555107, 0.21744202, 0.31338745, 0.1837954, 0.30287108, 0.17184854, 0.21939851, 0.09893528, 0.25524873, 0.17192453, 0.02205668, 0.06881437, 0.23037376, 0.083756246, 0.11973697, 0.06063695, 0.065164305, 0.23780394, 0.05602518, 0.14884014, 0.009417368, 0.19844161, 0.009526427, 0.24309835, 0.13941617, 0.070074275, 0.05613891, 0.13357729, 0.2178134, -0.030538533, 0.119305775, 0.092930324, 0.19229949, 0.12565674, 0.12410783, 0.00988334, 0.08258902, 0.0057042185, 0.004490788, -0.0019429688, 0.21367633, 0.22743559, -0.070744984, 0.11058217, 0.11783644, 0.17708836, 0.16470231, -0.082489274, 0.021601124, 0.05572403, 0.10197154, 0.08992509, 0.12377282, 0.11937468, -0.05937174, -0.053208195, 0.00016968872, -0.049418423, 0.07292056, 0.045667063, 0.027057583, 0.035226047, 0.15004893, 0.02017163, 0.012198594, -0.010353288, -0.12652598, 0.046829883, 0.017396057, -0.14004923, 0.04457049, 0.001935355, -0.062339604, -0.028614936, -0.0124587435, 0.01466331, -0.12823862, 0.030283447, 0.032871865, 0.026252892, 0.06737217, -0.08401338, 0.0011288128, 0.05166808, -0.051138774, -0.16862163, -0.09430808, 0.03524844, -0.12288319, -0.1252869, 0.06382942, -0.050519124, 0.09515293, -0.072894074, -0.16415502, -0.025278237, 0.024092585, -0.19773892, 0.008949808, -0.0075252843, -0.0804471, -0.033945415, 0.04333928, -0.010942163, -0.15873995, -0.12872581, -0.09760018, -0.08546111, -0.23072982, -0.08253804, -0.053793635, -0.020163884, 0.01055039, -0.21615177, -0.24475358, -0.10746854, -0.07683871, 0.02913224, -0.15529138, 0.0006319019, -0.01886486, -0.109069645, -0.1502087, -0.22166258, -0.20263582, -0.006209748, -0.024438549, -0.01761617, -0.22175512, -0.10519301, -0.26645148, -0.07753789, -0.22221868, -0.19185649, -0.1306574, -0.2657854, -0.020386245, -0.076292746, -0.1447055, -0.022273399, -0.035630446, -0.06569329, -0.0497208, -0.23184851, -0.051186617, -0.12881586, -0.30169111, -0.21081418, -0.18753761, -0.29317155, -0.2960874, -0.098411, -0.03518553, -0.07617284, -0.12853803, -0.29763988, -0.19192916, -0.22205757, -0.13954861, -0.17130578, -0.1812034, -0.18404473, -0.30932724, -0.12792537, -0.23556048, -0.3047069, -0.32708564, -0.18160084, -0.33918315, -0.18139283, -0.3397921, -0.2758678, -0.16926007, -0.2793734, -0.15537159, -0.16683692, -0.074037135, -0.099213675, -0.107289754, -0.093512364, -0.24986371, -0.118637614, -0.33617654, -0.117902994, -0.27833503, 1.0774962, 1.0827382, 1.1558822, 1.0153368, 0.8964186, 1.0482448, 0.94252133, 0.82693183, 0.8764399, 1.0372115, 0.8742162, 0.7953597, 0.8370457, 0.98978573, 0.7074046, 0.7195211, 0.71142787, 0.7684697, 0.7566056, 0.7684759, 0.6696748, 0.65737754, 0.59196836, 0.660026, 0.5821407, 0.7054906, 0.7261669, 0.802871, 0.62471724, 0.60951716, 0.6811743, 0.7337727, 0.7351318, 0.4727305, 0.61430454, 0.5608454, 0.4143794, 0.4670754, 0.6229138, 0.6277266, 0.6119734, 0.54163253, 0.44818676, 0.43462688, 0.4653296, 0.4078621, 0.3581983, 0.32831782, 0.49277797, 0.39147046, 0.43471393, 0.34235024, 0.35910532, 0.4296314, 0.438791, 0.32945478, 0.42352903, 0.23536585, 0.44021812, 0.4681998, 0.39750597, 0.41743907, 0.2934073, 0.19681631, 0.42891243, 0.16837475, 0.4075695, 0.4158347, 0.35534456, 0.22191544, 0.17482334, 0.29629436, 0.33560416, 0.36934432, 0.30163977, 0.22536826, 0.2999645, 0.18091524, 0.11602665, 0.34627387, 0.21448196, 0.24571787, 0.22131711, 0.22325906, 0.25880045, 0.13604487, 0.3117797, 0.29645795, 0.2672001, 0.17546143, 0.08284315, 0.119876824, 0.18798737, 0.20797251, 0.01016088, 0.06497561, 0.035508264, 0.22965764, -2.7545742e-05, 0.13680673, 0.17969538, -0.049714483, 0.17882001, 0.20270249, -0.039072488, 0.124797545, -0.07311224, 0.00833121, 0.038089138, 0.018550389, -0.06365958, 0.030061891, -0.07007901, 0.08469852, 0.09328161, -0.12342225, 0.049994145, -0.006535445, 0.13071932, -0.10514114, -0.09534005, 0.048685424, 0.091688655, -0.053693734, -0.028327206, -0.103927694, 0.09259203, 0.027336014, -0.052358605, -0.03129252, 0.01862836, -0.011743447, 0.045312766, 0.07677963, -0.13601087, -0.10162502, -0.21147655, -0.033077672, -0.21032041, -0.029946296, 0.018937923, -0.16086404, -0.036815997, -0.02734788, -0.064542644, 0.027884925, 0.03924128, -0.09379785, -0.2534328, -0.2191394, -0.19126847, -0.15198146, -0.09780505, -0.1815374, -0.08118234, -0.13772015, -0.068311706, -0.19064632, -0.23472664, -0.16352494, -0.27243337, -0.040969566, -0.21541698, -0.20496674, -0.084847346, -0.23325503, -0.23331822, -0.20267595, -0.20440903, -0.09006371, -0.28136086, -0.22630866, -0.2843642, -0.2529613, -0.1055394, -0.10161282, -0.32522038, -0.05259474, -0.056769926, -0.31550175, -0.2755459, -0.29836076, -0.12810247, -0.07314676, -0.17156047, -0.20461509, -0.16847198, -0.13845363, -0.18262361, -0.10454858, -0.1444137, -0.20289582, -0.27425689, -0.2243969, -0.22817262, -0.13823979, -0.24433443, -0.28781012, -0.23459025, -0.29969192, -0.37773252, -0.36432055, -0.35781825, -0.13696028, -0.14980328, -0.15626135, -0.2945293, -0.29530403, -0.17022936, -0.21497117, -0.39198446, -0.32695195, -0.15278478, -0.19694549, -0.31030107, -0.32004568, -0.20394677, -0.41813534, -0.22268479, -0.2534318, -0.40943033, -0.19015358, -0.39460698, -0.35797524, -0.29219902, -0.4358717, -0.4277654, -0.2350806, -0.3202318, -0.2583445, -0.44783175, -0.24889061, -0.22569758, -0.41945314, -0.29413858, -0.2892967, -0.22369945, -0.325138, -0.2988581, -0.23361793, 0.6557114, 0.85415417, 0.6564593, 0.75798875, 0.79129136, 0.7233516, 0.6583545, 0.7070932, 0.7836434, 0.74207133, 0.6773864, 0.7815471, 0.79800713, 0.7558926, 0.5095439, 0.66236556, 0.5295322, 0.6865032, 0.6745514, 0.70139265, 0.47777033, 0.60435045, 0.4453327, 0.7108264, 0.44916293, 0.44174725, 0.50306255, 0.43208775, 0.4329684, 0.5709509, 0.39416677, 0.47203085, 0.5778373, 0.40973094, 0.5904292, 0.5332018, 0.36871415, 0.49378946, 0.3383551, 0.55320483, 0.41312125, 0.46300602, 0.32333645, 0.47678253, 0.39233658, 0.33023316, 0.46684313, 0.33325452, 0.42110336, 0.3148695, 0.39250952, 0.4367626, 0.51222306, 0.30752742, 0.25118685, 0.34712797, 0.39151475, 0.27637, 0.4178773, 0.4229238, 0.36007398, 0.1806536, 0.40912235, 0.42256227, 0.2391234, 0.41738462, 0.32103533, 0.25776774, 0.35860863, 0.35843238, 0.39810202, 0.3254014, 0.29323965, 0.2682908, 0.34908614, 0.3314174, 0.24747221, 0.21636792, 0.36916807, 0.12224785, 0.17792228, 0.18793064, 0.19483158, 0.08712605, 0.18445751, 0.18125127, 0.21956387, 0.25830674, 0.050352518, 0.2592608, 0.20849638, 0.28815934, 0.049422596, 0.3203661, 0.16692172, 0.12828724, 0.28986427, 0.06343784, 0.046031334, 0.26349172, 0.25943655, 0.22047754, 0.07299509, 0.05220818, 0.22289181, 0.2611422, 0.19262202, 0.09190323, 0.12774444, 0.11660082, 0.17766836, 0.21447161, 0.034142807, 0.22707887, 0.11107868, 0.02804912, 0.012279403, 0.1386824, 0.0015738524, -0.06464319, 0.2252926, 0.06566658, 0.12797432, 0.055425145, -0.013470706, 0.17343365, -0.032281753, 0.11938485, -0.07399547, -0.042462517, 0.026722567, 0.123383276, -0.014031988, -0.011844244, 0.02482893, 0.09188978, -0.05281855, -0.10842124, 0.12219419, 0.16842763, 0.14535888, 0.09422568, 0.0048048096, 0.14479652, 0.022750225, 0.15311003, 0.0037151237, 0.052195363, -0.04379707, -0.053741276, 0.03993514, -0.040441632, -0.040988084, 0.059952095, 0.012554265, -0.12960035, -0.0038321116, -0.04403819, -0.116344176, 0.07817334, -0.040730435, 0.027110165, -0.0726655, 0.104751244, -0.17645991, -0.14677508, -0.023759268, -0.11037246, -0.089744665, -0.12077547, 0.031803843, -0.14200668, -0.1756847, -0.01171697, 0.050743487, -0.0068104123, 0.015799928, -0.032382086, -0.21166018, 0.05560439, -0.043265507, -0.1344656, -0.15996343, -0.22973663, -0.23423274, 0.015910465, -0.13777278, -0.08974153, -0.06649219, -0.07232726, -0.06573058, 0.005168531, 0.0040811063, -0.06695763, -0.15191741, 0.012312985, -0.2500408, -0.17577931, -0.22783825, -0.0047853906, -0.13484985, -0.10771388, -0.101102844, -0.15232655, -0.0012654016, -0.08809316, -0.12561491, -0.05971422, -0.2812193, -0.0031347931, -0.27263567, -0.15374409, -0.07555481, -0.08892132, -0.2941501, -0.018365499, -0.08703763, -0.120289996, -0.08898906, -0.19487175, -0.05923985, -0.08767038, -0.024519738, -0.16263156, -0.10909462, -0.16751431, -0.021770025, -0.2773386, -0.28313613, -0.06413009, -0.121935524, -0.20113572, -0.03303926, -0.08156536, -0.15643561, -0.18534112, -0.32054985, -0.31552687, -0.2915521, -0.08594384, -0.3742257, -0.31129077, -0.45998716, -0.25721708, -0.21935539, -0.41818213, -0.29696724, -0.39119533, -0.46542996, -0.37930915, -0.4361268, -0.40212175, -0.27408406, -0.35729933, -0.23882985, -0.38761222, -0.44751358, -0.29888892, -0.2899755, -0.37610912, -0.23516719, -0.22082482, -0.19915046, -0.37197095, -0.32612953, -0.39108932, -0.29927588, -0.323519, -0.14385982, -0.32819426, -0.18864751, -0.19533697, -0.27701342, -0.30076376, -0.38999608, -0.39646548, -0.11021902, -0.124144174, -0.2834366, -0.27947286, -0.1782171, -0.13709794, -0.18055494, -0.20108497, -0.27021676, -0.35147792, -0.13956015, -0.14739667, -0.1947379, -0.26527166, -0.087830685, -0.3101828, -0.17545277, -0.0832394, -0.2827955, -0.17178647, -0.14699642, -0.28744194, -0.31244978, -0.099750206, -0.17054038, -0.06829184, -0.12435561, -0.24248762, -0.2343187, -0.10512957, -0.107922025, -0.2645331, -0.10492626, -0.072823666, -0.040067535, -0.014310452, -0.11810413, -0.15265802, -0.12992057, -0.20815843, -0.015593163, -0.24418938, -0.118215926, -0.06837285, -0.13535903, -0.019357076, -0.24732429, -0.09268987, -0.03275148, 0.006381826, -0.17062815, -0.044446733, 0.043570094, 0.017420918, 0.039420083, -0.10658761, -0.20908327, -0.23049943, -0.13520515, -0.10755785, -0.048741676, -0.1087843, -0.049512785, -0.1946208, -0.006593163, -0.08995911, -0.07213223, -0.044627283, -0.17818694, -0.18818039, -0.06136723, -0.1313422, -0.10777927, -0.023441242, -0.18706217, -0.043612752, 0.058416583, 0.018497378, -0.08746505, -0.05158357, 0.02131284, -0.064306535, -0.15631461, 0.05771743, 0.007588392, -0.02147559, 0.10982231, -0.07378612, 0.08494695, 0.09930624, -0.14687587, -0.14220148, -0.013543321, -0.049617905, -0.12351489, 0.041594107, 0.004723594, -0.11191861, 0.0017500193, 0.035537217, 0.13253368, -0.05244323, -0.11657122, 0.09871819, 0.031051068, -0.027488071, 0.01240033, -0.036351126, 0.09198681, 0.03463439, -0.07209127, 0.18795793, 0.07447244, -0.04045007, -0.033212837, 0.0057424563, -0.0101833455, -0.009467296, -0.023179483, -0.027989982, -0.069720745, 0.16667946, 0.114867665, 0.023323515, -0.01395891, 0.076174036, 0.03792482, -0.073552564, 0.15308762, -0.023467192, -0.049887266, -0.044235073, 0.060240235, 0.1858855, 0.20066077, 0.16108993, 0.17282216, 0.24175808, -0.0327587, 0.069890514, 0.05254916, 0.030015966, 0.08196209, 0.09076614, 0.22290654, 0.024601469, 0.12132353, 0.23953097, 0.18513992, 0.01842425, 0.21382028, 0.21628992, 0.06174818, 0.2707488, 0.17778376, 0.16246563, 0.2301426, 0.09387366, 0.09142455, 0.18576325, 0.17556274, 0.07860559, 0.009541943, 0.15664567, 0.22537358, 0.23295246, 0.26829606, 0.082770005, 0.147821, 0.07018893, 0.21444495, 0.15679304, 0.14935994, 0.18267164, 0.29851478, 0.06696404, 0.26729262, 0.12280489, 0.23360345, 0.08718481, 0.21142869, 0.3030031, 0.24148493, 0.25486124, 0.32094124, 0.2764379, 0.14584143, 0.043071948, 0.046909757, 0.23566505, 0.11707558, 0.08549444, 0.3341729, 0.2729431, 0.053346016, 0.17025988, 0.30666348, 0.29588306, 0.087112024, 0.12121407, 0.1256218, 0.24956344, 0.35707343, 0.11228169, -0.2585157, -0.42876205, -0.43031898, -0.41847482, -0.29580018, -0.37833712, -0.4368133, -0.3321715, -0.41701737, -0.32313612, -0.30898649, -0.4295729, -0.3391046, -0.35301974, -0.4464992, -0.340109, -0.44478187, -0.43979967, -0.422506, -0.44894782, -0.35413444, -0.19465223, -0.34170365, -0.4308139, -0.38048956, -0.40944555, -0.22675079, -0.21508099, -0.16669488, -0.21848199, -0.31313282, -0.12967947, -0.18123913, -0.37855276, -0.2920355, -0.24206053, -0.31731054, -0.30565026, -0.1901276, -0.21993968, -0.17334129, -0.20525518, -0.12614945, -0.23341411, -0.15570018, -0.21405755, -0.27003264, -0.310275, -0.27447233, -0.13820451, -0.099084966, -0.15546878, -0.16866264, -0.074622616, -0.1521427, -0.32693073, -0.048707407, -0.1498996, -0.09467546, -0.22923271, -0.06076938, -0.24277967, -0.14165427, -0.021813912, -0.24642977, -0.050074928, -0.27809456, -0.10505895, -0.26000482, -0.18605334, -0.12832665, -0.27040693, -0.14835018, -0.2484879, -0.17791004, -0.18245462, -0.27504978, -0.2504999, -0.26166418, -0.061895132, 0.023101758, -0.06217904, -0.17658584, -0.069375254, -0.06291684, 0.009410564, -0.13478543, -0.0072998884, -0.09582209, -0.1563735, -0.18868576, -0.070714794, -0.1219062, -0.025268279, 0.052706897, -0.1687486, -0.2035185, 0.014790749, -0.06360311, -0.15322542, -0.07540244, 0.075143225, -0.0043875035, 0.020880183, 0.08201179, 0.070163615, -0.1560045, -0.105191156, 0.05630566, -0.12010047, -0.09053995, -0.04128497, -0.119413145, 0.07248179, -0.10308761, -0.14673334, 0.0028747034, 0.06005204, 0.024860108, -0.0115357125, 0.011232194, 0.06671345, 0.114613004, -0.14663517, -0.047607288, 0.13825522, 0.11160936, 0.14153339, -0.05688552, -0.05422975, -0.076802455, -0.011077009, -0.020767035, 0.120454274, 0.06610439, 0.106392816, 0.10146997, -0.025844606, 0.088335134, 0.0048926002, -0.09454268, -0.076330766, -0.031338815, -0.11569308, -0.0524372, -0.061340075, 0.07456402, -0.08139218, 0.14383866, -0.027783247, 0.19403172, -0.067281745, 0.11085328, -0.09126683, 0.1409801, 0.14761528, -0.025239885, 0.16714725, 0.12943883, 0.09158686, 0.12260282, -0.048245493, 0.062492985, 0.22147113, -0.07260263, -0.05026528, 0.085413985, -0.034649473, 0.2099076, 0.20095213, -0.028767223, 0.21577132, 0.22680865, 0.14539814, 0.057224933, 0.17333055, 0.22183093, 0.06570177, 0.12734073, 0.23406745, 0.03671413, 0.023442661, 0.15616003, 0.14236887, 0.070138365, 0.14144869, 0.21050926, 0.18147273, 0.10582624, 0.04006815, 0.1295652, 0.09391847, 0.207729, 0.08460006, 0.22587617, 0.015533846, 0.14456876, 0.08358625, 0.06910669, 0.28243738, 0.2511276, 0.14639848, 0.15979315, 0.27592573, 0.017569976, 0.12942867, 0.2325824, 0.22584085, 0.08040696, 0.20333618, 0.16269137, 0.15339094, 0.02195149, 0.031714592, 0.19753039, 0.14363673, 0.27783057, 0.20889613, 0.2141816, 0.10007952, 0.092238486, 0.18992352, 0.24342977, 0.32936585, 0.16197394, 0.21651389, 0.11654037, 0.064071774, 0.28925112, 0.12999992, 0.1080635, 0.3139824, 0.1069995, 0.06351916, 0.23772141, 0.1050439, 0.18789431, 0.2354155, 0.13135429, 0.14809677, 1.1783822, 1.1539414, 1.0743679, 0.9200091, 1.0662674, 1.0243976, 1.0648544, 0.97684616, 1.0585735, 0.9340982, 1.0476007, 0.7681967, 1.0332601, 0.96094745, 0.7697226, 0.7246523, 0.8785306, 0.8710847, 0.8849618, 0.9130593, 0.8169813, 0.7245407, 0.6386696, 0.71317494, 0.6641289, 0.6126218, 0.7256967, 0.6671024, 0.54961455, 0.7785848, 0.7554096, 0.691268, 0.62940085, 0.6925554, 0.49041617, 0.71262336, 0.6910339, 0.58497477, 0.46779713, 0.5193624, 0.49429733, 0.40410984, 0.5684623, 0.604853, 0.3762511, 0.36460122, 0.54046506, 0.40689197, 0.40905336, 0.37796932, 0.509155, 0.44310588, 0.3802635, 0.50285405, 0.5454945, 0.4917794, 0.2907121, 0.35665917, 0.29713672, 0.469845, 0.4119738, 0.4785819, 0.335047, 0.31636432, 0.42338136, 0.19514534, 0.2160617, 0.38736594, 0.2255197, 0.43799436, 0.42614058, 0.18425451, 0.20419757, 0.3545444, 0.1449925, 0.40094414, 0.10924544, 0.27296513, 0.19262326, 0.16528289, 0.12515901, 0.2751321, 0.18290968, 0.2156923, 0.20576794, 0.1511106, 0.19658966, 0.07555978, 0.09675245, 0.10160796, 0.045063987, 0.13160111, 0.15056433, 0.18209112, 0.01249297, 0.11353952, 0.20261626, 0.18954234, 0.07457524, 0.20418224, 0.060963623, 0.25109106, 0.037888505, 0.14577286, 0.11142781, 0.14102818, 0.15818849, 0.18131618, -0.06352405, 0.16783035, -0.024677364, 0.11873177, 0.060865924, 0.010721473, -0.09332633, -0.06488927, 0.037290927, 0.13045675, 0.022416336, 0.07973215, -0.0063066348, 0.0077478085, -0.0003628212, 0.021275118, 0.039139513, -0.074597366, -0.1197118, -0.022881133, 0.063041516, 0.111608736, -0.04062109, -0.054045767, 0.02284443, -0.082791835, -0.018256566, 0.02906887, -0.14121893, 0.093801074, 0.09784815, -0.097981215, -0.10767442, -0.057299282, -0.03780342, 0.017332396, -0.15089118, -0.04562288, -0.20076783, -0.091727845, -0.14492689, -0.22380255, 0.046378136, -0.14819166, -0.016997024, -0.1762097, 0.00014846842, -0.17745316, -0.018908003, -0.18915853, -0.05085177, -0.15609613, -0.14126234, -0.16083695, 0.021207253, -0.055473577, -0.2720756, -0.10425735, -0.11278225, -0.022976423, -0.2059595, -0.14216627, -0.19987433, -0.065280594, -0.013137101, -0.26900405, -0.2573627, -0.13752888, -0.23404461, -0.04252274, -0.13986447, -0.15725616, -0.2456056, -0.274385, -0.307406, -0.08963096, -0.2761062, -0.3331084, -0.27828112, -0.15540324, -0.20727883, -0.29837462, -0.28223866, -0.08043406, -0.26602387, -0.20454696, -0.3108537, -0.34515828, -0.15103048, -0.15010019, -0.15783574, -0.26980942, -0.22556786, -0.3629948, -0.1748995, -0.23580047, -0.1920941, -0.09519232, -0.15701966, -0.33547467, -0.0937146, -0.3635197, -0.21986522, -0.21373574, -0.33400387, -0.33949748, -0.285608, -0.17006077, -0.34809715, -0.13054407, -0.25391725, -0.30585897, -0.15200406, -0.2282493, -0.34935635, -0.23627126, -0.3163874, -0.21512698, -0.16573426, -0.35586342, -0.38450333, -0.38439167, -0.19190809, -0.39024794, -0.26010442, -0.4079229, -0.23846321, -0.20323187, -0.17969334, -0.218096, -0.3321034, -0.23824066, -0.40726367, -0.28378904, -0.22851923, -0.42649236, -0.3989412, -0.21235196, -0.2923884, -0.46652436, -0.48269168, -0.3864365, -0.27719906, -0.35131577, -0.3661298, -0.47180885, -0.22182572, -0.26522177, -0.1955006, -0.17383741, -0.21237732, -0.45311496, -0.20473675, -0.45028552, -0.43140528, -0.27642244, -0.36276338, -0.20896675, -0.18558207, -0.13985516, -0.1423329, -0.23169912, -0.31982428, -0.2712617, -0.28951526, -0.15543932, -0.3844391, -0.38303843, -0.17891598, -0.38532823, -0.15253538, -0.2792333, -0.3804108, -0.3305993, -0.2223053, -0.15285657, -0.119801305, -0.24980669, -0.31715536, -0.18142146, -0.3547835, -0.20270853, -0.17364381, -0.25299647, -0.18466206, -0.08422781, -0.20892611, -0.32305548, -0.14782369, -0.24790871, -0.0885003, -0.18488365, -0.083567485, -0.18563533, -0.13912606, -0.27638772, -0.042233232, -0.12425301, -0.06769927, -0.2585596, -0.182868, -0.22379765, -0.09744241, -0.08130585, -0.037311923, -0.1608171, -0.1139571, -0.09692756, -0.27796823, -0.209943, -0.13581318, 0.004455465, -0.17340635, 0.00014002767, -0.07365266, -0.25725386, -0.001277316, -0.15219817, -0.11349125, -0.1731636, -0.114395164, 0.038142268, 0.019568866, -0.063237354, 0.010012409, -0.038917057, -0.22806866, -0.108016625, -0.20495681, -0.17445657, -0.08730845, -0.025525082, 0.046544313, -0.12129505, -0.025411597, -0.124034524, -0.17783175, 0.021847123, -0.10116274, -0.14677837, -0.015543388, -0.0810152, 0.04940981, -0.05707828, 0.09780658, -0.07759555, -0.15269256, 0.06899312, -0.028492698, 0.098534755, -0.146877, -0.017627804, 0.044386167, 0.11191392, 0.11567402, -0.10462781, 0.060801223, -0.13109502, 0.025892476, 0.07386492, 0.13246569, 0.10374887, -0.006241395, 0.05596848, -0.086996146, 0.1193359, 0.10804099, 0.12802058, -0.10640428, -0.09279532, -0.1162243, 0.15106486, -0.0069205663, -0.09858471, 0.16882911, -0.044444863, 0.0718619, 0.0102972, 0.056121327, 0.17404142, 0.15993185, 0.15697639, 0.0908944, 0.12333905, 0.1512625, -0.055862132, 0.035002925, -0.041411545, 0.13602263, 0.063481145, -0.08896872, -0.08639705, 0.19596401, 0.021010987, 0.048924647, -0.054021172, 0.21042202, 0.20998377, 0.18318819, -0.052187406, 0.17527123, -0.013204435, -0.03399842, 0.12893249, 0.13870648, 0.19647762, 0.06341162, 0.0065111034, 0.1950949, 0.16336535, -0.016667636, 0.08771366, -0.0028312497, 0.08286107, 0.029814258, 0.20440924, 0.15264383, 0.17630014, 0.032250628, 0.08252169, 0.244522, 0.0046606525, 0.10592135, 0.022696286, 0.22623233, -0.00025564083, -0.011735039, 0.26402873, 0.13859041, 0.05057446, 0.27176696, 0.20338157, 0.014903903, 0.24589325, 0.059246656, 0.0060573285, 0.28136006, 0.24051458, 0.026190905, 0.22555839, 0.16468753, 0.16306561, 0.044906534, 0.1254323, 0.20045677, 0.055154204, 0.052211832, 0.07193596, 0.028153762, 0.14941289, 0.036621705, 0.24280334, 0.32014996, 0.13003841, 0.2250394, 0.18997078, 0.114168726, 0.19051132, 0.27738023, 0.17447531, 0.06535578, 0.2149932, 0.0824217, 0.06575313, 0.28066543, 0.13211966, 0.23885496, 0.2631729, 0.1419196, 0.18812227, 0.088447325, 0.2605185, -0.29994065, -0.50971067, -0.2793598, -0.2718445, -0.41245764, -0.45039088, -0.20897283, -0.46851003, -0.38186046, -0.28178748, -0.4453051, -0.2644199, -0.33237526, -0.25583136, -0.38268295, -0.32604712, -0.32887527, -0.22366375, -0.43496788, -0.3816189, -0.44261104, -0.2933914, -0.257698, -0.1738275, -0.31060624, -0.34406742, -0.33516094, -0.35669208, -0.4237056, -0.34047353, -0.3090424, -0.2834871, -0.35768983, -0.16435541, -0.2091238, -0.22116588, -0.18521397, -0.20631242, -0.30601954, -0.14471741, -0.33941007, -0.27833924, -0.26208302, -0.31952003, -0.08152244, -0.19761485, -0.25364193, -0.097389445, -0.14618842, -0.11902607, -0.3093079, -0.1995318, -0.21080656, -0.12326336, -0.09841962, -0.17068385, -0.09548117, -0.09397097, -0.32789272, -0.17234428, -0.23835792, -0.080365814, -0.20543103, -0.25608945, -0.1660893, -0.092691526, -0.26664835, -0.020151448, -0.06995656, -0.03140081, -0.23092142, -0.29243168, -0.26326564, -0.27637005, -0.1751792, -0.23337159, -0.2515996, -0.044717893, -0.022020683, -0.12256296, -0.25096434, -0.005568352, -0.19980037, -0.17316826, -0.21028076, -0.22640474, -0.2431202, -0.033813227, 0.033151112, -0.049641714, -0.17343816, -0.10388074, -0.14728744, -0.030660018, 0.03121095, -0.06427636, -0.10838935, 0.019787813, 0.028253848, -0.15581676, 0.058103427, -0.04866332, 0.04796088, -0.07343787, -0.09904328, 0.08257846, 0.07565542, -0.054189548, 0.055156074, -0.04275416, 0.05877171, -0.0038656627, -0.14929618, -0.089796804, 0.032690424, -0.13593553, 0.015215418, 0.10168352, 0.044499215, 0.05768497, -0.07681878, -0.15923123, 0.08710989, -0.034892417, 0.12790152, 0.116278395, 0.10324744, -0.1541823, -0.02729746, -0.111595236, -0.03855258, 0.042073578, 0.034183487, -0.123954706, 0.0771556, -0.042520862, -0.08631908, -0.12265046, -0.008520896, -0.0007974925, 0.13846001, -0.017396094, 0.153106, 0.025197258, 0.0065558916, 0.028603323, -0.070241526, -0.0511588, -0.041356444, -0.09357873, 0.12882799, 0.0933068, 0.105079524, -0.08506178, 0.07215919, 0.048051734, 0.033036165, 0.1574387, -0.037079472, 0.1695237, 0.13782583, 0.01951119, 0.15032105, 0.03160397, 0.10395447, 0.11513157, 0.08568923, 0.20701535, 0.011748152, 0.12458249, 0.22528102, -0.04249494, 0.10560213, 0.101787135, -0.05906274, 0.15534279, 0.21377926, -0.025911437, 0.18505971, 0.10096635, 0.1904814, 0.19476014, -0.03682186, 0.21409644, 0.011217463, 0.25478342, 0.08100273, 0.19965631, 0.10402991, 0.22717518, 0.09202731, 0.04200279, 0.24318837, 0.032718603, 0.2318724, 0.2382686, 0.26198438, 0.035559505, 0.09469499, 0.021359049, 0.11638208, 0.1524293, 0.1049218, 0.27802885, 0.21958293, 0.19555971, 0.22062549, 0.10412816, 0.07424717, 0.05980061, 0.24600975, 0.15358652, 0.19519974, 0.2335713, 0.20017946, 0.07456889, 0.10362656, 0.31090963, 0.1739548, 0.15261184, 0.2403098, 0.2790686, 0.16725995, 0.035471763, 0.15871717, 0.07690633, 0.15737309, 0.11043015, 0.049162358, 0.21644603, 0.20315312, 0.09444222, 0.14598583, 0.16955255, 0.06711992, 0.076912105, 0.32307938, 0.21587482, 0.22894582, 0.35268, -0.48645222, -0.27259883, -0.47482795, -0.46292716, -0.28986022, -0.4869383, -0.28164017, -0.240086, -0.35529074, -0.4410848, -0.3510431, -0.42534226, -0.28002268, -0.44308454, -0.21046574, -0.36159074, -0.31697366, -0.32805508, -0.38607168, -0.42607817, -0.24154007, -0.24624628, -0.25240973, -0.34035093, -0.36819306, -0.20422931, -0.2671941, -0.27940997, -0.15197796, -0.32422888, -0.28530717, -0.24618042, -0.14362393, -0.2560818, -0.19020927, -0.12874763, -0.112437315, -0.20376776, -0.22743805, -0.36854663, -0.08330041, -0.27970982, -0.09983707, -0.34415272, -0.19046296, -0.23513229, -0.314835, -0.28251258, -0.34232035, -0.23481783, -0.23106316, -0.1168671, -0.33448976, -0.32174236, -0.0894199, -0.31333134, -0.10774296, -0.23097788, -0.2951329, -0.037836667, -0.22339647, -0.23638348, -0.10408063, -0.17015433, -0.054085713, -0.08377626, -0.20224921, -0.027479399, -0.16946028, -0.12888762, -0.040065777, -0.27084687, -0.1994959, -0.17220128, -0.05645664, -0.02021196, -0.24926537, -0.2406943, -0.19571996, -0.14224148, -0.16974624, -0.017190969, -0.24697423, -0.21956383, -0.0786973, -0.09024819, -0.16684419, -0.175875, -0.20829555, -0.018937979, 0.04429587, -0.085123435, -0.22969207, -0.22097111, -0.11464444, -0.004418218, -0.20903717, -0.030514626, 0.04562277, -0.01104082, -0.2078279, 0.0193488, -0.20712203, -0.19599353, -0.11549985, 0.028937995, -0.12654518, -0.18698347, -0.070884824, -0.18495332, -0.08952582, -0.05849559, -0.113630176, 0.109813735, -0.09281901, -0.12090966, -0.041419167, -0.090936095, -0.070179574, -0.116047814, 0.07521233, -0.09734074, 0.1164171, 0.0256801, 0.0603296, -0.094779514, 0.14681458, 0.11280252, -0.12337232, -0.13762777, -0.10963218, 0.019131437, -0.112853974, -0.030200005, 0.046393648, 0.05435237, -0.07528551, -0.027229862, 0.08042268, -0.10506863, 0.062122766, 0.07409554, 0.1047452, 0.0750714, 0.04503999, -0.016824821, -0.047133017, 0.17777367, 0.13652551, 0.13097394, 0.1348073, 0.14418605, -0.01627308, 0.059255566, 0.10809893, 0.043826774, 0.11299316, 0.19915721, 0.1455504, 0.09787905, -0.011611353, 0.20831591, 0.10344694, -0.03733131, -0.054802693, 0.13578866, 0.22617473, -0.013653923, 0.22181563, -0.044609442, 0.09900022, 0.079139225, 0.10462639, 0.07458426, 0.19065358, 0.13545443, 0.017875405, 0.035364147, 0.24255738, 0.2455802, 0.20360284, 0.22514978, 0.16557248, 0.15133347, 0.13686664, 0.031970978, 0.0047721076, 0.1382512, 0.060880385, -0.0070222104, 0.024053177, 0.2260106, 0.049221277, 0.072846845, 0.13616863, 0.2028265, 0.20167871, 0.13900454, 0.20201029, 0.06175167, 0.27606472, 0.17857568, 0.09614029, 0.22749178, 0.17329183, 0.21301246, 0.017197989, 0.23445998, 0.08196056, 0.15209627, 0.13416235, 0.17557858, 0.08433767, 0.030764926, 0.21635446, 0.16357444, 0.038653526, 0.09405328, 0.039994475, 0.2094396, 0.0543493, 0.13770816, 0.14588276, 0.20125239, 0.12865256, 0.26189026, 0.16273609, 0.19736113, 0.2852821, 0.33321697, 0.22794354, 0.31497115, 0.34469655, 0.31030753, 0.3061884, 0.34838805, 0.3414298, 0.105600126, 0.26219127, 0.30268416, -0.35423014, -0.26747218, -0.42639753, -0.4226784, -0.3335111, -0.37274912, -0.47436997, -0.4251537, -0.3633821, -0.4772374, -0.28668126, -0.42834774, -0.3835226, -0.21675682, -0.25022203, -0.2619822, -0.24340011, -0.33123705, -0.44336864, -0.34358802, -0.27131882, -0.35084304, -0.27930242, -0.3646962, -0.4350627, -0.20601667, -0.26635668, -0.14058234, -0.18193038, -0.17939146, -0.39037105, -0.36413434, -0.2170454, -0.15583785, -0.32522082, -0.25998417, -0.17283842, -0.13213436, -0.28520548, -0.1857778, -0.31895477, -0.17069933, -0.27414346, -0.19212383, -0.15638039, -0.13366894, -0.123808, -0.1813515, -0.23727764, -0.16670674, -0.06786677, -0.1348327, -0.20471463, -0.22443368, -0.052287865, -0.23550248, -0.08498533, -0.30130696, -0.18286547, -0.26389554, -0.10113009, -0.18882635, -0.29560554, -0.09015465, -0.20285402, -0.28559446, -0.18529998, -0.27487946, -0.26726007, -0.28093594, -0.29118258, -0.18167861, -0.057187214, -0.13094941, -0.25813743, -0.11550956, -0.020715933, -0.19930443, -0.06836637, -0.028066752, -0.086627, -0.18326457, 0.00566133, -0.067382485, -0.0480152, 0.026420724, -0.10714842, -0.100391455, -0.03956059, -0.1773195, -0.14348319, 0.0065472014, -0.032490995, -0.013758226, -0.21153302, -0.025739757, -0.14445843, 0.05209198, -0.17354707, 0.009471604, 0.024204988, -0.04822904, -0.13453323, -0.03101479, 0.023643414, -0.019557128, -0.012103949, -0.0004609637, 0.05249116, 0.0782872, -0.17024307, 0.04905938, -0.17308693, -0.012340626, -0.10630091, 0.0049069733, -0.09109704, -0.066982694, -0.1414274, -0.04171174, 0.101233706, 0.09241444, 0.123274125, 0.09720309, 0.010028873, -0.02741227, 0.096589245, -0.09618838, 0.030249862, 0.13024075, 0.05810493, 0.11442576, 0.086661965, -0.1468982, -0.115458295, 0.091376126, -0.0464856, -0.118406594, 0.07963187, -0.078215055, 0.15519287, 0.16337265, -0.119852185, 0.059274424, 0.0021902448, 0.14504156, 0.047534913, -0.053606834, 0.07850285, 0.013158292, -0.010151975, -0.045219023, -0.05816864, 0.033169404, -0.035111345, -0.081456915, -0.03939823, 0.14125824, 0.20037903, 0.13355286, -0.07810588, 0.13920528, -0.04149492, 0.18143168, 0.11211319, 0.004221928, 0.21040031, 0.0671717, 0.12715024, -0.005742137, 0.107926406, 0.054629598, 0.08145944, 0.20677902, 0.14380604, 0.23117338, 0.12435372, 0.14208071, 0.020379215, 0.18986982, 0.008398096, 0.036305103, 0.2063937, 0.17773397, 0.15085721, 0.024684638, 0.23696466, 0.105057, 0.045526706, 0.035218935, 0.028809385, 0.013217071, 0.03102574, 0.23077291, 0.0055186357, 0.24733475, 0.10348603, 0.04791463, 0.16668521, 0.23924369, 0.135761, -0.0060828915, 0.004565572, 0.079307966, 0.078683466, 0.0042423843, 0.14302637, 0.26438907, 0.18695125, 0.16003208, 0.11676392, 0.17479163, 0.12425511, 0.073223546, 0.2515499, 0.2449166, 0.05092845, 0.29964313, 0.30734643, 0.2919727, 0.15465581, 0.08478731, 0.028390087, 0.12883991, 0.07829284, 0.11228258, 0.27529138, 0.111059405, 0.13602571, 0.15318432, 0.17026009, 0.24554661, 0.28547254, 0.25757772, 0.08473552, 0.0780797, 0.21447408, 0.1267296, 0.119433984, 0.3466288, 1.305913, 1.4069442, 1.2688092, 1.1631963, 1.332637, 1.1652855, 1.2675058, 1.1418185, 1.2433939, 1.0564193, 1.0481807, 1.0203425, 1.1938719, 1.0297698, 1.0433521, 0.9188587, 1.0932257, 1.0359144, 0.9250334, 0.8975387, 0.8860043, 0.8722955, 1.0593991, 0.9448559, 0.7912749, 0.8012998, 1.0028622, 0.8664098, 0.823618, 0.8032475, 0.6957588, 0.720627, 0.9132197, 0.87085533, 0.77663064, 0.6206498, 0.817227, 0.70052475, 0.81733924, 0.6082524, 0.8197083, 0.53502154, 0.60268724, 0.5676777, 0.67928064, 0.78335905, 0.72501254, 0.5654778, 0.65825063, 0.48246032, 0.60489535, 0.45597756, 0.4887252, 0.6775794, 0.6114871, 0.49908805, 0.49153736, 0.46608916, 0.65229946, 0.35889164, 0.58018947, 0.42204055, 0.49281695, 0.35059264, 0.53484064, 0.58583534, 0.3474525, 0.36838508, 0.2896201, 0.27162308, 0.37937954, 0.4751319, 0.40701634, 0.4602684, 0.32621035, 0.29036182, 0.32421368, 0.38485053, 0.37566918, 0.46419242, 0.34174696, 0.2312446, 0.44732475, 0.31079513, 0.4160561, 0.18293297, 0.24177419, 0.36857423, 0.22923388, 0.30201027, 0.25325865, 0.23204792, 0.19971603, 0.34681898, 0.1733333, 0.3872769, 0.27887142, 0.30838433, 0.13529454, 0.35021707, 0.30221435, 0.09626751, 0.1530395, 0.24450062, 0.06201293, 0.16514245, 0.21669647, 0.038460225, 0.10301467, 0.26403484, 0.07894514, 0.048261143, 0.20283404, 0.25615042, 0.12938406, 0.1366235, 0.21425678, 0.08779986, 0.16361934, 0.20724468, 0.12943634, -0.020405667, 0.19761953, 0.049337167, 0.15029131, 0.028283393, 0.16705292, 0.03930594, -0.0420328, -0.0072382363, 0.1934055, -0.02374939, -0.048889667, 0.18817052, -0.071733445, -0.0375312, -0.06153244, 0.05538312, 0.17633052, -0.008983548, 0.0045288913, -0.1265843, -0.08552842, 0.13873814, 0.089456186, -0.1283691, -0.11867442, -0.10624126, 0.078791775, -0.14381415, -0.08218977, -0.114892386, 0.041619733, -0.14221409, -0.1062286, -0.045904864, -0.11503718, 0.048388157, -0.059946828, 0.097495385, -0.019164301, 0.06717655, 0.009888312, -0.08656504, 0.040426373, 0.006504622, 0.033600792, -0.040371645, -0.11360303, -0.06963, -0.118732624, -0.23569071, -0.115509674, -0.10143599, -0.05681563, -0.12041051, -0.24107815, -0.08011781, -0.08470623, 0.011515069, -0.16636981, -0.04498096, -0.22833522, -0.27493927, -0.19525568, -0.07724589, -0.28066438, -0.26556227, -0.19868407, -0.25212935, -0.07891247, -0.15894678, -0.024447238, -0.2173598, -0.290871, -0.28629753, -0.21868072, -0.27484995, -0.05882134, -0.12972665, -0.08644216, -0.20640017, -0.14138281, -0.13812906, -0.17401648, -0.09822441, -0.3195118, -0.14540216, -0.2503176, -0.054181255, -0.092680976, -0.06584847, -0.08287166, -0.11471614, -0.2820868, -0.14089018, -0.1577615, -0.0734254, -0.25632226, -0.29960606, -0.22479424, -0.35347897, -0.17341332, -0.12204598, -0.15466224, -0.24042709, -0.21737024, -0.37266704, -0.3555649, -0.18185896, -0.38067478, -0.19276066, -0.23813026, -0.17107636, -0.1437166, -0.13614362, -0.38990057, -0.35794166, -0.19691028, -0.30568328, -0.40487456, -0.3362652, -0.28759316, -0.50813586, -0.32167146, -0.23217249, -0.3425719, -0.40865675, -0.31863895, -0.4158248, -0.20805433, -0.4693555, -0.2502897, -0.28855363, -0.4232101, -0.21381633, -0.46387523, -0.45860133, -0.1922298, -0.30598462, -0.39723867, -0.24958579, -0.26943803, -0.25772944, -0.32916486, -0.35887602, -0.37503377, -0.41690728, -0.26824626, -0.40262067, -0.19795696, -0.15717639, -0.2180714, -0.11857517, -0.14864582, -0.25409272, -0.3549968, -0.35011876, -0.11665216, -0.14821346, -0.09849052, -0.16590075, -0.15870917, -0.23201181, -0.19619854, -0.13512743, -0.17810917, -0.3544028, -0.349887, -0.27212828, -0.2314868, -0.3167903, -0.12455165, -0.30753252, -0.21512318, -0.25014725, -0.06303435, -0.30216333, -0.10660328, -0.3182834, -0.31296498, -0.037907973, -0.17203419, -0.24790047, -0.119974665, -0.05005055, -0.14529027, -0.10756255, -0.061492443, -0.29452354, -0.18785547, -0.0141660515, -0.106845655, -0.16638122, -0.07870637, -0.24229822, 0.010529943, -0.2816274, -0.043402135, -0.18937331, -0.08153242, -0.115761116, -0.106426485, -0.15154175, -0.0065786806, 0.0150360465, -0.04590572, -0.1410916, -0.010451417, -0.1342853, -0.05862406, -0.11906364, -0.19406934, -0.13696265, 0.05150607, -0.03783277, -0.08809171, 0.014052595, -0.011241067, -0.08234823, -0.085547924, -0.062782004, -0.0645545, -0.19901338, -0.08928477, -0.036353238, -0.1613176, -0.18765613, -0.1224298, -0.053039655, -0.077844255, -0.18996282, -0.10063007, 0.10319771, -0.009547404, -0.1135238, 0.10297614, -0.123257965, -0.15758565, -0.14703359, 0.041858766, -0.059966795, 0.032402273, -0.03446567, -0.024986092, -0.05487062, -0.15192592, -0.12252242, 0.06382878, 0.14048468, -0.059845172, -0.046985418, 0.020878479, -0.015577895, 0.03669293, -0.08626979, 0.097115606, -0.0567497, 0.10858282, -0.018701177, -0.057473477, -0.025044655, 0.041189868, -0.051846754, 0.11571114, 0.026036605, 0.1708014, 0.08053992, 0.17231944, -0.023540355, 0.006488045, 0.1644933, 0.19575746, 0.0007655599, 0.121817596, 0.08985699, 0.09045302, -0.01170074, 0.18892632, -0.051858336, 0.08476297, 0.080165714, 0.20805603, 0.06434386, 0.11970314, 0.0306623, 0.049523145, -0.04428198, -0.0057244496, -0.060582966, 0.16147491, 0.11716202, 0.03607864, -0.027282966, 0.011805831, 0.22039035, 0.053171474, -0.012609826, 0.23851965, -0.010791249, 0.069336295, 0.21004212, 0.2430593, 0.15597583, 0.0065726577, 0.17419691, 0.022988427, 0.13419893, -0.017068768, 0.14417121, 0.115675464, 0.16802493, 0.10780492, 0.12322577, 0.05271451, 0.07816245, 0.24433424, 0.22516379, 0.19413228, 0.251758, 0.29247406, 0.08318489, 0.07769887, 0.0048291674, 0.21618457, 0.195243, 0.09016433, 0.18803674, 0.19142252, 0.2420174, 0.31227338, 0.088876106, 0.29154724, 0.17769276, 0.2612804, 0.17894559, 0.076583005, 0.08354589, 0.1486591, 0.28417632, 0.112634234, 0.109466106, 0.11023127, 0.21611877, 0.21824977, 0.32263547, 0.073134825, 0.104633, 0.11662831, 0.14739391, 0.20634899, 0.32470623, 0.17712457, 0.18558483, 0.23134325, 0.32253268, 0.06422067, 0.2537009, 0.30441454, 0.3004497}; //layer 1 weights
float layer1Biases[] = {1.4733645, 1.472528, 1.4490052, -1.4551609, -1.5176426, 1.5053275, -1.5852187, -1.4635738, -1.5607173, 1.4627968, -1.5185772, 1.4904164, 1.4439104, -1.5254205, 1.4288292, 1.4205515, -1.4916267, 1.4786663, -1.2536031, 1.4645041, -1.3962544, -1.1027479, -0.8725276, 1.4758674, 1.5027137, -0.97510165, 1.4837496, 1.5135914, 1.498289, 1.4660122, -1.0370796, 1.5007818}; //layer 1 biases
