#include<math.h>
#include<time.h>
#include<stdio.h>

float layer1Weights[] = {-0.018403193, -0.17534594, -0.11802906, -0.28421992, -0.42737216, 0.110448346, -0.2665434, 0.37567642, 0.037832286, -0.24271157, -0.51728266, 0.3467228, -0.12057087, 0.08145996, -0.10574851, 0.11194909, 0.6015131, 0.0131653445, -0.009196975, -0.15376122, -0.012762115, -0.028973516, -0.31836563, -0.036383398, 0.40886453, -0.30408952, -0.07395039, 0.015592317, -0.036493205, -0.65991, 0.20915122, -0.0996087, -0.67594415, -0.1972783, 0.2716543, -0.009766376, 0.122395664, 0.15308742, 0.36165795, 0.050410237, -0.19422007, -0.32084006, -0.21003512, 0.13983352, -0.0062571, -0.2209778, -0.15112521, 0.21767548, -0.16993707, 0.03683399, -0.26597425, -0.32690623, -0.32085115, -0.41941983, 0.21281883, -0.45185703, 0.5503987, -0.0030395144, 0.37959483, 0.2575503, -0.17892477, 0.3853682, 0.59484404, 0.19006614, 0.08580255, -0.674953, 0.32168707, -0.066113956, 0.44825864, -0.012465456, -0.15637876, 0.2241413, 0.23575543, 0.19387475, -0.1881604, -0.45580214, 0.1497565, -0.44696406, -0.6028668, 0.459415, 0.36653653, -0.37184247, -0.1936735, 0.18648037, -0.17652059, 0.4749141, 0.5058021, 0.47386017, -0.40683106, 0.22025743, -0.32969472, -0.16965249, -0.2319673, 0.044879444, -0.054165453, -0.18595998, -0.24663945, 0.15175112, 0.10962291, 0.39652494, 0.23918697, -0.44760767, -0.15623009, -0.15098725, 0.24517749, -0.2387761, 0.6128484, 0.3897007, -0.013906832, 0.11435594, -0.3442783, 0.15411544, -0.27593935, -0.40640256, 0.36169717, 0.097525455, -0.33559972, 0.24459055, 0.25985, 0.058264673, -0.25336733, -0.076358914, 0.27796224, -0.06756783, 0.04054252, 0.3961132, -0.19144674, -0.22218214, 0.13380796, -0.014231788, 0.33970204, -0.16665725, -0.3032953, 0.046237454, 0.076379955, -0.40380841, 0.021064859, 0.39634016, -0.18953851, 0.014623506}; //layer 1 weights
float layer1Biases[] = {0.02987906, -0.026137168, 0.016795024, 0.0075874096, 0.021278195, 0.02139891, -0.16350022, 0.019251818, -0.10346222, 0.026600733, -0.0837276, 0.0088130245, -0.0100016035, 0.025340332}; //layer 1 biases
float layer2Weights[] = {0.085583776, -0.0156665, -0.27170452, 0.48830476, 0.14343865, -0.43780282, 0.34885374, 0.27518773, -0.37811676, -0.032704916, -0.051099684, -0.704746, 0.36655393, 0.12540077, 0.029468626, -0.028992929, 0.6358915, -0.31755343, 0.26254463, -0.2269544, -0.1527218, -0.06886478, -0.48681965, -0.11874541, 0.0035869733, 0.40133613, 0.053404294, -0.26144755, 0.029084884, 0.19704962, 0.01917691, 0.58752877, -0.5028709, -0.27258107, -0.29827288, -0.030471385, 0.3904535, 0.10755636, -0.061407167, 0.29144356, 0.3194317, 0.47312257, -0.7100965, -0.4256593, 0.33444887, -0.6931895, 0.19721942, 0.329015, 0.032161422, 0.3792686, -0.040123574, 0.06661196, -0.16075017, 0.026904956, -0.24629004, 0.508748, 0.089416385, -0.36781132, 0.40872353, 0.08511182, 0.15099804, 0.32378983, -0.40840566, 0.48671955, 0.0057579484, -0.29588142, 0.09642365, 0.11073171, 0.030988758, 0.18564318, 0.52139646, 0.28010356, -0.26235327, 0.43856946, -0.40833795, -0.030678973, -0.37607014, 0.60340875, 0.2858503, 0.044167444, -0.031488437, -0.111203775, 0.097411625, -0.06773656, 0.41437382, 0.29242566, 0.53777015, 0.4563481, -0.13032497, -0.16858631, 0.5303834, 0.15764911, -0.42693406, 0.5305589, -0.104019366, -0.31090963, 0.042084113, 0.3813094, 0.08571563, -0.22758372, 0.5853304, 0.41768244, 0.32523382, 0.115700394, 0.08312152, -0.21865235, -0.6447341, 0.2315185, -0.5448591, 0.18894812, -0.29021335, 0.42593879, -0.049546532, 0.049940944, 0.32193613, -0.29493, -0.40387505, 0.4582822, 0.11458891, 0.14011261, -0.13461857, -0.44314322, 0.123525724, -0.04086172, -0.52031964, 0.28492582, 0.51785797, -0.3966828, -0.21227397, 0.37651214, 0.078475036, -0.21883902, 0.006939545, -0.18165502, -0.13658461, -0.3198425, -0.054316625, -0.06446668, 0.18696018, 0.23178145}; //layer 2 weights
float layer2Biases[] = {0.019537132, -0.029204857, -0.010516985, 0.0032503891, 0.028408343, 0.016073998, -0.05224335, 0.03166208, -0.08401022, 0.00560741, -0.017419204, 0.0059023728, -0.00070780213, -0.014337508}; //layer 2 biases
float layer3Weights[] = {0.007080876, 0.100505956, 0.36836743, 0.039947256, 0.40707347, 0.087461546, -0.3735026, 0.18729226, 0.50613165, 0.053499907, -0.38516802, -0.14926976, -0.15556794, 0.638539, -0.11535638, 0.10409419, 0.39330554, 0.1821597, 0.703428, -0.4876824, -0.29716402, 0.03293434, -0.310387, 0.03493081, 0.14993899, -0.36708802, 0.007433241, 0.06334084, -0.30542085, 0.25610214, -0.090424284, -0.61892074, 0.17988916, -0.29980257, 0.5230006, 0.0777868, 0.37126434, -0.4634676, -0.1032703, -0.2129668, -0.17521046, 0.5833985, -0.30072078, 0.36493886, 0.080047086, -0.44436708, 0.060610935, -0.10843648, -0.16850226, -0.18831143, 0.1292991, 0.23856051, -0.43057892, 0.03389611, 0.5092386, 0.024721287, 0.36905345, 0.2572374, -0.012958624, 0.38777572, -0.14916293, 0.18288727, -0.6295035, 0.064451806, -0.20001656, -0.25353152, -0.027586784, -0.150169, -0.45482475, 0.7089479, -0.09732276, 0.07857252, 0.18370132, -0.3144417, -0.084760725, 0.32519016, -0.17254893, 0.29171452, -0.19992892, -0.13867079, 0.25506353, 0.0150561975, 0.16965023, -0.23099364, -0.03194033, 0.18739766, 0.10048452, 0.12908968, -0.18100308, -0.29347128, -0.13193472, -0.21825214, 0.26212505, -0.2484716, 0.42942846, 0.35065264, 0.49125287, 0.15599647, -0.3389329, -0.5266369, 0.4125127, 0.18197103, 0.07084525, 0.038018353, -0.67887694, 0.39395565, -0.26551583, 0.1693638, -0.10076418, -0.28071737, 0.08525919, -0.12744276, 0.111992136, 0.37629417, -0.46721628, 0.052028447, -0.42791963, 0.22082917, -0.08345184, -0.13329372, 0.48366937, 0.42777798, -0.3052617, -0.53285384, -0.2018434, 0.35677552, -0.21375956, 0.5370051, 0.43605912, -0.2058951, 0.53301585, 0.08975994, 0.24914677, 0.2802765, 0.03926632, 0.19781408, 0.15390143, -0.28533393, -0.6187956, 0.219273}; //layer 3 weights
float layer3Biases[] = {0.01252588, 0.0031243062, -0.0015249052, 0.0029246677, -0.0033513857, 0.0029399896, 0.019368634, -0.001255313, -0.01648291, 0.0041777915, 0.0034258724, -0.0031501076, 0.00051571464, -0.016782017}; //layer 3 biases
float layer4Weights[] = {0.28300977, -0.24935652, -0.26593497, -0.32218942, 0.08993176, 0.5598637, -0.59252506, -0.30950657, 0.524942, 0.08541523, -0.13387485, -0.35911635, 0.36507988, -0.053781904, 0.10091722, 0.23389302, -0.086073905, -0.023981456, 0.07212506, 0.20989066, -0.27754885, 0.27462918, 0.6716319, -0.2366479, -0.23547608, -0.20783895, -0.036215615, 0.2071079, 0.1388626, -0.4122823, -0.54556584, -0.015394681, 0.5339354, -0.19268681, 0.2075025, -0.5578361, -0.22563948, 0.7119731, -0.27633345, 0.113231964, -0.31561887, 0.5219025, -0.1426256, -0.22053689, -0.06084824, 0.06668642, -0.20349725, 0.2807268, -0.1802472, -0.014421794, -0.16714881, 0.15449803, -0.18407844, -0.5764341, -0.349457, -0.541939, 0.03801638, -0.23227851, 0.61794615, 0.13068046, 0.10171359, 0.5205744, 0.028308257, -0.04884694, 0.4742159, -0.42249936, 0.28442395, -0.36279166, -0.27364638, -0.087631024, 0.3399082, -0.43860495, -0.08139429, 0.0030693854, 0.08252933, 0.6668872, 0.28193894, -0.4242702, -0.28598428, 0.16430621, 0.079175204, -0.15382293, -0.54464823, -0.22328907, -0.031760316, 0.08890264, -0.6653719, -0.24394192, -0.12515657, -0.06258708, 0.14187475, 0.4591293, -0.6643258, 0.010895087, -0.4423708, -0.39891753, 0.50297755, -0.31957373, 0.36191618, -0.3985446, -0.1163639, -0.050383676, 0.46860486, 0.008165941, -0.04270028, 0.5088185, 0.5238007, 0.35714594, 0.3760245, -0.26477548, 0.35965806, -0.4173762, 0.17745213, -0.1397151, -0.08501731, -0.09382968, -0.30187374, -0.13744219, 0.019251088, 0.039543837, -0.4864031, 0.36009088, 0.29535127, 0.5773682, -0.2969381, -0.05639555, -0.17107798, 0.09004152, 0.14242196, 0.22645475, -0.45697704, 0.026397198, -0.39648983, -0.11722738, 0.56806445, 0.06358085, 0.5461149, 0.014253585, 0.0055456064, -0.3119751}; //layer 4 weights
float layer4Biases[] = {-0.0040468564, 0.0010013264, -0.0028626032, -0.00038423273, -0.0033693488, -0.00018818771, 0.0027762556, -0.0009521638, 0.017762627, -0.0003511465, 0.0018062198, 0.003684998, -0.0014773706, -0.00085815636}; //layer 4 biases
float layer5Weights[] = {-0.2949859, -0.41074196, 0.1546684, -0.6300414, 0.4938583, 0.35822693, 0.013765478, 0.4338253, -0.2321816, 0.014408796, 0.36870417, -0.058222372, 1.1758647, 0.104946494, 0.21442313, 0.91680855, -0.0064054546, -1.1212292, 1.1796575, -0.69127655, 0.10428144, -0.19980766, 0.6061751, 0.21223696, 0.056377124, 0.040797796, 1.1955086, 1.1268297, 0.39187607, -0.7002546, 0.06231364, -0.020317355, -0.014446545, -0.018247698, 0.021642221, -0.77706, 0.055799223, -0.7620746, -0.08980589, 0.38287035, 0.3429749, 0.7257158}; //layer 5 weights
float layer5Biases[] = {0.0030160786, 0.00023748376, -0.0024572434, -0.00066824985, -0.0031108016, -0.003849339, 0.0048345043, -0.0007697733, 0.017277827, -0.00048123233, 0.0013221671, -0.0037182104, 0.0019118562, -0.0004355984}; //layer 5 biases
float layer6Weights[] = {0.05378045, -0.061048843, 0.043296196, -0.002150419, -0.10354586, 0.043769773, -0.055061232, 0.008991919, -0.03934839, -0.025311982, -0.088584244, -0.0969747, -0.09196344, -0.04108734, -0.018369963, 0.012170506, 0.084078744, -0.013742134, -0.09062168, -0.11197953, 0.08439492, -0.023899058, -0.06889157, -0.10124406, 0.079653315, 0.10539683, -0.026692135, -0.052992415, 0.030865151, 0.10233822, -0.01573828, -0.050210778, 0.06971585, -0.070660844, -0.09306352, -0.021893846, 0.06584807, -0.102649584, -0.08651289, -0.11671378, -0.055982433, 0.028585808, -0.042606145, 0.018985672, -0.040090572, -0.12858184, -0.067755036, 0.08671527, 0.07356963, -0.00998115, 0.06832354, 0.044275545, 0.046223365, 0.004977016, -0.08601857, 0.06659803, 0.019977704, 0.091803394, 0.051324233, -0.098238505, 0.020614875, 0.06329666, 0.10938453, -0.009807504, 0.03316136, 0.021420598, 0.07276932, -0.08172706, -0.08789083, -0.03075698, -0.040547997, 0.097333305, -0.055025145, 0.092021294, -0.06965718, 0.06897295, -0.0024072712, 0.078522794, 0.070835054, -0.04038121, 0.0982292, 0.05575259, -0.073263206, 0.08666889, 0.011085401, 0.041683704, 0.09545815, -0.046251677, -0.04932899, 0.068667874, 0.10607517, -0.10593356, -0.029849235, 0.090523735, -0.049731392, 0.06765535, -0.029311746, 0.053064726, 0.017172458, 0.04129344, 0.018940503, -0.09186637, 0.038126368, 0.06346392, 0.017959643, -0.029903822, 0.11560221, -0.045501996, 0.0637027, -0.056283075, -0.068787426, -0.014450835, -0.081061915, 0.085369386, 0.10222777, -0.04691938, -0.06370864, 0.03975763, -0.02833506, 0.08124229, -0.03532611, 0.10034478, 0.101790816, -0.10584259, 0.088678, -0.059791826, -0.09548377, -0.024842875, 0.003073526, -0.00836159, 0.105107285, -0.057821743, 0.10962502, 0.07313657, 0.11205397, 0.04765857, -0.12779535, -0.011026999, 0.051394172, 0.0033946442, 0.047637053, -0.027371598, 0.085042305, -0.030199347, -0.00011894504, 0.06791572, 0.09257168, 0.034734067, 0.019421602, 0.042629935, 0.023641381, -0.1588865, -0.115214616, 0.013183949, 0.09379172, -0.01974072, -0.106849186, -0.0028497602, -0.05369375, -0.036398187, -0.00679495, 0.059505902, 0.05937872, 0.1271574, 0.035319936, -0.03258431, -0.018825155, -0.0016644195, 0.027222764, -0.056593068, -0.0022710855, -0.05627806, 0.09451351, 0.062835135, 0.06924739, 0.048419613, -0.014512884, -0.053207252, -0.07392242, 0.057428304, -0.004281894, 0.04598949, 0.08906361, -0.075865194, -0.0129881445, 0.004934171, 0.102785185, 0.029632736, -0.037275627, -0.042564508, -0.09886294, 0.026109083, 0.021104615, 0.09618629, -0.08329344, 0.071187034, 0.0151105635, -0.028945217, -0.023093741, 0.013139712, -0.055643514, 0.015511299, -0.079957515, -0.05513111, 0.053557437, -0.07177971, -0.0531841, 0.025514554, 0.09834804, -0.021113142, 0.061801072, -0.00017802924, 0.038026836, 0.104013875, 0.06457622, -0.004530685, 0.081742056, 0.07571192, 0.044006534, -0.10980399, 0.10538333, 0.057561718, -0.055960443, 0.030656224, -0.06787318, 0.088377565, 0.03793073, 0.09849209, 0.046074636, -0.100528456, -0.09829815, -0.051858924, 0.033899743, 0.053799864, -0.01908845, 0.057544146, -0.012332036, -0.08107429, -0.09886477, -0.02528694, 0.047218226, 0.052016713, 0.024931062, 0.08293462, 0.058867075, -0.058332417, -0.0035427078, -0.019555598, 0.10349374, -0.105298966, -0.045352194, 0.02566705, 0.078905016, 0.016982952, -0.06281599, 0.039731137, -0.0811035, 0.081603244, -0.05353291, 0.05727324, -0.07993469, -0.037982367, -0.028998151, 0.023378672, -0.07157502, -0.05366871, -0.08089994, -0.12786475, 0.049254175, -0.10390881, 0.014206594, -0.04723502, 0.050376125, -0.06700913, 0.053947482, 0.00942605, 0.081631, 0.07656905, 0.062838, -0.04119349, 0.04517275, -0.09711857, -0.040598102, 0.020476507, -0.02441003, 0.024303924, 0.090112425, -0.0813936, 0.062061958, 0.061306383, -0.05885493, 0.008383281, -0.093407184, -0.0072221453, -0.06915375, -0.09005086, 0.07829183, 0.025620451, 0.065251015, -0.03556707, 0.07385115, 0.012449516, -0.051045608, -0.08475702, -0.06504777, 0.07482855, -0.029185073, 0.028078696, -0.014138275, -0.086137, -0.085640475, 0.041362535, 0.02993111, -0.04771178, 0.03805863, 0.0052147624, -0.014262308, 0.026970107, 0.02452499, 0.037327915, -0.063595876, -0.08792789, -0.080319166, 0.08536452, -0.03247302, -0.08317918, -0.00916966, 0.0973695, -0.010364629, 0.020463532, -0.008665537, -0.07338841, -0.09988131, -0.07037644, 0.04089572, -0.039725795, -0.024637192, 0.037968528, -0.09592945, 0.10551799, 0.1033014, -0.014849152, 0.07112294, 0.048954718, 0.109678805, -0.025798349, 0.11846607, 0.08210451, -0.09608897, -0.03349404, -0.066150516, -0.06746718, -0.08740006, 0.03289182, 0.10253095, 0.03476548, -0.08904586, -0.038457666, -0.04827844, 0.03353121, -0.10485329, 0.06980541, -0.09747601, -0.07327263, 0.09414518, -0.023203578, 0.067627, 0.10930868, 0.082813986, 0.057607923, -0.08739403, 0.028085157, -0.013679037, -0.032782618, 0.092984974, 0.043156445, 0.064192496, -0.06253575, 0.0643903, -0.041064397, 0.092584856, -0.05697083, -0.11064357, -0.012809929, -0.0035660102, -0.06541472, 0.039587647, -0.02876069, 0.042676166, 0.016837362, 0.08134613, -0.07145116, -0.016032929, -0.11459474, -0.0103442, 0.02716525, 0.080472566, -0.019541038, 0.054138225, -0.040796395, -0.051718522, -0.1023641, -0.1067864, -0.083786294, -0.08568483, -0.10480755, -0.013581617, -0.06943894, 0.1282838, 0.049183432, -0.11799487, -0.016384989, -0.0896612, -0.09453329, 0.048278, 0.09518179, -0.099805094, -0.007562156, -0.07025759, -0.038081735, 0.022457324, -0.011728527, 0.047088455, 0.08537289, -0.07309735, 0.09058754, -0.032334473, 0.007675362, -0.063926406, 0.07339493, 0.08677575, -0.058740437, 0.05901614, -0.018567612, -0.080174446, 0.0721759, 0.026371937, -0.007973324, 0.04853008, 0.105657615, -0.093483776, 0.04975853, -0.01708859, 0.080893725, 0.043708477, -0.027825786, 0.10600323, -0.06592228, 0.006447428, 0.04869211, -0.0040461062, 0.010491633, -0.08367772, -0.005671676, -0.08454189, -0.09468468, 0.058954775, -0.03902079, 0.014577784, 0.10428408, -0.058385182, 0.059382237, -0.07701061, 0.041362952, -0.08547455, -0.07171329, -0.056541536, -0.0025501363, 0.033775534, 0.039981816, 0.01756975, 0.07609524, -0.077315696, 0.098288275, -0.09948238, 0.040078875, 0.09384551, 0.010006119, -0.06511287, 0.018480899, -0.007360848, 0.092348084, -0.05477273, 0.0793801, -0.05875966, -0.0736857, -0.05767854, -0.044946607, 0.009929257, -0.020282362, 0.07360522, 0.026692832, -0.034658276, 0.012069962, -0.0187431, -0.057799067, 0.11158063, -0.006532054, 0.053392254, 0.03184873, 0.097824514, 0.05770283, 0.03278112, -0.08111155, -0.00018161807, -0.034672797, -0.11007799, 0.09328284, 0.060422808, 0.10291283, 0.069236934, -0.09486242, 0.024547923, -0.056124933, 0.06518889, -0.0090134945, -0.07960836, 0.0022302738, 0.024170691, 0.088366754, -0.084637016, -0.01681886, -0.06951906, 0.07015105, -0.009580484, -0.015173894, 0.020629862, 0.06733017, 0.011387513, 0.008704793, 0.04240501, 0.0278068, 0.03897911, -0.009152259, -0.03465153, -0.072227485, -0.093364954, 0.05972192, -0.09073841, 0.05499197, 0.027966876, 0.110238835, -0.03319124, 0.20333388, -0.049264777, -0.024109535, 0.015861664, -0.10957025, -0.013408464, 0.0663767, -0.0024968288, -0.07925855, -0.045944836, -0.06686275, 0.008288017, -0.07959866, -0.10387785, 0.08969028, 0.06269243, -0.08127408, 0.031629436, -0.03041347, -0.07699188, -0.01989352, -0.05180204, -0.072133854, -0.024379043, 0.052301385, -0.047365803, 0.06897661, -0.0075607467, 0.08216941, 0.0463516, -0.0014623491, 0.030159967, 0.051004965, -0.032573655, -0.027546948, -0.091308296, -0.06009202, -0.041191015, -0.06776769, 0.098003484, -0.054825038, -0.084188536, -0.025907844, -0.10127944, 0.0082987705, 0.08267906, 0.0017552384, 0.10325684, 0.003320428, 0.018101746, 0.0050572637, 0.0619824, 0.06638439, 0.07811881, -0.002878622, 0.03014283, 0.040331565, 0.01753505, -0.058832962, 0.026560549, 0.0059168437, -0.017869117, 0.033258907, -0.10213798, -0.06966641, -0.0008053763, -0.046088275, 0.030684648, 0.09410152, -0.02316569, -0.06764077, -0.09840514, 0.10553898, 0.07696298, -0.029998312, -0.04376253, 0.08009724, -0.009673566, -0.049873017, -0.037754785, -0.0823126, -0.06509506, -0.07287558, -0.08517755, 0.09259127, 0.096623585, -0.044195216, -0.10403052, 0.0016082902, -0.104649566, 0.08806826, -0.010800561, -0.071276195, -0.08637183, 0.04258865, 0.046548713, -0.0626902, 0.045574512, -0.07199142, 0.0142626045, 0.010240239, 0.08795686, -0.09116488, 0.018181536, 0.04357582, 0.117837906, -0.059447475, -0.014515894, 0.030082213, -0.016867183, -0.108696304, 0.10182387, 0.005848684, -0.013999523, 0.0035034022, -0.052958254, -0.008919335, -0.021681597, 0.040665668, 0.00058155146, -0.07613677, -0.09619503, -0.013253155, 0.07351073, 0.028684366, -0.1082277, 0.06812345, -0.042977486, -0.025379227, 0.057005823, -0.03770149, 0.08372995, 0.019749591, 0.04284664, -0.04780218, 0.07635037, 0.01929335, -0.08241832, 0.016353624, -0.053781234, 0.090721354, 0.06189275, 0.02363512, 0.045123562, -0.005737676, 0.048929032, -0.006551208, -0.08800503, -0.092641756, 0.038256034, 0.10377118, -0.055223666, 0.10199017, -0.089268826, -0.12036444, -0.06265144, 0.06151312, -0.02834005, -0.00651944, 0.11360153, 0.08620263, 0.08554605, -0.075436, -0.026377896, 0.064705424, 0.08475016, -0.07348885, 0.03878409, -0.07898093, 0.089852825, -0.10349278, -0.03915881, -0.036785178, 0.075403616, 0.06528169, -0.057872135, -0.043259267, -0.10617271, -0.01824001, 0.09464889, -0.09175702, -0.06516817, -0.054659545, -0.060014974, -0.10574744, 0.0064440444, -0.09534162, -0.11890075, 0.07166956, -0.016595934, -0.089159735, -0.03407751, 0.07536421, 0.083037935, 0.080069005, 0.03632165, -0.012951139, 0.05530362, 0.11033431, 0.049777903, -0.08027543, -0.08633926, -0.062590614, -0.08348712, -0.08875891, -0.03846502, -0.06158142, -0.11069724, -0.07838975, -0.027159244, 0.072053246, -0.062451843, -0.049911298, 0.008372548, 0.027975738, 0.077857025, -0.03874184, 0.023225503, 0.09211061, 0.029151998, -0.087503254, 0.0010178654, -0.092056766, 0.10911208, -0.07547734, -0.0010475987, 0.09729158, 0.080111705, -0.0836291, 0.054060504, -0.051076077, -0.049039267, -0.03595649, 0.103639744, 0.09740627, 0.0746552, -0.0691951, -0.09491937, 0.051168326, -0.05803131, -0.11123004, -0.008401053, -0.050152034, -0.08784117, 0.045090914, 0.042336006, 0.05653908, 0.06718205, -0.0018563467, 0.03383465, 0.03755419, 0.082257845, -0.08743152, -0.019777142, 0.06405785, 0.027162118, 0.059263334, -0.056512516, -0.08415906, -0.08257461, 0.06950924, -0.016077928, -0.09552703, 0.06588406, -0.08847107, 0.08347833, 0.1040209, 0.057769466, -0.09223397, -0.076200716, 0.027633792, -0.109546594, 0.026394747, -0.023072936, 0.0044867103, -0.07794697, -0.017605443, 0.050968952, 0.089712836, -0.050350975, 0.080102235, 0.003241436, -0.07483248, 0.046986107, -0.09810602, 0.0641676, -0.06863917, 0.06909511, 0.043902423, 0.022114115, -0.053038694, 0.015907526, -0.11480198, -0.05664557, 0.012735783, 0.0825146, -0.06325853, -0.05362756, 0.0027225665, -0.012304818, -0.07231747, 0.10820818, -0.017309994, -0.07974526, -0.013558282, -0.10594727, -0.06765003, -0.0482161, -0.02280345, -0.028716393, 0.0076825405, -0.08042676, 0.08788993, 0.041210473, 0.061931837, -0.040694572, -0.026949106, 0.050513696, -0.008793573, 0.024051186, 0.10149252, -0.034662936, -0.06620651, 0.08391051, 0.039774172, 0.09895965, -0.040856484, 0.030187802, 0.087227084, -0.081757024, -0.08389162, 0.058901884, -0.07625193, -0.093367554, 0.08174385, -0.07693788, 0.031640008, -0.094417855, 0.008562229, -0.034954555, 0.04707592, -0.049159728, 0.035612598, -0.06973142, 0.012144862, -0.025001897, -0.048533477, 0.017526008, 0.048403457, 0.04230663, -0.046233416, 0.088086806, -0.07989926, -0.05267851, 0.051279757, 0.056454666, 0.018569164, 0.07112651, 0.10964012, -0.054258883, 0.08443753, 0.08635052, -0.052000538, 0.03276775, -0.03524133, -0.07835964, -0.042045917, -0.030704292, -0.065192446, -0.0636885, -0.015642555, 0.102016404, 0.07089492, 0.08103873, 0.002287037, 0.07296404, 0.09124498, 0.01973852, -0.0018693678, -0.047585823, 0.01430154, -0.07825348, 0.01350783, -0.088237464, -0.0111260805, 0.068192355, -0.037644755, -0.06615618, 0.09548613, -0.098258026, 0.073085755, 0.029448695, -0.19708599, 0.030596407, -0.08142217, -0.023801105, -0.07262888, -0.0934934, 0.041860644, -0.10335007, -0.077396266, -0.018288508, 0.055724807, -0.08825403, 0.061254367, 0.070681386, -0.019949872, 0.068835154, 0.09953241, 0.054772027, -0.101440504, -0.03129683, 0.08747598, 0.036710694, -0.014884066, -0.041327346, -0.08346425, -0.06402979, 0.08292908, -0.00825075, -0.08793599, 0.09621331, 0.05768129, 0.09156371, 0.11300371, 0.05276268, 0.04868081, -0.0953245, -0.06644619, -0.065016404, 0.045971632, 0.0844288, -0.00028281013, -0.053021748, 0.016886638, 0.026202677, 0.052331604, 0.07923235, -0.032477062, -0.11073672, 0.056657244, 0.056103956, 0.07714709, 0.07976715, -0.09298191, -0.059567843, -0.0009754811, 0.09620734, 0.059409972, 0.107944, -0.102538034, -0.08511632, 0.05292095, 0.061880484, -0.02460312, -0.02129348, 0.071637206, -0.025825763, -0.07172451, 0.05143515, -0.108927414, 0.095799, -0.110690564, -0.062123604, 0.06651685, -0.060976412, -0.010623022, 0.08854418, 0.103125155, 0.06981145, -0.0018482088, -0.035803486, -0.005400832, -0.051721036, -0.06613454, 0.09912795, 0.08603444, -0.09148977, -0.025812736, 0.01309418, 0.043697484, -0.056071896, 0.07205618, 0.06736767, -0.080511115, 0.005693148, 0.0060986406, -0.024467673, 0.10531069, -0.05261671, -0.066487655, -0.038917933, -0.0020661454, -0.09133743, -0.04363461, 0.011168075, 0.015986683, 0.04489056, 0.0062082745, 0.03223189, -0.05484291, 0.02345175, 0.09618846, 0.08287666, 0.09011868, -0.018772436, -0.04964663, 0.10070833, 0.08522372, 0.067838885, -0.019087218, -0.10324171, 0.12112312, -0.0114112245, -0.089016594, -0.05108273, 0.0328921, 0.09796618, -0.045158334, 0.114346154, -0.0662131, 0.09107964, 0.100540176, 0.04892678, 0.107412376, -0.062478337, 0.020972764, -0.059279818, 0.096522935, -0.08073325, -0.087817945, 0.06837002, -0.045476533, 0.019401202, -0.023808623, 0.0063635833, -0.09068846, 0.0044716713, -0.07212559, -0.0006320806, 0.00084060035, -0.09821484, -0.08292114, 0.002072313, 0.086199, 0.024348885, -0.04560971, 0.014662679, -0.06372546, 0.040668167, -0.006086199, 0.08947666, -0.049075257, 0.0043638796, -0.0059529208, -0.06608412, -0.10073186, -0.01819174, 0.035801996, -0.009733801, 0.11751935, 0.04555182, -0.026424015, 0.017764578, 0.0070507783, 0.00859302, -0.102821685, -0.10161052, -0.10043352, -0.041617446, -0.046367303, 0.026464686, 0.04649447, -0.091437966, 0.08445976, -0.019253861, -0.0026377188, -0.12279334, 0.017958233, 0.055485405, -0.07240693, -0.016991373, -0.104566336, -0.045841686, -0.07741702, -0.09348614, -0.0031571968, 0.10935872, 0.06888877, -0.06871621, -0.05624853, -0.04335391, 0.026317006, 0.08469255, 0.051693466, -0.014380137, -0.06187621, -0.10706069, 0.0721464, -0.050409526, -0.08418093, -0.04993603, -0.034046207, -0.1231366, -0.022393214, -0.06173195, 0.03724419, -0.029564755, 0.0044926787, 0.015511417, -0.044389315, -0.091460235, 0.026714126, -0.09706954, 0.07540983, -0.059243254, -0.11885562, -0.07048959, -0.016353073, -0.055539053, 0.031246468, -0.024079343, 0.033177346, -0.09885338, -0.03131575, -0.093401805, 0.10096603, 0.10147636, 0.026700882, 0.02754435, -0.017301828, 0.032490928, 0.083427876, -0.024864152, 0.10190532, -0.015686415, 0.051241398, -0.026669325, -0.015125531, -0.09800592, -0.07481962, -0.019081311, 0.054264016, -0.060866855, 0.071875975, -0.034677975, 0.036739435, -0.07082112, 0.005861332, 0.0036366545, -0.08663284, 0.06082113, 0.06707521, 0.05314275, -0.004155027, 0.008997861, -0.04400315, 0.096087, 0.03280129, 0.07963227, 0.09022394, 0.016965663, 0.011586572, 0.10706516, -0.04617701, 0.048201103, 0.078550264, 0.09398208, -0.0964182, -0.03604271, 0.104063004, -0.006848214, 0.05271467, -0.1056863, -0.014325233, 0.028342124, -0.01943954, 0.067488395, 0.050382808, 0.057258707, 0.07350903, -0.047625177, -0.03825078, -0.078986734, -0.085365355, -0.081827015, 0.04168803, -0.087279685, -0.021594118, -0.052302174, -0.10315869, -0.04037928, -0.04642437, 0.03852615, -0.029845499, -0.0813197, -0.0055159777, -0.07906419, -0.076041654, 0.077860266, 0.11437341, -0.053636193, -0.016412688, 0.09405136, -0.03224278, 0.08536901, 0.10922827, 0.026543135, 0.050904967, -0.09162312, 0.072114274, 0.031482387, -0.0004582079, -0.06347511, -0.027849892, -0.059182182, 0.014672049, -0.014795518, 0.030004786, -0.0014673519, -0.076155454, -0.0057406267, 0.10014557, -0.022245726, 0.04974087, 0.08751008, -0.10150049, 0.04245255, -0.044242386, -0.06663177, -0.079914026, -0.01373666, 0.05441765, -0.07285159, -0.03241405, -0.101216465, -0.08934743, -0.09255435, -0.083712175, 0.0034683335, -0.04995436, -0.047391597, -0.020302681, -0.008639334, -0.061941568, 0.11138727, 0.001506275, -0.0037080306, -0.07229615, 0.045824125, 0.09168394, 0.08024282, 0.1009837, -0.035370417, 0.024878006, -0.043938056, 0.03465413, 0.116792016, 0.0037369772, -0.07945548, 0.063201435, 0.07542653, -0.06755277, -0.044879023, 0.0016672862, -0.012911402, -0.052803196, 0.051838238, -0.011278436, 0.00624852, -0.12991291, 0.10473106, 0.046072442, -0.04686043, 0.07826745, 0.096086614, -0.078467354, 0.0429343, 0.09813587, 0.095504664, -0.08894487, -0.05173493, 0.07367573, 0.023021435, 0.07091573, 0.12520124, -0.043445308, 0.047218554, 0.036266644, -0.049675785, 0.045475233, 0.039639477, -0.080160014, -0.04342112, -0.08644775, -0.11560831, -0.036193125, 0.057058174, 0.03866512, -0.104952335, 0.048880454, -0.04261211, 0.06652261, 0.009169189, -0.11132097, 0.07908555, -0.07649731, 0.0342722, 0.002565929, -0.022964986, 0.011331629, -0.026034586, -0.081728965, 0.060581177, -0.11235997, -0.096958004, -0.09430401, 0.013422348, 0.032951254, -0.042631518, 0.0035122875, -0.04128962, 0.0426161, 0.04244744, -0.0765283, 0.00040340715, -0.035846956, 0.073566206, -0.064489774, -0.093501434, -0.08135409, 0.036484256, 0.12281847, 0.0384265, -0.1112846, -0.07894335, 0.013979774, -0.08837044, 0.0022954391, 0.0505548, -0.080376364, -0.07408944, 0.08692758, -0.055287074, 0.0251538, -0.06264407, -0.09698161, 0.038768396, 0.10901041, 0.009172858, 0.05662024, 0.07305749, 0.07169657, -0.071234, 0.032295004, 0.03451599, 0.10462174, -0.01388195, 0.0027940269, -0.010385615, -0.010518508, -0.086323224, -0.09940708, 0.05453955, -0.07623599, -0.09409001, 0.019766549, -0.06442307, -0.005095998, 0.05878301, -0.08715691, 0.073443316, -0.10570346, -0.078251205, 0.0013951192, 0.10482472, 0.06529813, -0.10875509, 0.05214213, -0.08913018, 0.06625027, 0.081717886, 0.042892028, 0.006554484, -0.07380471, -0.107715055, 0.016215684, -0.12072762, -0.08138301, 0.038596775, 0.04961298, -0.054701224, -0.11014159, 0.02191046, -0.09559398, -0.07143678, -0.10167474, 0.075411096, 0.05785379, -0.030302715, -0.06810135, 0.11967418, -0.057317957, -0.09430034, 0.04807972, -0.057295218, -0.07361326, 0.048908252, 0.044541415, 0.0018936496, 0.04560469, -0.056023806, 0.043147307, -0.06425743, -0.0134544475, -0.021060651, 0.06362284, -0.023351314, 0.1373915, -0.08108614, 0.08194452, 0.035275362, 0.1201129, 0.0109046325, 0.0682596, 0.044798594, 0.028348634, 0.08436887, 0.059643205, -0.0757264, 0.065433905, -0.005382842, -0.0995964, -0.06361049, -0.07597344, 0.05584808, -0.07188859, 0.022206463, -0.11603659, -0.07910345, -0.008759949, -0.08670084, -0.11646647, -0.0564532, -0.011306491, 0.008333328, -0.023747103, -0.10865253, -0.05688418, -0.08262532, -0.02503911, -0.03662151, -0.08034646, 0.0028402798, 0.09441978, -0.061292183, 0.010627395, -0.0120507665, -0.027973644, 0.09817157, 0.08261649, 0.010240472, -0.08636264, 0.11326747, -0.037796296, 0.057201743, 0.09997417, 0.083419316, 0.07282679, -0.07042421, -0.07772853, -0.013957258, -0.046544123, -0.10121534, 0.106849805, 0.082816444, -0.10408134, -0.12139363, -0.088477194, -0.04602667, -0.016109899, -0.019050617, -0.029545581, 0.090357825, 0.047201555, -0.09495613, 0.100121655, 0.056052793, -0.041778263, -0.08079358, -0.094847105, -0.018598605, 0.06460507, 0.012959764, 0.022602947, 0.11410884, -0.018864477, 0.01541879, -0.05703226, -0.0718375, -0.04041514, -0.041655034, -0.030898783, 0.0800148, -0.0747323, -0.05577637, -0.06235865, -0.084120534, 0.05861864, -0.08504389, -0.020629216, 0.054268487, 0.057520803, -0.01825455, 0.00494788, -0.036300015, 0.0013791289, 0.05442665, -0.002693424, 0.020725004, 0.032655817, 0.01443921, 0.068971716, 0.023126334, -0.059507724, -0.06534188, 0.03699319, 0.02293147, 0.0314745, -0.05220983, 0.09044636, -0.098379456, -0.03302286, -0.10261297, -0.059269305, -0.10297526, -0.0965478, 0.0010201146, 0.07895846, -0.026052212, -0.069385156, -0.07126359, 0.03423919, 0.007648754, -0.0022620198, -0.0022212786, 0.051015485, 0.04914172, -0.030258257, -0.0667902, 0.03978186, -0.053991795, -0.07511063, 0.06427533, 0.012447329, 0.008452365, -0.026013881, -0.04204205, -0.08495911, 0.039320745, -0.005889283, -0.006941115, 0.014574534, 0.061642233, 0.003118957, -0.015390686, 0.06762477, -0.02537398, 0.06338194, 0.050992273, -0.06364872, 0.05214943, -0.07894251, -0.116647, -0.091182604, -0.062349066, 0.057877045, 0.011303275, 0.056090575, -0.046620388, -0.102097355, 0.0023032401, 0.09862717, 0.095812425, 0.008950452, -0.08145832, -0.056623142, 0.043694787, 0.042366922, 0.013964155, 0.047218993, -0.039426852, -0.07045571, -0.055725355, -0.0060438355, -0.029590823, -0.08585595, 0.086252354, -0.097038746, -0.024118189, -0.07016984, 0.03879639, 0.04862342, 0.10987136, 0.031477496, 0.040005356, 0.04051088, -0.08707501, -0.03525982, 0.080643475, -0.0122486325, 0.076667175, 0.1008125, 0.060352262, 0.0676008, -0.0059029874, 0.11408979, -0.027761245, -0.06743311, -0.10142177, 0.06701283, -0.08921469, 0.061828513, -0.05493873, 0.08758935, 0.060282692, 0.054652996, -0.059335668, 0.007439166, 0.00473927, 0.022213845, 0.0426578, -0.031227957, 0.062317144, -0.08196534, -0.042202238, -0.040536623, -0.058049224, -0.029825987, -0.007862225, 0.04283646, -0.0053174975, -0.10922248, 0.031224238, 0.0684319, -0.12849997, 0.022837758, -0.059190664, -0.03785431, 0.048218083, -0.030279066, 0.09516555, 0.01380022, -0.013839239, -0.101899445, -0.016789874, -0.0255661, 0.04862314, 0.09032193, 0.02713556, -0.0719108, 0.10715287, 0.026434587, 0.06811942, -0.06289003, 0.035689767, 0.0492035, 0.021139015, -0.06834264, 0.04012894, 0.021352537, -0.011822085, -0.042250693, 0.014928103, 0.056961328, -0.03687321, 0.21030125, -0.041193165, -0.026478184, 0.014966275, -0.08577193, -0.072150216, -0.10172905, 0.09932646, 0.09849168, 0.09546126, -0.03781618, -0.05200977, -0.065672025, -0.09256728, 0.001344547, 0.037163656, 0.0063618715, -0.079409264, -0.037718225, -0.007991826, -0.11431101, 0.1102855, 0.007003873, 0.105267644, 0.1317204, -0.051199242, 0.026279973, 0.023059143, 0.0019734201, 0.018454367, 0.068725735, 0.013238332, -0.08570343, -0.06316974, 0.04045351, -0.0027956397, -0.06779093, 0.0944304, 0.09876671, 0.04721989, -0.07606248, -0.03456036, 0.016599163, -0.08108311, -0.06995121, -0.054376993, 0.06749967, -0.035620797, 0.027112624, 0.025842618, 0.095310755, -0.10336075, 0.002185769, 0.013379292, -0.010204073, -0.025963433, -0.06653881, -0.011393902, -0.094159, -0.0847098, 0.06833346, -0.07235348, -0.027897647, 0.010302997, -0.06564287, 0.00909927, -0.011402084, -0.05722005, -0.055083103, -0.065869056, 0.09289637, 0.06859158, 0.07186011, -0.1002843, 0.0147234965, 0.07954653, 0.053440515, 0.030413965, 0.083071895, -0.029434497, 0.006685654, 0.025881315, -0.10385907, 0.031922303, -0.107616566, -0.01590549, 0.03539507, 0.07179947, -0.017175581, 0.09149785, -0.0009900145, 0.10959706, 0.097536094, 0.10690894, 0.10715719, 0.10784558, 0.07446327, -0.059848648, -0.10459573, 0.04703452, -0.09097032, -0.08561285, -0.001017411, -0.102943696, 0.08308352, -0.04053768, 0.06393116, -0.02857736, 0.042132776, 0.016223881, -0.07297095, -0.082022525, -0.058656953, -0.07917109, 0.06775408, 0.045132972, 0.08948668, -0.006757027, 0.04662167, -0.01657403, -0.036175177, -0.07295565, 0.08736039, -0.089496344, 0.03844789, 0.022289751, 0.05199821, -0.034108095, -0.00019611348, 0.09073594, -0.03747834, -0.05116023, -0.007285679, -0.029461471, 0.0053481893, -0.075683855, 0.04195411, -0.0680972, 0.115957215, -0.0061642793, -0.109915905, 0.06200281, 0.010340466, -0.044575054, 0.034528762, 0.044247348, -0.085027546, -0.08835812, 0.021281091, -0.008290558, -0.03146222, 0.044185594, -0.10235534, 0.09291576, -0.11535865, -0.09542799, 0.09894948, 0.06372881, 0.033332, -0.073769495, -0.114295214, 0.09573197, 0.1087777, -0.0027491348, 0.042155262, -0.114721775, 0.026520113, 0.07849237, 0.055723734, 0.019543538, -0.059726402, 0.0012003034, -0.0339866, -0.040968195, -0.01457684, -0.059649315, 0.05988352, 0.10665815, -0.10252896, -0.014715732, -0.032693785, -0.10089659, -0.066968024, -0.0737933, 0.0033222951, 0.008381076, -0.087557994, -0.08189998, -0.102786615, 0.03874923, 0.035149027, -0.0755306, -0.09579586, 0.075444005, -0.0016649207, -0.1162643, 0.07380324, -0.01877309, -0.009070667, -0.07213838, -0.06942373, -0.055011127, 0.018188879, 0.09866015, -0.04278468, 0.003480982, -0.0043729967, 0.07531485, 0.10070593, -0.06756942, -0.030894719, -0.009463841, 0.048203424, 0.115509525, 0.09835118, 0.09621887, -0.031237002, 0.069157906, 0.05767965, 0.10024303, 0.018626006, 0.04751192, 0.058463827, -0.022329967, 0.07305218, -0.07084097, -0.0007326897, 0.07373032, 0.030928347, -0.028883547, -0.022801187, 0.10760271, -0.090794824, -0.08061123, 0.11275579, -0.032962784, -0.09340294, -0.065359876, -0.09781535, 0.06158018, -0.055994403, 0.045936998, 0.06919938, -0.06263082, -0.10606969, -0.031674873, -0.07791547, -0.07635852, -0.010854188, 0.05833506, -0.077693425, 0.04341049, -0.05250257, 0.090031005, -0.032294746, -0.092270374, -0.07800119, -0.094198704, -0.08704214, -0.013776738, -0.05445806, 0.005891407, 0.101477765, 0.10822599, 0.09041392, 0.05703978, -0.036566194, -0.105795756, -0.03150976, -0.04594019, -0.077802785, -0.117277786, 0.07468274, -0.09551811, 0.0059796562, -0.011514759, 0.06331338, -0.07913907, -0.07517208, 0.03072921, -0.084755644, 0.015810959, 0.095847875, 0.07539145, 0.014237164, 0.019918863, 0.06542735, 0.020305127, -0.095247924, -0.096970424, -0.07126494, -0.0070354403, -0.00298688, -0.03314457, 0.07603765, -0.1048834, -0.047737204, 0.05321433, 0.020974422, -0.051083226, -0.06716277, 0.056029323, -0.059689526, 0.037999753, -0.008091955, -0.068183064, 0.009929136, 0.039159916, -0.041248646, -0.03890314, 0.07292036, -0.09803461, -0.079707764, -0.003394455, -0.06492244, 0.07377439, -0.08705853, 0.083004, 0.018961648, 0.060379885, 0.06252731, -0.06748431, 0.01124121, -0.029255712, 0.093863785, -0.065252036, 0.1067075, -0.06045981, -0.0065487055, 0.014494509, 0.09274838, 0.04050251, -0.07039247, -0.07501886, -0.10647471, 0.025087895, 0.09991336, -0.004352038, 0.057092454, -0.007308513, 0.082697615, -0.017590668, -0.0005437614, 0.06270065, -0.082794085, 0.08851957, -0.06302757, -0.052542984, -0.0036468382, -0.12189785, 0.089663394, -0.067915514, -0.060790095, 0.060661055, -0.11048654, -0.05115729, -0.022247422, 0.05020833, -0.019339886, -0.07070229, -0.06524352, -0.055254694, -0.11754587, 0.031455647, -0.09277106, -0.062377308, 0.05614335, -0.09597928, -0.0627379, -0.097794004, 0.037441157, -0.0153715825, 0.080327354, 0.07432451, -0.02122495, 0.017115323, 0.028403841, 0.056886252, 0.0685331, 0.09933113, 0.03761172, 0.08390249, 0.07199979, -0.09532438, 0.062449757, -0.032244097, 0.04596138, -0.113097474, -0.08763639, -0.08569734, -0.054999992, 0.045809858, -0.13275692, -0.13225885, 0.06696023, -0.07463933, -0.045583393, -0.015731802, -0.034999505, -0.10473006, 0.046520367, 0.016416717, -0.074495226, -0.021122126, 0.0877509, -0.0983767, 0.10253061, 0.06684213, -0.0696279, 0.028132416, 0.09591751, 0.06486511, 0.0619393, 0.06576149, -0.0132942125, 0.044627376, -0.007522217, 0.013321953, -0.016493108, 0.07380616, -0.014252132, 0.018347476, -0.018816581, 0.018644253, -0.03658817, -0.09985085, -0.061063167, -0.09172871, 0.10482832, 0.025336761, -0.04917422, 0.11528858, 0.072074376, 0.024017278, 0.002497206, 0.03821802, 0.047331948, 0.041529946, -0.0044697816, -0.07731781, -0.079729155, 0.11620705, 0.10204961, 0.040702153, 0.054230575, -0.07817398, 0.037441738, -0.049750637, 0.013984999, -0.04862748, 0.09888942, -0.09162698, -0.036754865, -0.100830816, -0.0837205, 0.07730374, 0.03567989, -0.009057838, 0.062382672, -0.00845608, 0.09427569, 0.025191613, -0.028181823, 0.028549941, 0.055465847, -0.070674405, 0.033259824, 0.08232905, 0.03375875, -0.0009062079, -0.04470802, 0.043875005, 0.0751553, -0.031259097, -0.09412872, 0.06404904, 0.062766664, 0.08064404, -0.09051377, 0.014303615, 0.054313492, -0.025962943, -0.05793204, -0.070453115, 0.038231075, -0.020708641, -0.05799918, 0.029471185, -0.0483911, 0.050720736, 0.05889302, 0.027195366, -0.074465744, -0.08160099, 0.11942074, -0.07885447, -0.09872366, -0.10467427, -0.033649955, 0.056102242, -0.10225055, -0.07727735, -0.08313792, -0.0031761148, 0.054972783, 0.009225714, -0.036053985, -0.02296609, 0.053914987, -0.049611356, -0.11032649, 0.032024823, 0.017450396, -0.03926809, -0.046612844, 0.023223938, -0.046048146, 0.04084086, 0.025199281, 0.029213842, -0.09832815, -0.029658431, 0.071168974, -0.021283241, -0.052516315, -0.04078201, -0.13387766, 0.06421524, -0.03635596, 0.0046664774, -0.020743981, 0.011551857, -0.09372688, 0.019761717, 0.057271216, -0.027621452, -0.043745074, -0.014277454, -0.108887166, -0.06318618, -0.016226372, 0.09910666, -0.09321965, -0.08809304, 0.036961854, -0.034281243, 0.09557419, 0.1312873, -0.046708044, -0.0981381, 0.111471266, -0.03957356, -0.06689851, 0.101589486, 0.093555495, -0.040566057, -0.09093878, 0.047415, -0.087629855, 0.08968244, 0.061386455, -0.11135177, -0.06393021, -0.0587537, 0.04936883, 0.03397037, 0.0064135445, 0.0887485, 0.0050372626, 0.04420191, -0.10324074, 0.031576034, 0.07578797, -0.068810835, -0.07128289, -0.047422122, -0.054989137, -0.08541955, 0.028036896, -0.020892814, -0.06559775, -0.03232187, -0.029502572, 0.057762116, 0.0026510009, -0.08265433, -0.08616234, -0.014195589, -0.0132236555, 0.070832394, -0.119127855, -0.019389438, 0.04548061, 0.04704323, -0.08004375, -0.012746915, 0.043033835, -0.073384635, 0.110009685, -0.015197712, -0.061551884, 0.052568883, 0.0039469046, 0.03728622, -5.5810175e-05, -0.12124239, 0.043581378, -0.038450595, -0.05196261, 0.033189256, 0.058412336, -0.07559628, 0.072676875, -0.08101951, 0.07726376, -0.116968565, -0.04148014, 0.014273695, 0.076352306, 0.09197136, 0.0043966095, -0.075167306, -0.03467817, -0.028952062, -0.072970614, -0.080010794, 0.04207195, -0.078241885, 0.055148855, -0.04040517, 0.093745425, -0.07601635, 0.0029760683, 0.049383428, 0.005773874, -0.07653829, -0.015059733, -0.10114631, 0.051133987, -0.02798743, -0.06339486, -0.027566843, 0.056011237, 0.05748392, 0.0004547434, 0.07006549, -0.016941976, -0.0011902228, 0.055823058, 0.04789288, 0.10239261, -0.028595252, -0.0770696, 0.091343135, 0.031759795, -0.030863019, -0.10063013, 0.04629364, 0.0360415, 0.09247755, -0.045930356, -0.010618389, -0.09580654, 0.04773821, 0.005076736, -0.012227991, -0.059278265, -0.04454661, -0.037704613, -0.059906244, 0.044893105, -0.046790883, 0.08702304, -0.05109236, -0.01166648, 0.07372561, -0.034206178, -0.11665039, 0.016830094, -0.012111946, 0.01188312, -0.039023876, 0.022196151, -0.046326127, 0.09177293, 0.055316694, 0.09227934, -0.091421165, 0.07539943, -0.050725657, -0.051168744, -0.06320531, 0.0710382, -0.010660442, 0.06954283, 0.011751236, -0.013889692, 0.054154348, -0.007499188, 0.041663323, -0.015919516, -0.03057949, -0.10271406, -0.0270209, -0.033967555, -0.007885069, -0.09704739, 0.10327349, 0.062866166, -0.009236478, -0.08148183, -0.04465407, 0.000718617, 0.056053232, -0.029452903, 0.032695334, -0.041126058, 0.10986424, 0.034660034, 0.008752033, 0.014564972, 0.04371205, 0.11082409, -0.0064347074, -0.08458466, -0.05699673, -0.034552753, -0.074325494, -0.08140194, -0.051718123, -0.036101572, -0.07431571, -0.04516782, -0.041007876, -0.090028614, 0.05662782, 0.05097952, -0.099674515, 0.08879509, 0.049130782, -0.017765583, -0.0071799024, 0.045002405, -0.0008230385, 0.120998286, -0.10049487, 0.03954763, -0.05484633, -0.0988975, 0.0020189616, -0.079297334, 0.029577535, 0.07189605, 0.008827842, 0.091558084, 0.043895748, -0.06971767, 0.038203202, 0.08275623, -0.097596824, -0.006623729, 0.07042805, 0.0010592337, -0.037956074, 0.08483861, 0.099153094, -0.02079158, 0.023824312, 0.047946148, -0.00020092115, 0.09931977, 0.060632125, -0.09440863, -0.06902352, -0.11251993, 0.017010074, 0.01626489, 0.1025665, 0.10290652, -0.06469909, 0.11430852, 0.01641141, -0.07328406, -0.08272145, -0.09696894, -0.035244163, -0.021063704, 0.04088659, -0.0674101, -0.08060232, 0.06863716, 0.0063128173, 0.0073466212, -0.08553076, 0.08857283, 0.102054864, 0.03295876, 0.08764243, -0.010262572, 0.0050089783, -0.038536303, -0.06056172, -0.062320758, -0.105150715, -0.040906265, -0.12072115, -0.04019631, 0.054122187, 0.04020791, -0.053281143, 0.060882486, -0.056209806, 0.015954627, 0.055222847, 0.05566002, 0.08374405, 0.023453109, -0.09102522, 0.114855476, 0.0145636555, -0.058705922, -0.010981568, 0.03650054, 0.07277048, -0.06957505, 0.09795591, -0.07921475, 0.09297127, 0.043493427, -0.008991139, 0.09957779, 0.098725885, -0.076399244, -0.07417058, 0.02355395, -0.063232, -0.06379582, -0.06120774, -0.030853614, 0.05470562, -0.08538171, -0.04608329, 0.0629489, -0.08077039, -0.038992904, -0.09989874, 0.10808776, 0.010424937, -0.08294501, -0.06307551, 0.0053803385, -0.014352113, -0.055696636, -0.055081528, -0.07621708, 0.0048879823, -0.052461527, -0.02381877, 0.024750981, -0.08428843, -0.07490298, 0.03901361, 0.053665172, -0.033584002, -0.0051048575, 0.040600367, -0.047490124, -0.016583854, 0.10935692, 0.0716974, 0.054657124, -0.03498764, -0.03137886, 0.04061993, 0.06038421, -0.0137526, 0.094914906, 0.035267543, 0.049334414, -0.049986467, -0.047397736, -0.05941551, 0.07267953, -0.06632718, -0.017082535, 0.03457389, 0.11124649, 0.07867812, -0.025934016, 0.011866935, 0.06030681, -0.1101941, 0.036065724, -0.022866698, 0.08500307, 0.08523259, -0.04031727, -0.045855254, 0.039490674, -0.07062245, 0.04849796, 0.011311365, 0.03825761, 0.033179197, 0.045974374, 0.049865205, 0.041012704, 0.062427633, -0.044670362, -0.05126163, 0.06437918, -0.058121886, -0.003324177, 0.053782526, -0.061444655, -0.10150564, -0.06457345, 0.10522107, 0.015146921, 0.045936543, -0.081018135, -0.07187656, 0.070523396, 0.006118521, -0.07963286, -0.06871652, -0.0142412875, -0.01853493, 0.06760029, -0.019272178, -0.11496687, 0.071241245, -0.04335157, 0.113388486, 0.06603973, 0.0019032646, -0.048402723, 0.022625897, 0.08646543, 0.0907739, -0.10328797, 0.101647384, 0.04151572, -0.06986212, -0.07749958, 0.03361219, -0.09502258, 0.058298573, -0.123567745, 0.012197557, -0.103348315, -0.1064355, -0.015600179, 0.008402423, 0.029937996, -0.09612291, 0.088591136, -0.061079115, 0.01917999, -0.0034745373, -0.096578, 0.03304338, -0.0452686, -0.08577458, 0.06526433, -0.08302301, 0.030762265, -0.07847035, -0.020708896, -0.09312394, 0.036478486, -0.0049416474, 0.055443935, -0.03498595, -0.085235715, -0.061673902, -0.055875253, -0.0010732043, 0.07682852, -0.097620994, -0.05693581, 0.057041775, 0.054713417, -0.046931047, 0.09383165, 0.081969455, 0.06339658, -0.04413252, -0.07399238, -0.114330016, -0.003314423, 0.087758146, -0.012742365, -0.040358152, -0.04385916, -0.08450003, -0.06217666, 0.03305775, -0.03613804, 0.036219228, 0.04254491, -0.023498015, -0.0531158, 0.015462807, 0.019175524, 0.0884256, -0.041712422, -0.11104179, 0.0918101, -0.061693218, -0.050655507, -0.10781744, -0.09146596, 0.05129499, -0.0032308921, -0.047849927, -0.09779435, -0.075023085, 0.01092628, -0.09177763, 0.0055683847, -0.02303398, 0.017569697, 0.020174647, 0.07701575, -0.008113969, -0.09093099, 0.11106752, 0.11331186, -0.083305046, 0.023865493, -0.0044043334, 0.037904352, -0.019684194, -0.07696976, 0.043805033, -0.08753084, 0.08702992, 0.013193459, 0.027967842, 0.06870686, 0.09133032, 0.074220516, -0.07294365, -0.048962653, -0.04460536, 0.052796997, 0.09317754, -0.06270519, 0.03902517, 0.0225834, -0.10645988, 0.012176832, -0.023474671, 0.09833262, -0.1034961, 0.10398294, 0.031112121, -0.040738527, 0.031332597, 0.078251764, 0.007755489, 0.0008277026, 0.0016295962, -0.024249714, 0.048162386, -0.021008976, 0.025894022, 0.0922857, -0.09877351, -0.012776704, -0.012815798, -0.016456285, -0.027737953, -0.07984781, -0.06570164, 0.08998601, 0.08822096, -0.04378011, -0.07201165, 0.068694495, 0.07580928, 0.056860358, 0.072402425, 0.12955043, -0.10090185, -0.05172061, -0.04166804, 0.02451557, 0.10564398, 0.09623477, -0.099991105, 0.07932897, 0.042984724, -0.036630716, 0.10956456, 0.053384017, 0.02088295, -0.0564572, -0.06552658, -0.10876989, -0.05789017, -0.08498036, -0.025493609, -0.002750312, -0.0868525, -0.0027149047, 0.045079637, -0.047510386, -0.08951725, 0.025802635, 0.048212938, -0.08691064, 0.1117501, -0.013216914, 0.09894805, 0.051997393, -0.049057882, 0.10995545, 0.055363946, 0.07505236, -0.07436457, -0.049365375, -0.06413936, -0.09531491, 0.016082138, -0.045943428, -0.03560446, 0.087322064, -0.077373, -0.101003826, 0.091069095, 0.09495033, -0.019645764, -0.09894567, 0.06438567, 0.008101479, -0.025233993, -0.09889212, -0.06811334, -0.020184513, 0.058146436, -0.020667631, 0.02761113, 0.03916013, 0.03809094, -0.099470936, -0.014176734, 0.029641084, 0.08913328, 0.041162606, -0.10584503, 0.048294336, -0.046009853, -0.08587188, 0.105523676, 0.05774401, -0.024925197, 0.13234289, 0.051779114, -0.029944919, -0.05890155, 0.0057955333, -0.07623604, -0.08135946, 0.004638915, -0.07402647, -0.02307087, -0.07300904, 0.06002505, 0.005932546, 0.0007780622, 0.04451269, -0.084672414, -0.04613968, 0.100959994, 0.13597085, 0.024406988, -0.056674015, -0.008899368, -0.057213895, 0.016060047, -0.018061578, 0.081782565, -0.06711085, 0.097158045, -0.024443025, 0.020207409, -0.02775927, 0.052661855, 0.10304884, 0.105901405, -0.0634922, -0.06953535, -0.074728414, 0.0043471395, -0.113593966, 0.045729384, 0.02176071, -0.07067845, 0.14392163, 0.0007357999, 0.08829214, -0.07861846, -0.00603037, 0.067120574, -0.06280355, -0.07695988, 0.09265134, 0.07591591, -0.008761418, -0.11472508, -0.08080213, -0.084426135, 0.06867152, 0.081629224, 0.07070853, 0.08806263, 0.049953554, -0.007700323, 0.013266256, 0.007659372, 0.024502749, 0.030779213, -0.09095175, -0.074579515, -0.08495179, 0.07804366, -0.09330381, 0.061796248, -0.05428633, 0.061346117, 0.016052974, 0.10411335, -0.006061294, 0.0687973, 0.012610836, 0.018318472, 0.032307457, -0.024311177, -0.093903795, 0.011756381, 0.023777237, 0.058244422, 0.050518148, -0.10522449, -0.06663538, -0.086258285, 0.035664693, -0.03730634, -0.09917441, -0.11116052, 0.0018741878, 0.091255814, -0.0008203953, 0.038472302, -0.10061014, -0.006036788, 0.073555775, -0.029540198, -0.038956095, 0.092657275, 0.05591686, 0.08581576, -0.08428915, 0.017272465, -0.05430325, 0.09167431, 0.054011624, 0.09317363, 0.00092082674, 0.10143519, -0.005587116, 0.0074691446, 0.016087973, -0.10195682, -4.4753127e-05, 0.11076367, -0.0021484648, -0.08840898, -0.050624963, 0.011963904, -0.06788573, -0.048120193, -0.004947933, -0.022439767, -0.10312119, -0.015981946, -0.07015636, 0.071983725, -0.031641856, 0.020527031, 0.06697691, -0.026794406, -0.051002007, -0.022041354, -0.011858304, 0.017424744, 0.051476922, 0.11368744, 0.0075505762, -0.00011212556, -0.024354834, -0.08951361, -0.054347187, -0.11069705, -0.037265524, 0.083081976, 0.031883806, 0.015620276, 0.050892163, 0.10999252, -0.07500711, -0.023910264, 0.075680085, 0.10441295, 0.0986439, 0.0018595601, -0.08418012, 0.08074237, -0.084695645, -0.010605579, 0.06382434, -0.04278636, 0.017735878, -0.031546306, -0.0040509515, -0.026827667, -0.09689906, 0.04666595, -0.12985063, -0.079520226, -0.001361241, -0.03963783, 0.084740415, 0.09831482, 0.0963026, 0.071232036, 0.01172391, -0.1087532, -0.072359584, 0.073174246, -0.08664204, 0.04811548, 0.03486518, 0.05836264, -0.05404884, -0.031299725, -0.00038677774, -0.10959715, 0.062446877, -0.10516857, 0.06214374, 0.055851605, -0.032623637, -0.055545997, -0.0046898937, -0.06251166, 0.02235346, 0.05834442, 0.085345596, 0.01247934, -0.059867334, -0.016312767, -0.06368697, 0.08325628, -0.054183543, 0.055096533, 0.064500414, 0.10387604, -0.065537505, 0.06265129, -0.0634872, -0.07909684, 0.101093434, 0.03913912, 0.03677064, -0.1017455, 0.10700804, 0.05180522, -0.062420677, 0.056925844, 0.0328605, 0.048457835, -0.088056244, 0.09467462, -0.057252947, 0.00527543, -0.09341808, -0.048674777, -0.08478707, 0.014826334, -0.104531996, 0.058577005, -0.07366494, -0.043661542, 0.0720931, -0.040027097, -0.07246321, -0.047835592, 0.019425044, 0.0634434, -0.07905005, -0.025294704, 0.012310538, 0.035571124, 0.09043569, 0.06789134, -0.105920106, -0.05721227, -0.006920944, 0.09103884, -0.020990731, -0.107788615, -0.11057402, -0.07779324, 0.03881894, 0.0152973775, 0.08623331, 0.10470118, -0.026057877, 0.08812434, -0.071427934, 0.017337378, -0.11007049, -0.08847164, -0.010380549, -0.016050806, 0.003938137, 0.078496866, 0.057314325, -0.060354546, -0.022367636, 0.028778093, -0.045046505, 0.06629261, -0.088612586, -0.06918941, -0.07003092, -0.06931535, -0.013273585, -0.031240355, -0.059622284, -0.04157596, -0.08058111, 0.07920494, -0.058002446, -0.0264992, 0.01954197, -0.085526235, -0.058601078, -0.10144173, -0.017500162, -0.0621293, 0.010144061, 0.032939285, -0.07648705, -0.0702225, 0.03716236, 0.049940906, -0.026501253, -0.07085846, 0.08799956, -0.09966952, -0.06256818, 0.08581638, 0.0063555855, -0.09450522, -0.024378462, -0.03806953, -0.07710552, -0.05860781, 0.027669685, 0.09348148, 0.03407204, 0.020953877, 0.13589919, -0.073136844, 0.07979528, 0.008055914, 0.09738419, 0.046295904, 0.0054831947, -0.0554278, 0.0095542725, 0.014191191, -0.013649056, 0.0071872533, -0.13310383, -0.05124814, -0.09081592, -0.051133968, 0.06485897, 0.10008875, 0.08002488, -0.023380047, 0.052507695, -0.055864647, 0.06800837, 0.072670504, 0.02604336, -0.07880045, -0.109801866, -0.107355006, 0.09974208, -0.07609005, 0.107078455, 0.085140415, 0.054815598, 0.043284923, 0.046763614, -0.041231126, -0.0143769495, 0.0685484, 0.079300016, 0.045478225, -0.11274641, -0.10445406, 0.013668832, -0.067674264, 0.09695985, -0.016024122, -0.05621268, 0.08991418, -0.004614513, -0.008217227, 0.07548046, -0.014672107, -0.016715134, 0.082120605, -0.045104537, -0.06815971, -0.09187187, -0.06679659, 0.076366395, -0.037212107, 0.01693004, -0.06368469, -0.009755291, -0.05243215, 0.053175297, -0.057626836, 0.047318395, 0.03955797, -0.051668834, 0.10339306, -0.09489509, -0.08028572, -0.058697343, -0.09232398, 0.11578175, -0.011589981, -0.05800925, 0.0964891, -0.10551213, 0.017312521, 0.09720222, -0.09255086, 0.11913491, 0.0341948, 0.019013038, 0.10021602, 0.0063595176, 0.04871076, 0.021548154, 0.10494361, 0.11596715, -0.059695173, 0.053804297, -0.07201657, 0.032681696, 0.036167882, -0.09782661, -0.006775555, -0.0067310114, 0.008852977, -0.116269924, -0.06959109, -0.10882674, 0.013491772, 0.036571983, 0.085087076, -0.085767075, 0.012683481, 0.099699035, -0.11822819, 0.074578196, 0.10782566, -0.022586761, 0.0036182313, 0.09963081, 0.079169825, 0.12239684, 0.073375866, 0.07818751, -0.0947496, 0.067223735, -0.044092204, -0.057185624, 0.018550148, -0.0722879, 0.023257306, 0.096178755, 0.029859303, 0.028469278, -0.028086815, -0.03560897, -0.11198569, -0.057055708, 0.07270601, -0.08646128, -0.08281274, 0.029680876, 0.063892014, -0.056343976, -0.017251594, 0.014113437, 0.059493195, 0.101142794, 0.09378078, -0.04034807, 0.08483804, 0.07707683, -0.02426196, 0.045890804, 0.06310591, 0.1127735, 0.114847794, -0.030237881, 0.04353288, -0.08668259, -0.059530113, 0.084040985, -0.038939994, 0.0076675285, -0.009920672, 0.014389806, 0.09762899, 0.08479157, 0.03302327, 0.010814096, -0.06686516, -0.084387176, 0.00048647955, 0.0650044, -0.027127158, -0.09267297, -0.011283555, -0.004920118, 0.049097, -0.10748012, -0.114038296, 0.033508953, -0.11049522, -0.04965423, 0.056376625, 0.09261321, 0.1073049, -0.036063664, 0.08172703, 0.042159814, 0.094213806, 0.10569967, -0.020545248, 0.09609667, -0.028020041, -0.004267415, -0.06945207, 0.017914664, 0.0062458846, 0.07366556, -0.08292141, -0.032997336, 0.00855103, 0.052276757, -0.07599024, -0.06913017, -0.062095627, -0.06868489, -0.05668807, -0.024021365, 0.056782562, 0.016232299, 0.057030506, 0.033973154, 0.013171321, 0.0426031, 0.059008, 0.08155883, -0.08750727, 0.06597857, -0.025524598, -0.05217104, -0.0605421, -0.11020814, -0.022623947, 0.0147317415, -0.10165103, 0.093683854, -0.065526105, -0.06617398, 0.06364551, -0.07235704, 0.06474591, -0.031127965, 0.055005804, 0.0073756343, 0.06031258, 0.08399955, -0.046519145, 0.05016214, -0.060515847, -0.06365267, 0.010138337, 0.031158421, 0.09621873, 0.001675638, 0.037931476, -0.00070341857, 0.098661736, -0.0282361, -0.031285357, 0.03550356, -0.066531084, 0.013996608, 0.02652461, 0.0048002964, 0.040351238, -0.08018248, 0.090725966, 0.0016056563, 0.037230827, -0.04967414, -0.043158647, 0.06807907, 0.067219935, -0.05925547, -0.09174016, 0.061946716, 0.05884991, 0.045454185, 0.08765154, 0.10062152, -0.062276788, -0.07995665, -0.1103254, -0.03791389, 0.07382399, -0.08218134, 0.10338835, 0.0011720211, -0.07783118, -0.018669965, -0.006058738, -0.033468235, 0.051239572, -0.051955596, 0.04686856, -0.01828087, -0.084922336, 0.022600764, 0.08108091, 0.017921347, 0.062341757, 0.018802209, -0.04466644, -0.057490267, -0.05976119, 0.012369163, 0.022620287, -0.0031215656, -0.07242618, 0.025342803, 0.012047612, -0.0519041, -0.07971117, 0.010130025, -0.0036092093, 0.026747713, 0.08320032, 0.016233752, -0.005540663, -0.04615649, 0.09159118, 0.009012809, -0.014239627, -0.021903787, 0.086279005, -0.08573677, 0.072903804, -0.06429414, -0.069107376, -0.0038123822, 0.08827567, -0.07834286, 0.033289064, 0.016272234, 0.06724766, 0.0030227304, -0.0018544875, -0.07830623, 0.027804106, 0.027151195, 0.024761494, 0.025940984, -0.06497351, -0.07611839, -0.027693253, -0.0985254, -0.08892212, 0.06885164, -0.108838275, -0.049146604, 0.075729065, -0.10147076, 0.014786167, -0.01707022, -0.10934865, 0.037967227, -0.008728231, -0.06453252, -0.022300793, 0.049917374, 0.031130299, -0.012053235, -0.009558565, 0.053857677, -0.064356565, 0.07607471, -0.08093774, -0.06929785, 0.088116005, -0.02603737, -0.056876212, 0.06856917, -0.048139933, 0.052188, -0.02209487, -0.02720496, -0.061186362, 0.08302821, 0.011604906, -0.09731295, 0.07521556, -0.04663463, -0.007094531, -0.10952265, -0.048025664, -0.11269061, -0.0930527, -0.011190171, 0.031808753, 0.043319505, -0.11380076, 0.030122569, -0.043699346, -0.060770243, -0.019094853, -0.046615936, 0.050155234, -0.0026164877, -0.038970456, 0.072331235, 0.030651925, -0.0024574124, 0.005156817, -0.08445776, 0.07493671, -0.056182757, 0.1060116, -0.0814142, -0.005687047, 0.069097355, -0.05546596, 0.012915059, 0.028299099, 0.08326858, 0.10395287, -0.010954645, -0.049161203, 0.022058228, 0.06409829, 0.020124292, -0.020938829, -0.09330645, -0.031473562, -0.08604827, -0.05550675, -0.08840128, -0.041744087, 0.109963685, 0.1034462, 0.031399913, -0.052228555, -0.060132425, 0.027069218, -0.07475852, -0.10090811, -0.08432669, 0.032669384, -0.016096126, -0.08688049, 0.045029495, 0.04858339, 0.065962315, 0.0051220413, 0.03014511, -0.071949705, -0.0488236, 0.060751375, 0.024245143, -0.076312214, 0.087328844, -0.021650769, -0.026514988, 0.034433775, 0.034766562, -0.11827036, -0.11229128, -0.0038021312, -0.08898579, -0.053791683, -5.524807e-05, 0.1049392, 0.091207534, -0.096873984, 0.033523962, 0.039742418, -0.027866943, 0.065656126, 0.079653285, -0.05318806, 0.036113184, -0.112818465, -0.04830107, 0.044348024, -0.048999175, -0.046714757, -0.07808422, 0.044945296, -0.014108158, -0.019328404, -0.07446713, 0.106600426, -0.08446608, -0.02454415, 0.004096671, -0.10476605, -0.112144955, 0.09898654, 0.008374046, -0.044467837, -0.020977912, -0.08889717, -0.046675477, -0.11041827, -0.08690643, -0.05689309, 0.054472968, 0.029480038, -0.06183203, -0.102795914, -0.03690894, -0.10737446, 0.033107456, 0.10306485, -0.004898796, -0.0008638089, -0.07323923, 0.03369404, 0.07031945, -0.10131625, -0.025351115, -0.072448134, 0.10329142, -0.09816333, 0.06173877, 0.11736237, -0.010301879, 0.06260033, 0.01764865, -0.10309148, -0.04957247, -0.06037884, 0.042724986, 0.08635194, 0.1049663, -0.021063501, -0.06925418, -0.008191385, 0.06788374, 0.00010957653, 0.019546753, -0.09939236, 0.04800137, 0.05757546, -0.09651418, -0.010351602, -0.045808848, -0.030416042, -0.005506999, -0.095240876, 0.09569227, -0.09180065, 0.070948236, -0.017782524, 0.11463573, -0.092490196, -0.084744364, -0.08676268, -0.00543087, -0.047300097, 0.045504488, -0.053272787, -0.0920721, -0.09201824, -0.066534676, 0.046250567, 0.020235734, 0.07307144, -0.05231531, -0.012804151, -0.015479613, 0.06963478, -0.071703754, 0.02269176, 0.10181889, 0.06903212, -0.003556943, 0.011567986, 0.07806973, 0.023784366, -0.044576347, 0.09657059, -0.02671773, -0.019561261, 0.0964054, -0.00047576296, -0.06887604, 0.00067526725, -0.008390128, -0.06257555, 0.02408202, 0.021091662, 0.043194238, -0.0524586, -0.0024718768, 0.10526313, 0.028821694, 0.0064247563, -0.07646327, -0.0022111232, 0.029582538, 0.033533785, -0.06598337, -0.02722848, -0.11122245, 0.05166179, -0.05197986, 0.1093396, 0.04244946, -0.0949939, 0.07972283, 0.053286325, -0.00021947021, -0.10837247, 0.08952009, 0.09310289, 0.05190087, 0.0018488596, 0.09232382, 0.053900983, 0.08997028, 0.07746803, -0.07724472, -0.10029976, -0.11529223, 0.049842875, -0.063314684, -0.047321796, 0.0023196042, 0.09277641, 0.10252012, -0.07177256, 0.06880077, -0.05694663, -0.0025837002, -0.020487247, 0.018202787, -0.017183226, -0.0036679003, -0.0054336637, 0.011025549, -0.09788884, -0.104379624, 0.049901858, -0.04200638, 0.014832368, 0.035621267, -0.010551432, 0.052765626, -0.08013541, -0.094600156, -0.015484646, 0.052803893, 0.039542362, 0.064939365, -0.043518037, 0.053340178, 0.025001474, 0.08982413, 0.009893113, -0.08835505, 0.040610645, 0.11979683, -0.027630707, -0.0550558, -0.1047161, -0.011065115, 0.03156476, -0.016687835, 0.03557373, 0.058937047, 0.06560034, -0.0931114, -0.055248585, -0.08953806, 0.09841659, -0.08291427, -0.0068642464, 0.08880751, -0.012582063, -0.012938137, -0.02590967, -0.052611537, 0.08028806, -0.0001428607, -0.09814407, 0.04739365, -0.010195501, -0.097300306, -0.08378737, -0.03449937, -0.025704194, -0.040336095, 0.0862649, 0.04159544, 0.06707648, 0.018233918, 0.02959935, 0.033167504, -0.011791575, -0.041773133, -0.09842856, 0.041395627, 0.09249314, -0.07635034, 0.031351574, 0.061199997, 0.05034363, 0.07503071, 0.103820555, 0.0035019564, 0.011052064, -0.0606177, -0.012430358, -0.069865696, 0.03712281, -0.021951137, -0.10420299, 0.04638113, 0.023815213, -0.10752355, -0.071333, 0.11459398, -0.037462737, -0.016730346, -0.03337824, 0.03430548, -0.030881692, 0.07651137, -0.0645806, 0.086820826, -0.019627206, 0.06413956, 0.059550844, -0.051305648, -0.051221356, -0.031010931, -0.076347224, 0.027686678, -0.05645392, 0.03041683, 0.09005017, 0.04786725, -0.050360877, -0.07814523, -0.057947963, 0.009524888, 0.07689314, 0.08836665, -0.02041883, -0.024879053, -0.023634186, 0.084915996, 0.065705806, 0.07220834, -0.014228274, 0.10511699, -0.03685878, -0.09628892, 0.011339442, -0.09230729, -0.02020397, -0.0959142, 0.07896502, -0.007973672, -0.07502708, 0.0953117, -0.079370335, 0.0014937301, -0.06723573, -0.113553554, -0.046375204, 0.082953766, 0.05352117, 0.1061194, 0.04338113, 0.05806951, 0.10034338, -0.025034249, 0.0062167984, 0.05733665, 0.09423387, 0.07830007, 0.0022320626, 0.03202048, -0.04765895, 0.04822963, 0.08923936, -0.044297, 0.059527297, 0.08910002, 0.0001446318, -0.08756526, -0.09071422, 0.05262498, 0.03441076, 0.053654134, -0.0051789437, 0.054519955, -0.0123267025, 0.03900819, -0.008923447, 0.051623806, 0.06626114, -0.006464434, -0.025753751, -0.08896303, -0.030796288, 0.02847182, -0.07996275, -0.03678284, -0.07805067, -0.010222258, 0.104654126, -0.00055679376, 0.098997615, 0.063704595, 0.09415208, -0.063514955, 0.0014932796, 0.0077940333, -0.013058007, -0.014861039, -0.02634614, 0.0041848063, 0.035032324, -0.08973666, -0.0243364, 0.0073601245, 0.097262144, 0.001520586, 0.10732786, 0.038219355, -0.061388873, -0.009059244, 0.038842715, 0.017923446, -0.09028598, -0.0029052051, 0.092705436, -0.01752747, -0.0354214, 0.09018979, 0.036912676, 0.042858213, 0.039183576, -0.052157637, 0.072530456, -0.038674723, 0.09290565, -0.07299806, -0.089880586, -0.08860085, -0.050084017, -0.048754707, 0.024951892, 0.022637116, -0.06627038, -0.01778559, -0.082406215, -0.017218703, 0.107358254, 0.054638136, -0.0025487004, -0.041545823, 0.015461316, 0.020151444, 0.066509016, -0.042861085, -0.024894549, 0.07539989, 0.00942487, -0.066869, -0.07551875, -0.017932996, 0.045218777, -0.095368, 0.026073573, -0.08162048, 0.08474734, 0.077041194, -0.03278143, 0.017855102, 0.09580896, -0.035436437, 0.12149951, -0.035048343, -0.08552352, -0.008544912, 0.0411251, 0.13236164, 0.06733823, -0.015743079, 0.050088625, 0.033826575, -0.040565863, -0.025153931, 0.0778925, -0.076173894, -0.057990983, 0.1321755, 0.054963306, -0.027417464, 0.08159608, 0.0847938, 0.0027331212, -0.08751596, 0.048397947, 0.064887874, 0.076535344, 0.06608047, -0.07527856, 0.04165239, 0.02751883, -0.08567972, -0.0914304, -0.08193268, -0.12841806, 0.06890733, 0.08035791, 0.038413454, 0.044641394, 0.037075486, -0.08321433, 0.07756548, -0.06074429, 0.020692809, -0.0079647815, 0.0574524, -0.05962388, -0.01269728, -0.1166559, -0.06542891, -0.055394586, 0.03234889, -0.08658777, -0.100066684, 0.06222156, 0.014406158, 0.056174878, -0.020133223, -0.04238852, 0.005271486, 0.027071198, -0.0064686835, -0.122333065, 0.053672872, 0.069641374, 0.05030857, -0.10897545, 0.097680174, 0.038282502, -0.090607814, -0.0784606, -0.08678927, -0.10163916, 0.004461349, 0.0024617582, 0.0873364, 0.10925654, -0.032541152, 0.0037979106, 0.008226638, 0.00469629, -0.09491498, -0.023752194, -0.020581104, 0.008286349, 0.05869671, -0.021371987, -0.06689536, 0.086894594, -0.06661578, -0.008754255, -0.099159256, 0.0456086, -0.027720576, -0.031379987, 0.09279015, 0.09208022, -0.07194387, -0.07804504, -0.026670024, -0.027257234, 0.070111394, -0.11472498, -0.10797046, -0.08729479, 0.036137518, -0.09378204, 0.05067657, 0.08870193, -0.0018618471, 0.016819134, -0.059929818, 0.10501628, 0.10342378, -0.030954445, -0.0012955667, 0.083834745, -0.016844114, 0.07691455, -0.09325085, -0.096463524, 0.0036570157, -0.086569734, 0.014202284, 0.031919897, -0.055599418, 0.023793397, 0.047462042, 0.014620364, 0.057602957, -0.06862802, 0.0978199, -0.08252743, 0.12441238, 0.044796832, 0.08148579, 0.06167623, -0.056238644, 0.031761214, -0.048711892, 0.020768005, 0.04029295, -0.0016227377, 0.07058716, -0.028173205, -0.055568356, -0.08036188, 0.07329814, -0.016416546, -0.019215021, -0.10349956, -0.058814194, -0.033765618, 0.08409045, -0.00021225025, 0.013220264, 0.10660906, -0.07380564, -0.02972292, 0.08675782, 0.06636831, 0.049880587, -0.014735947, -0.019324284, -0.06287411, 0.09398993, 0.0184421, 0.034733217, 0.034077402, -0.006181561, 0.09054143, -0.08176235, -0.074221596, 0.0795846, 0.11068623, 0.06527641, -0.093025915, 0.098166704, 0.031097645, 0.090108335, -0.07639861, 0.033877525, -0.007827697, -0.050583627, 0.012489007, -0.063380025, -0.06699431, -0.018354936, -0.013460629, -0.11059663, -0.04793843, 0.023842497, -0.02183431, -0.0347459, 0.017858755, 0.00906893, 0.10300937, -0.0063785263, 0.01878918, 0.001185762, -0.0025439947, 0.047968283, 0.11375255, -0.03839007, -0.10839976, 0.017177077, -0.062595226, 0.07609621, 0.08214861, 0.0050645927, -0.003529563, -0.07060761, -0.020894986, 0.019858697, -0.026785802, -0.08686123, -0.083908714, -0.06504192, -0.10746618, 0.014738855, -0.048424605, -0.034268264, -0.08100419, -0.07783116, -0.08027707, -0.06596897, -0.015989145, 0.037164684, 0.05675789, -0.036341444, 0.037964676, -0.053326678, 0.024947044, -0.027275851, -0.033448845, -0.039033007, -0.058875106, -0.08340669, -0.09090186, 0.08125925, -0.0708986, -0.09212712, 0.111156836, 0.07571863, -0.09385061, -0.02315459, -0.011050307, -0.014365756, -0.07150891, 0.035225566, -0.09759111, -0.07556054, 0.051620975, -0.06241115, -0.07986243, -0.06272443, -0.06476667, -0.08792362, 0.00024265026, -0.10753613, -0.10428514, -0.071762756, -0.009686403, -0.082789674, -0.08248393, -0.009481249, -0.066372216, -0.0076773935, 0.02450577, 0.10671578, 0.012968576, -0.09865291, -0.08054811, -0.082085066, 0.045628566, -0.10886281, -0.040077537, -0.061748043, 0.053227942, -0.084483795, -0.009349342, -0.1014365, 0.08966966, -0.061572216, -0.104140066, 0.09355992, -0.040224522, -0.10944545, 0.08152335, -0.070305966, 0.096711285, 0.09358707, -0.019690637, 0.018102542, -0.12320814, 0.07337047, -0.004865585, 0.091331996, -0.052139416, 0.052998465, 0.05558194, 0.06631162, 0.116243, -0.024758535, 0.008557141, -0.07991409, -0.1126449, 0.010017057, -0.108474575, -0.0710109, -0.037593666, 0.07545282, 0.007241418, -0.011514249, -0.099545985, -0.055652246, 0.10278688, 0.08810375, -0.08657123, 0.051981993, 0.043702666, 0.05111243, -0.054605402, 0.00089681195, 0.082816795, 0.053197853, 0.067579396, -0.10074973, 0.05208868, -0.040766206, -0.08635853, 0.07124571, -0.047411613, 0.037515298, 0.051969513, 0.034970466, 0.002148414, -0.012529754, -0.06381306, -0.09795776, 0.1110092, -0.020424657, -0.08265959, -0.010893809, -0.01906836, -0.016825587, 0.016965702, 0.05384751, -0.0015821574, 0.037159104, 0.04862125, 0.018153144, 0.062377397, -0.06445886, 0.01455792, 0.039238956, 0.06302931, -0.022146283, -0.0885844, -0.048463386, -0.08072799, -0.02303356, 0.06647413, -0.09568982, -0.07993905, -0.08834785, 0.023706738, -0.086901285, 0.030214971, 0.021069258, -0.077088125, 0.053331435, 0.066277556, -0.024242202, 0.005493061, -0.012494803, 0.06086891, -0.08812072, -0.017386423, 0.025760459, 0.0092663225, 0.091731966, -0.009773431, 0.009072066, 0.07057997, -0.027678628, 0.03008949, 0.085792236, 0.07705096, -0.06433917, 0.09494228, 0.078909755, 0.07971708, 0.065913394, 0.05895433, 0.03366206, 0.047259405, 0.06207082, -0.031952374, 0.1386206, -0.037494536, -0.12740016, 0.0026537636, -0.03135701, -0.08586715, 0.070960574, -0.05816362, 0.05329053, -0.051632896, 0.08521726, 0.015453405, 0.0965809, 0.035979327, -0.00061801996, -0.055115066, 0.05739455, -0.07322173, 0.08030952, 0.0017620913, 0.073029704, 0.07674893, 0.022961626, 0.03869569, 0.019374767, 0.06572502, 0.0123423375, -0.06635278, 0.05794138, -0.0642034, 0.0701448, -0.064696446, 0.058583777, 0.020961022, 0.124194354, 0.09250516, 0.02593465, -0.027182084, 0.035200454, 0.1002312, -0.02655124, -0.054020334, 0.01836439, -0.0076816846, -0.044813916, 0.056165636, -0.111337915, 0.016006468, -0.021857107, 0.060601704, -0.0013474384, -0.11035338, 0.051087547, -0.09407052, -0.06888045, 0.066770405, 0.031226877, 0.07463595, -0.09052332, 0.012250502, 0.072163835, 0.009807112, -0.04684804, -0.092126556, -0.0892997, -0.021934494, 0.049279597, 0.01571592, 0.017214017, 0.06638331, -0.0799867, 0.0147606805, 0.05953413, -0.09292295, -0.018637232, 0.06843392, 0.07892952, 0.07331877, -0.08657974, 0.050977424, 0.03554693, 0.026001887, -0.021926126, 0.057118442, 0.10872193, -0.08419816, 0.067086145, -0.10591709, -0.09021177, -0.04734114, -0.058367793, 0.0045037833, 0.003101361, 0.00029229035, 0.06225395, 0.10636492, 0.104963675, 0.10519824, 0.029086307, 0.025079219, -0.034386, -0.038131908, 0.067537114, 0.073799856, 0.04048628, -0.02831562, 0.010620605, -0.07189181, -0.017377913, 0.10481003, -0.017926972, 0.050936963, -0.07240281, -0.11331407, 0.015460511, 0.09741233, 0.03645573, 0.08389918, -0.03735393, -0.0368709, 0.018925183, 0.08319548, 0.06354121, -0.08816716, -0.09922111, -0.0074433438, -0.036378335, -0.054023515, 0.007686972, -0.0836012, -0.03921126, 0.068791695, 0.06809358, 0.011044925, -0.005468691, 0.02703703, -0.10770428, 0.0063192993, 0.08680284, -0.096607774, 0.06415568, -0.05219339, 0.017627412, 0.011062816, 0.11417365, 0.11201117, 0.03280816, 0.12978116, 0.052898612, 0.07399141, -0.062000424, 0.005369079, 0.018529018, -0.035666876, -0.11109423, -0.0885252, 0.031899624, 0.058789868, 0.07663827, 0.067855075, 0.10676374, 0.08936231, -0.07941802, 0.04848395, -0.085963994, 0.029513763, 0.018017478, -0.01356909, -0.10846671, 0.079058096, -0.04591705, 0.07423179, 0.09199861, 0.0073697935, -0.08852781, 0.07285617, 0.0459725, 0.11181662, -0.0928033, -0.001050484, -0.016497647, -0.07634038, -0.00039983814, -0.013796235, 0.049290877, 0.05007537, -0.04562144, 0.104446545, -0.08911254, -0.03860609, 0.07970474, -0.08534065, 0.08162132, 0.10101448, 0.02271114, -0.00069896487, 0.022603644, -0.08442921, -0.036065895, -0.061147153, 0.10163788, -0.016432561, -0.10054869, 0.03209209, 0.08768623, -0.06485793, 0.083974466, 0.0045913975, 0.033571687, -0.035717085, -0.01610263, -0.02892166, -0.081658535, -0.04601468, 0.089056514, -0.014413681, -0.02963924, 0.06911742, 0.08623611, 0.07207234, -0.029662356, 0.12319195, -0.016599996, 0.0063787927, -0.041143566, 0.07352005, 0.082209125, -0.084875554, -0.11575908, -0.08157097, -0.07887961, -0.055476032, -0.019066023, 0.08274437, -0.0021761016, -0.08120953, -0.05815759, 0.11011459, -0.10904178, 0.06417608, -0.03829725, 0.014021043, 0.08087602, -0.011964573, 0.0028173677, 0.10196658, -0.04392971, 0.0784007, 0.032428022, -0.0124928495, 0.026313962, 0.095469005, 0.046360422, 0.09238471, -0.018203389, 0.06616517, -0.09649063, 0.011679935, 0.03200464, -0.04072987, 0.07842373, -0.03572977, -0.018497203, -0.054663986, -0.04920023, -0.00386093, 0.07525743, -0.0014056315, -0.10064382, 0.055256203, 0.033411976, -0.10664972, -0.0017307292, 0.09417142, -0.066057645, -0.05626493, -0.088490404, 0.0025841815, -0.047052216, -0.08345261, 0.0003187888, -0.11731471, -0.107391536, -0.01853046, 0.057368837, -0.070859045, 0.03811429, 0.0926138, -0.119640276, -0.021812605, 0.029156586, 0.07847944, 0.045866437, -0.021326864, -0.011753063, 0.032892033, -0.14657637, 0.07356759, -0.046990663, 0.10268721, -0.100931115, -0.029704321, -0.036660034, 0.05591634, 0.08145758, 0.09014808, -0.02640611, 0.060837686, 0.03768103, -0.14563206, 0.042023182, 0.050921448, -0.0097477455, -0.09285099, -0.08769639, -0.010846096, 0.06520745, 0.014194921, 0.046553265, 0.07666297, 0.06670955, -0.065693, 0.049347997, -0.00020122272, 0.025188202, 0.07447694, -0.08827621, -0.024365976, -0.06486302, -0.056461655, -0.0060940413, 0.020368773, 0.023997849, -0.078871444, -0.038220696, 0.077341765, 0.05134456, 0.014423521, -0.058942266, 0.09767601, -0.09297779, -0.09390676, -0.0058891615, -0.08061249, 0.0018006106, 0.07355712, 0.045167144, 0.051515657, -0.012449577, -0.051610902, 0.06956142, 0.10066504, 0.08579405, 0.07808235, 0.099741384, -0.04138979, -0.05060786, 0.10067483, -0.103757925, -0.08642391, -0.052838974, -0.062166583, -0.04140986, 0.08309239, -0.10015148, 0.0501626, 0.036397044, -0.04568292, 0.021777311, 0.08513616, -0.0038853742, 0.0020588278, 0.08043094, 0.10384729, -0.020893188, -0.088147976, -0.08563695, -0.07561765, -0.042121626, -0.04709708, 0.048306532, -0.092972174, 0.07768396, 0.046203393, -0.032191858, 0.042074054, 0.07660108, -0.120365, -0.02991673, 0.07699934, -0.041660156, 0.01631318, -0.07029489, -0.07848639, -0.0064933696, -0.04189677, -0.09266553, 0.09245239, -0.011523884, 0.047589988, -0.11108696, -0.11745041, -0.09352082, -0.09641606, -0.07846795, -0.03838518, -0.047786, -0.090155356, 0.01818231, 0.08656933, 0.0035194852, -0.099542126, 0.050693948, 0.01841289, 0.07907822, 0.06547724, -0.08659416, -0.093007974, -0.09589194, 0.008422189, -0.074769065, -0.019606445, 0.11969319, -0.07491647, -0.12752937, -0.04995392, -0.07918401, -0.07348922, -0.027649416, -0.11161303, -0.0070012524, -0.02871118, 0.009486203, 0.045202516, 0.105249844, -0.09341655, -0.0941184, 0.073662765, -0.005396711, 0.10077099, -0.0021691879, 0.053884417, 0.071986474, 0.010785095, 0.06767123, -0.084602125, -0.079907864, 0.031130798, -0.09827989, 0.07646005, 0.074640386, 0.06663876, -0.043630667, -0.042377993, 0.06272718, -0.07130771, -0.11350029, 0.076792166, -0.049137965, 0.04999535, 0.028803773, -0.107913755, -0.023123905, -0.08797075, 0.06717977, 0.020383859, -0.1103435, 0.035688512, -0.09605424, 0.059375767, 0.07210829, -0.11267262, -0.08787612, 0.070069976, 0.021488762, 0.07024347, 0.08319486, -0.024318488, -0.008591488, 0.07095376, 0.07013106, -0.091138236, 0.11440097, 0.0949921, 0.061793476, 0.053576015, 0.10396752, 0.046277445, -0.040369697, -0.03246425, -0.037170537, 0.071924664, -0.028206421, -0.040792007, 0.09095903, -0.059649445, -0.051547233, 0.10199669, 0.0015883165, -0.047731936, 0.04517291, 0.073057726, -0.0798175, -0.062554576, 0.041214664, 0.09095964, -0.004616418, 0.033057913, -0.08367309, 0.04862483, -0.076835044, 0.08857427, 0.07567485, 0.10990305, 0.025331875, 0.07126354, 0.027359698, -0.00539303, -0.12721336, -0.07974969, -0.027496811, 0.06410182, -0.001858358, 0.033338685, 0.09172027, -0.010618522, 0.013399928, 0.03691714, -0.03994397, -0.047424037, 0.039322257, 0.005423652, -0.02762392, 0.061173335, 0.04554512, -0.05435698, -0.0951284, -0.018634818, -0.07197299, -0.08902202, -0.0035331177, 0.048119035, 0.023647364, -0.06339163, -0.05782995, -0.05447555, 0.06456833, 0.03975979, -0.042682696, -0.10549036, -0.080513954, -0.07633427, -0.100805216, -0.0971264, 0.090914145, 0.029141681, 0.04171329, 0.02779912, 0.0767513, 0.044806857, -0.01565939, 0.038826026, -0.010700769, -0.08000575, 0.06894836, 0.11823066, -0.033556376, 0.06435033, -0.09365237, 0.052079547, 0.10594962, -0.087316334, 0.04126897, -0.0669635, 0.1125629, -0.011316436, 0.10764164, -0.10960767, 0.10717592, 0.011532364, 0.025216239, 0.06628562, -0.11504795, -0.09382018, -0.010812677, -0.05775577, -0.013821702, -0.11503773, -0.049220584, -0.06515532, 0.07625017, 0.01498627, -0.03496612, -0.04250557, -0.021883855, 0.07589205, -0.041654747, 0.11674447, 0.0064837346, 0.10268314, -0.07398414, -0.07085777, 0.036860157, 0.09303946, 0.09471083, 0.05312875, -0.08480731, 0.012604362, -0.078437746, -0.029089052, -0.016356308, 0.036420487, -0.06399625, 0.08135136, -0.007530184, -0.028797114, -0.10100246, 0.08555842, 0.092190474, -0.0005028446, 0.010981036, -0.048013467, 0.092833795, -0.0428477, -0.097726345, 0.018756555, 0.01849858, -0.10773106, -0.043214217, -0.124653965, -0.04831484, 0.07753666, 0.009736388, -0.03013156, -0.022078587, 0.019668538, 0.06795095, -0.07785814, 0.11113401, -0.036962222, 0.09233398, 0.10801874, 0.0120803695, 0.02392322, 0.050681993, -0.026835933, -0.07834942, -0.05006467, 0.035975326, 0.018196475, -0.032848787, 0.022660902, 0.013672652, -0.07946309, 0.043688852, -0.015343434, -0.08726105, -0.09223348, -0.08553562, 0.06166105, -0.08751461, -0.07833691, 0.068828814, 0.025479702, 0.02677356, 0.103247754, -0.04165549, -0.0246656, -0.029411118, -0.09571539, 0.019054348, -0.030655066, -0.05993738, -0.030316891, 0.03299986, -0.03650271, -0.006255435, 0.08194535, -0.088495605, 0.06469716, -0.05359937, 0.011233446, 0.069329575, 0.029250419, -0.1037327, -0.101392865, -0.05305593, -0.041571286, 0.02946202, -0.0282739, 0.104163215, 0.021376528, -0.04297746, -0.04711316, 0.05569119, -0.018372754, 0.09921352, 0.07526521, 0.100241326, -0.10548092, 0.007941893, 0.14677331, 0.03048131, -0.08592583, 0.09292215, 0.067637525, 0.04726251, 0.117910095, -0.025644308, 0.084603384, 0.0675232, -0.036812637, 0.0043604127, 0.07429168, 0.062688075, -0.019443398, -0.045091502, -0.059506595, -0.11238194, -0.011271881, 0.09515756, -0.06779732, -0.10212523, 0.001289483, 0.081622966, -0.046190776, 0.015480512, -0.006100509, 0.07702702, 0.10215259, 0.026558654, -0.060419023, -0.08630798, 0.049736694, -0.06308793, -0.08160289, 0.046934173, -0.018447373, 0.020022938, 0.09687643, -0.028274687, -0.0051161675, -0.07220021, 0.051346872, 0.028961467, 0.08101627, 0.11195547, -0.03748071, 0.0038397675, 0.077235624, -0.09367257, 0.041848015, -0.045169163, -0.104909964, 0.006614192, 0.11090735, 0.0024210827, 0.07246428, -0.06527738, 0.0019745533, -0.01805947, 0.033095777, 0.099766806, 0.06480025, 0.11534162, 0.062136363, 0.019586913, 0.013354024, 0.058613632, -0.040605936, -0.046738923, -0.076319285, 0.034324538, -0.016262459, 0.05832254, -0.016345987, -0.07226178, -0.10959806, -0.096626, -0.051259957, -0.11836891, 0.08070206, 0.049136985, -0.0430337, 0.074042365, 0.044928677, -0.13694054, 0.041721445, -0.03978386, -0.021197945, 0.08135974, 0.02539227, 0.06072276, 0.04335554, 0.13557453, 0.046566647, -0.010402051, 0.09339118, 0.05954566, 0.10664103, -0.04000353, 0.0014918783, -0.022344844, -0.11251696, -0.024691414, -0.027703447, 0.081371315, -0.07320741, 0.029547185, -0.053413972, 0.0069791987, -0.004363712, 0.035463806, 0.01694048, 0.08929955, 0.0023839935, -0.01382377, -0.007815166, 0.1072204, 0.0021584325, -0.05603123, -0.10237299, 0.10043139, 0.08484723, 0.101240166, -0.08084271, -0.045824137, -0.03877369, -0.009208345, 0.020780602, 0.009456687, 0.0521458, 0.0004359429, -0.07981309, 0.04202901, 0.010327479, -0.043687813, 0.10352024, -0.101288565, 0.027369505, -0.019394875, -0.02885309, 0.09663237, -0.061772168, 0.05022855, -0.08751073, 0.08758893, 0.061698712, 0.028336307, 0.059537787, -0.07110827, -0.07434514, 0.11006766, -0.05643216, -0.018117614, -0.072532944, 0.05221093, 0.008259693, -0.044530306, 0.030058503, 0.10235896, -0.06547164, -0.07618598, -0.053171817, 0.102880545, 0.0029933932, 0.050980315, -0.06348893, 0.105026506, 0.038938593, -0.05424439, 0.009071879, -0.058847487, -0.09534138, 0.020215388, -0.043523625, -0.083391964, 0.099305704, -0.0018442939, 0.06848919, 0.07516081, -0.039346952, 0.01485438, 0.065807186, 0.10671081, 0.033393845, 0.09074031, 0.04920597, 0.08692644, -0.060108457, -0.0804291, -0.043027688, -0.07447746, -0.018766772, -0.110902, 0.059453513, -0.03576921, -0.021834297, 0.09865729, 0.071687184, 0.045575585, 0.109153844, -0.057439953, 0.023221746, 0.034544483, 0.0014039536, -0.08668975, 0.06369212, -0.0014173475, -0.02044286, 0.08820413, -0.015254122, 0.029722977, 0.011019975, -0.120444775, 0.025993824, -0.020464284, 0.046951488, 0.11438163, -0.010559716, -0.09944999, -0.072398886, -0.04249714, 0.058545798, 0.048645753, 0.055277895, -0.089680195, -0.025726698, -0.0589099, -0.013663168, 0.089558296, 0.10756283, 0.05462245, 0.03241177, 0.04623112, 0.0515561, -0.10789592, 0.010083509, -0.078864, -0.0239523, -0.013863244, -0.06680157, -0.0973405, 0.100668274, -0.08749509, -0.024297325, 0.105852656, 0.03795177, -0.07385332, -0.08231789, 0.029123781, -0.065348074, -0.080779076, -0.09807957, -0.08421427, -0.02218592, 0.0011045176, -0.10372889, -0.026345069, -0.1160719, 0.05117665, -0.08187104, 0.04460851, -0.016145248, 0.03978536, -0.016000763, -0.03454596, -0.011907956, -0.06999748, -0.08434022, 0.004499788, 0.018635297, 0.007318478, -0.09986832, 0.089615904, -0.0056198286, 0.105120495, -0.06447016, 0.020856757, 0.11296668, 0.07454863, 0.05747008, -0.03295979, -0.04273458, 0.01908526, 0.107718565, -0.07668206, 0.04285822, -0.033883154, -0.10183293, -0.013419965, 0.07333181, 0.122308984, -0.08348683, 0.056564838, -0.00039448196, -0.02004878, -0.11282611, 0.025207272, 0.09696031, 0.09697021, 0.008595375, -0.06621224, 0.076231435, -0.04778555, 0.095668964, -0.065185726, -0.081176795, -0.027060146, 0.0795626, 0.05737952, 0.001977119, 0.008706591, -0.01689845, -0.089963526, -0.08382766, 0.009390931, -0.08009044, -0.06562872, -0.03743479, 0.03316146, -0.032134704, -0.07304247, 0.008581387, -0.017511062, 0.0833763, -0.054304045, -0.009119918, -0.027316593, -0.0011809709, 0.08034601, -0.031505775, -0.08758982, -0.08620024, 0.0065280576, -0.10455384, -0.0822901, -0.107656166, -0.10239609, 0.030072099, -0.093103565, -0.020890847, -0.0016854745, -0.087952845, 0.01992313, -0.041213796, 0.071583785, -0.03677801, -0.036584627, -0.082371734, 0.01943586, 0.060286485, 0.031852085, -0.03357538, -0.040557243, 0.008825443, -0.008538219, 0.030435586, -0.10442566, 0.04685997, 0.0474996, 0.07439117, 0.10344968, 0.103199534, -0.006651573, -0.06129378, -0.087014005, -0.084992975, 0.03691948, 0.09014827, 0.050374314, -0.04803898, 0.05720693, -0.07449762, -0.10155193, 0.024533192, -0.060782082, 0.06381871, 0.092074774, 0.01639611, -0.14076717, -0.08397164, -0.061324533, -0.09168329, -0.033617117, 0.102761835, 0.095877126, -0.05656381, -0.010981264, 0.073294386, -0.07532822, 0.059275337, 0.07134684, -0.061477166, 0.011046165, 0.09710396, -0.029478097, -0.030965965, 0.09922344, -0.030994786, 0.086243086, 0.10734543, 0.0040420727, 0.10792483, 0.099598914, 0.0006434285, -0.036336027, -0.043038756, -0.09803562, 0.095698796, 0.10780643, -0.09747331, -0.024159703, -0.09192697, 0.08540334, -0.04051207, 0.001348545, 0.022821888, -0.008106157, -0.012517783, -0.062102485, 0.10143672, -0.10485548, -0.043840915, 0.07607381, -0.03140943, 0.0057055075, 0.09736589, -0.060730428, 0.08019696, -0.05637053, -0.041835308, -0.057033703, 0.049760986, 0.0015000236, 0.022183849, -0.0191599, -0.04183, 0.047533832, 0.07637478, 0.0006104978, 0.10170962, -0.09791933, 0.059827913, -0.032432824, -0.048519325, -0.06263358, 0.047771305, -0.11015513, -0.03681492, -0.050238885, -0.034760077, -0.03851981, 0.099987, 0.016394105, 0.03264601, 0.025499811, 0.09276648, 0.077753454, 0.1039965, -0.034847654, 0.08855802, 0.10387899, -0.08714641, 0.10287175, 0.084044844, 0.047852807, -0.013991468, -0.09061991, -0.032178145, -0.08629671, -0.0037407656, -0.021406662, -0.039588846, -0.10390717, 0.09655946, 0.035101917, 0.047924843, 0.09848513, 0.068856224, -0.10241269, -0.09435359, 0.060413413, -0.107829265, -0.023613364, -0.040279817, -0.1831545, -0.08260287, -0.06517374, 0.04211717, 0.041440744, 0.030011985, -0.009613831, 0.09283376, -0.05714507, -0.0991993, -0.011097084, 0.04138535, 0.026281793, -0.0760825, -0.047754932, -0.045227483, 0.088062584, 0.04562062, 0.012861956, -0.06823317, 0.03402982, 0.038110834, -0.049174868, 0.039558202, -0.105264015, 0.06409453, 0.08786384, -0.08144172, 0.023845164, 0.047558293, 0.074250884, -0.07879983, -0.07189357, -0.037430726, -0.027338117, -0.103471994, -0.05035346, -0.08651337, 0.014157214, -0.0814115, -2.8589218e-05, 0.059770584, -0.025325889, -0.012633954, 0.02705574, 0.079581566, 0.10188457, 0.07245336, -0.1098011, -0.039394725, 0.03710408, 0.05686982, -0.08875289, 0.06706618, -0.05817092, -0.062393513, -0.01877529, 0.03624881, 0.07641333, -0.04283138, 0.019594554, -0.009368219, -0.09641775, 0.018592335, -0.07432679, -0.06872656, -0.04023842, -0.046035316, -0.020844521, -0.1124691, -0.00417884, 0.046607826, -0.025017897, 0.04459009, -0.05177262, -0.012483383, 0.02443851, -0.019001924, -0.027423536, 0.085506104, 0.028318387, 0.11377572, -0.09842514, 0.025741557, -0.0386793, -0.061282255, 0.06885153, 0.09184673, -0.042645242, -0.08126676, -0.08391874, -0.07106108, 0.047538467, -0.046636533, 0.100244716, 0.051239442, -0.06437051, -0.021168146, -0.012072089, 0.03876762, 0.096520014, -0.009521392, -0.029769152, -0.021070216, -0.05864272, 0.077863276, -0.10573988, 0.085254155, 0.05896408, -0.065478034, 0.05246454, 0.057563886, -0.057147197, -0.010448638, -0.035824176, 0.048395153, -0.06317915, 0.02610919, -0.052644122, -0.006870286, -0.03296203, -0.022252683, 0.01726528, -0.09006535, -0.0027358083, 0.092938475, 0.05676071, 0.05340834, 0.048217308, 0.09894853, 0.0425968, 0.059977595, -0.040574603, 0.009926578, 0.00900625, 0.031805746, 0.0070898053, -0.07980497, -0.01947819, -0.026818061, 0.106320806, 0.11477718, -0.044540927, -0.0039282553, 0.03867063, 0.0555331, -0.0778429, 0.028429836, -0.064981796, -0.041389827, 0.002745179, -0.035035443, -0.0048257345, 0.111440636, 0.13544127, 0.012206532, 0.105566815, -0.021486329, -0.054926038, 0.06669756, -0.0907507, 0.0018793786, -0.0424199, 0.022775024, -0.122568436, -0.09413704, 0.0069933934, -0.10052409, -0.018499313, -0.11353695, -0.0841709, 0.061180953, 0.092850536, 0.08670926, 0.057618566, 0.0680772, -0.083096474, 0.100633025, -0.11033478, -0.03505499, -0.015324727, 0.024726931, -0.013206973, -0.040849682, -0.013820178, -0.062479895, 0.08461186, 0.013160568, 0.061496865, -0.08039799, 0.05231399, -0.0024453932, 0.09213759, -0.027653331, 0.031938855, -0.018668024, 0.11070071, 0.094763525, -0.10831611, 0.015815008, 0.017615974, -0.016859379, -0.08817476, 0.061708298, -0.08611191, -0.10671386, -0.045527242, -0.03414642, -0.06931608, -0.07725675, -0.10262672, 0.019193666, 0.016707819, 0.04435509, -0.02147614, 0.10423489, 0.009763963, -0.069244355, 0.0056676003, -0.100418806, 0.07798423, 0.070357956, -0.088372976, -0.055023756, 0.008576455, 0.019247843, 0.056482565, -0.054962818, 0.048796896, 0.04447396, 0.044035748, -0.07008694, -0.038477648, -0.020502396, -0.027713146, -0.022504475, -0.009937845, 0.050239738, 0.064890414, -0.06370614, 0.101147756, -0.061806418, -0.059335586, -0.009289097, 0.08932707, 0.09328419, 0.038202807, -0.06593268, 0.07084246, 0.05388535, 0.1001834, 0.10301052, 0.09401769, -0.045964703, 0.08511558, 0.09088614, 0.006728237, 0.008459582, 0.07594513, -0.004599665, 0.011063848, 0.07823123, -0.058013055, 0.1063436, 0.02578533, -0.07014059, -0.09987597, -0.048792955, 0.07374879, -0.060911715, -0.1004865, -0.11364388, 0.098115824, 0.020932047, 0.100176655, 0.09185, -0.049397424, -0.08034685, -0.0851698, 0.015082201, 0.039244197, 0.022893354, -0.018358395, 0.016508091, 0.086620085, 0.04605049, -0.071564876, -0.11251486, -0.057511624, -0.022174029, -0.033185806, 0.05215982, -0.060511183, 0.09457989, 0.07636843, -0.0094455145, -0.023352241, 0.016506298, 0.10551573, -0.07434413, -0.11580549, 0.055269413, 0.029093223, 0.072829045, 0.07651352, -0.08990402, 0.04664781, 0.038967367, -0.010701874, -0.097592086, -0.0072248443, -0.10179578, -0.003744726, -0.02711695, -0.024030963, -0.030357625, 0.008311312, 0.06227625, -0.047204543, -0.010629446, -0.0334353, 0.013702067, -0.027662015, 0.002339149, -0.02818344, -0.082561284, -0.061754584, 0.055264518, 0.009903466, -0.093313456, 0.017302815, -0.017055776, -0.0022457251, 0.04860769, -0.09415396, -0.028963411, -0.08048812, 0.046082627, 0.10208007, 0.022284577, -0.039938927, -0.058342442, 0.009733285, 0.053796105, -0.021903297, 0.030641492, -0.100625396, 0.098400146, -0.08695095, -0.080560654, -0.012698263, 0.050288416, 0.08436649, 0.031150337, 0.102304585, 0.07979416, -0.07814274, -0.09330634, 0.015918808, -0.07996261, 0.040477358, -0.0009343329, -0.0075598294, 0.061549664, 0.0141403945, -0.07523257, -0.042503547, -0.1105801, -0.07171022, 0.06410358, 0.10636004, 0.051573474, -0.089157715, -0.04939663, -0.0027787073, 0.06149442, -0.07718897, 0.0717953, 0.07528997, -0.09602123, 0.09685776, -0.06750383, 0.013449084, 0.021343395, 0.10804961, 0.09545538, -0.09810575, -0.11168834, 0.09898291, 0.0038493357, 0.043758396, -0.04732062, -0.09796364, 0.036556426, 0.015301669, -0.026054902, 0.03446913, -0.06935088, -0.03970454, 0.090688616, -0.071242504, -0.06378113, -0.08572504, -0.09655478, -0.040280472, 0.08299581, 0.041919883, -0.043127697, 0.057437714, -0.0056445585, 0.040696323, -0.06295296, 0.034753047, -0.035604414, 0.08425389, -0.11863979, -0.12694472, 0.013161145, -0.09636441, 0.08863344, -0.035390805, 0.11232786, 0.08227845, 0.027524507, -0.0054554013, 0.023216514, -0.07540729, -0.01799121, -0.047830738, -0.06846984, -0.0262998, 0.0031645412, -0.09860122, 0.033054885, 0.028050307, -0.07982907, -0.0076075485, 0.0027275793, -0.08867604, -0.06622937, 0.06871653, -0.08415498, 0.091993414, 0.014911116, -0.09023692, -0.030173915, 0.09409326, -0.0065260604, -0.0061301463, -0.044236347, -0.088441454, -0.006276283, 0.06554053, -0.10824723, -0.089924745, 0.060855974, -0.0435253, 0.07751749, 0.07359088, 0.06040865, 0.057044476, -0.079578504, 0.032480218, -0.007503225, -0.03648821, 0.09183498, 0.10494391, 0.02668097, -0.08856977, -0.09818824, 0.009331173, -0.010307996, 0.03236261, -0.104364686, 0.1014183, 0.11061834, -0.08399605, 0.014400943, -0.07791034, -0.089691184, -0.057430852, 0.008374029, -0.047671728, 0.10230562, -0.10062837, -0.07453604, -0.02444818, -0.07842544, 0.0064466326, 0.037068266, 0.09106208, 0.029282948, 0.111570336, -0.08076554, -0.069191165, 0.0679124, -0.049570046, 0.03730314, 0.03598405, -0.008042248, -0.05755846, 0.0817372, 0.07148318, -0.1056223, -0.005054883, -0.041114222, -0.049979858, -0.0014422955, 0.06519486, 0.0037824148, -0.07703215, 0.010794735, 0.08812972, -0.00061709195, 0.06486853, -0.029394088, -0.069772445, -0.08695819, -0.008019943, 0.021960758, -0.09693753, -0.04771284, -0.012924702, 0.08703946, -0.021594835, -0.037148893, 0.04749037, 0.0059475596, -0.042185094, -0.0624445, -0.006914028, -0.0047771176, 0.047029693, -0.09840361, 0.058788918, -0.021122834, -0.005927685, 0.107981525, 0.08367586, -0.028991405, -0.079073995, -0.103064336, -0.049713336, 0.08000723, -0.021645837, -0.0030747724, 0.11107286, 0.11364702, 0.011918777, -0.097459465, -0.06885232, -0.042170417, 0.030115712, 0.034834933, 0.01536915, -0.08070883, -0.07028412, -0.09158552, -0.07745508, 0.053900328, 0.10892774, -0.07617028, -0.042924147, -0.09152465, 0.0057022693, 0.057171058, 0.08530638, -0.068467684, 0.10833917, 0.0131255, -0.036882408, -0.041434985, 0.0644456, -0.0665861, 0.08059776, -0.10914869, 0.04426933, -0.0155085325, 0.07529211, 0.07478974, 0.03723424, 0.05194806, -0.018084196, -0.121876545, -0.030872818, 0.083650485, 0.059346702, 0.0702772, 0.008787582, 0.081111036, -0.07695817, -0.027684864, 0.0038398558, -0.055015456, -0.07195285, -0.061182246, -0.0947338, 0.081514835, 0.008857758, 0.06332239, -0.05801533, 0.078159936, 0.0076217386, -0.032818604, 0.02135835, -0.086521484, 0.03473667, 0.10655737, 0.100930296, -0.103446454, -0.06086288, 0.055329982, 0.003411854, -0.10613183, -0.014240164, 0.004184136, -0.05937377, 0.06239086, -0.054908887, -0.098056704, 0.07858398, 0.10616539, -0.10170519, -0.010907038, -0.036605693, -0.057188194, 0.102586746, -0.0166374, 0.061405722, -0.09721445, 0.015642138, -0.009462804, -0.071849644, 0.012905461, 0.08651227, 0.045889013, 0.08520571, 0.03861662, -0.014118373, 0.017393366, 0.0655366, 0.067754835, 0.0058560506, 0.009572979, 0.0768551, 0.09889768, 0.10311661, -0.009465166, 0.030974682, 0.060897257, -0.07835547, 0.009632317, -0.050765134, 0.11144391, -0.06477442, -0.03800691, 0.09868935, 0.029548964, 0.08521853, -0.078753114, -0.052679203, 0.09081929, 0.06727841, -0.013562113, -0.06819007, -0.065607384, 0.07297415, 0.04697889, 0.10721136, -0.09481326, -0.08295061, 0.108356, 0.109547935, -0.11148067, 0.10222803, -0.00419186, 0.08218047, -0.027465876, -0.06737902, 0.07910253, 0.05851527, 0.03179834, -0.08240884, 0.038499754, -0.00010091205, -0.051174767, -0.08225704, 0.09597441, 0.053752854, -0.08859456, 0.06973394, -0.021175368, 0.09906541, -0.011817015, -0.008116845, -0.02734257, -0.020744368, -0.027840542, 0.02400396, -0.003913462, -0.042362034, -0.1115519, -0.0030807408, -0.05312932, -0.1254612, -0.014228858, -0.028897092, 0.07893687, -0.039012045, 0.034621064, -0.05449351, 0.08549499, -0.07415509, 0.10611968, -0.079909325, 0.08607478, 0.10459479, 0.011620327, 0.01995218, -0.07003664, -0.0020904557, 0.09827094, 0.06550798, -0.0714047, 0.07041634, -0.03213767, -0.08674359, -0.025316058, -0.04027104, 0.08675601, 0.04177466, 0.09135335, 0.09376144, -0.03558454, -0.10167145, 0.07019953, -0.02673154, -0.10545289, 0.057615988, -0.042945553, -0.10830721, 0.035065997, -0.09843351, 0.09806043, -0.087726496, 0.08591452, 0.03718779, 0.00029882597, 0.079006985, 0.06386557, -0.108293034, -0.10303692, -0.09374566, -0.08905492, -0.0327252, -0.012676705, -0.055170584, 0.021811517, 0.10139436, -0.108946815, 0.057010103, 0.001539024, -0.060962323, 0.03787112, -0.07479293, 0.055605706, 0.12056026, -0.021782514, -0.10004051, 0.12316167, -0.014108259, -0.076203525, -0.028230106, -0.0709144, 0.07647308, 0.011859502, -0.051717356, -0.014233787, 0.07225162, 0.02872868, -0.10871324, -0.033936072, 0.027609436, -0.0053719264, 0.21014667, -0.024343474, -0.05915089, 0.07720482, 0.015393924, 0.041813016, 0.0031432603, -0.02965337, -0.041756496, -0.058351934, -0.040458184, -0.1053409, -0.116132304, -0.010385982, -0.07347831, -0.080902204, -0.0339093, -0.01032418, -0.0030388366, 0.10997807, 0.07676151, -0.07236497, 0.008309717, 0.06981903, -0.04381423, 0.06425084, -0.031809967, -0.047971096, 0.021941151, -0.08028191, -0.060022324, -0.0020914595, -0.063295916, -0.027478121, 0.013325719, -0.070720084, 0.06934565, 0.015384998, 0.08755168, 0.01325556, -0.044149585, -0.06924182, 0.09769069, 0.08536407, 0.06727657, -0.012543936, 0.06886568, -0.07801833, 0.06821623, 0.07518218, 0.067765206, 0.007933201, 0.07359202, 0.05136228, -0.055052165, -0.051057693, 0.032328837, 0.10292652, 0.098233975, -0.005728321, 0.011016445, 0.016874757, 0.014554866, -0.06054825, -0.09794097, -0.013178972, -0.06896638, -0.0121365255, 0.10390901, 0.07756873, 0.037301432, -0.013253233, -0.05505046, -0.06903232, -0.084176466, 0.03668585, 0.09388112, 0.067847796, 0.03355536, 0.02423803, -0.0020260469, 0.103758916, -0.025449269, -0.06410447, 0.05202497, 0.047514994, 0.0876672, 0.07943239, -0.007870361, -0.0141371405, 0.07110734, -0.07407273, 0.001158249, -0.0968131, 0.09960423, 0.019172428, 0.038836274, 0.045884006, 0.03181755, -0.04414358, -0.08620272, 0.053250987, 0.07045379, 0.06260542, -0.034287374, 0.055102438, -0.09706119, 0.08853915, -0.06585046, -0.074668884, -0.11152698, -0.10950384, -0.08788634, 0.02565442, -0.040515307, 0.04490648, -0.07399225, -0.0030851744, 0.08648199, -0.042249724, -0.08414598, -0.10706933, -0.102192596, 0.016171962, 0.09234008, 0.10418528, 0.0164757, 0.02031936, -0.105790265, -0.032762483, -0.004949425, 0.067861654, 0.063535236, 0.07858393, 0.022092892, 0.040032156, 0.014983074, -0.077114284, -0.08219875, -0.09025759, 0.05318855, 0.0941806, 0.009770751, 0.013071386, -0.08231132, 0.054803584, -0.08939439, -0.100454755, 0.022710746, 0.044069346, -0.021801503, -0.027756192, -0.03821056, -0.09101186, 0.048855882, 0.013514902, 0.037844066, -0.0606234, 0.0153572885, -0.029424673, -0.026706079, 0.020713456, 0.079580784, -0.13161351, 0.0247268, 0.06973622, -0.036356136, -0.076926954, -0.086576454, 0.08175957, 0.06934696, 0.09358791, 0.046093766, -0.07396336, -0.08383267, 0.0046066167, -0.051769786, -0.076437116, 0.06160518, -0.08732447, 0.055106543, -0.10507524, 0.07541417, -0.0050736745, -0.06834906, -0.06297344, -0.080455825, 0.04189803, -0.05893377, 0.036937352, -0.041994154, -0.049442917, 0.09917575, -0.07432512, -0.07872631, -0.0047700154, 0.08399648, -0.026392438, 0.008757138, -0.032182954, -0.053340975, -0.09667737, 0.09475916, 0.06494991, 0.122172475, 0.024778957, 0.039246038, 0.028183527, 0.09765992, 0.06503703, 0.046166636, 0.12380144, -0.008733565, -0.0485281, 0.099956624, 0.07908694, 0.08975871, -0.066587575, -0.030996433, 0.087637745, 0.0660327, 0.07476892, -0.06245517, -0.025443232, 0.08682701, -0.0920171, 0.082953714, 0.10837193, 0.07243979, -0.048364494, -0.0057823947, -0.06018174, -0.015363335, -0.011254861, -0.028524026, 0.0892724, -0.05809167, -0.016636062, -0.010277438, -0.1103449, -0.04047189, 0.08871872, -0.049548104, 0.029101659, 0.056812998, -0.05724346, -0.08961245, -0.050974, -0.078309454, -0.050913703, 0.08118786, 0.051340222, 0.01847684, 0.0912661, 0.090081, -0.03715898, 0.025180355, -0.07995016, 0.080465816, 0.096736364, 0.035688274, 0.049989954, -0.057462014, 0.05018184, 0.034911275, -0.083386816, -0.030164892, -0.021703605, -0.056269493, 0.06496044, -0.098105706, 0.10726648, -0.021501599, -0.031522825, 0.04816697, 0.011892304, 0.014945663, -0.018809332, -0.09817671, 0.021657815, 0.083340555, -0.045958914, -0.0009479384, 0.06701655, 0.07368161, 0.12063854, 0.049637336, 0.08876568, -0.06574481, 0.020140335, 0.0032810133, -0.10780438, -0.04027583, 0.062226035, -0.030297352, -0.002668256, -0.11466673, 0.039835673, 0.09619028, -0.0076120985, 0.05051642, -0.034736767, -0.10966355, -0.068200834, -0.059254203, -0.09846132, 0.04350948, 0.056079417, 0.10097688, -0.050301693, 0.035530064, 0.10935065, -0.055409644, 0.055997055, 0.038193382, -0.056459308, 0.043035623, -0.101980634, -0.06012955, 0.047615968, 0.04407592, -0.06254531, 0.004899395, -0.010514225, -0.010427972, -0.038973026, 0.09898374, -0.07741269, 0.008605121, 0.054083653, -0.04220831, -0.118759714, 0.090489, 0.01934142, 0.01857808, 0.10010974, 0.09642894, -0.017291708, 0.018006185, -0.063129, -0.059971828, 0.05817503, -0.012651464, 0.06699922, 0.002543669, -0.05958329, -0.008134614, 0.08889791, -0.081832446, 0.08299982, 0.066475086, 0.015735555, -0.10682907, -0.006514897, -0.0024487409, -0.115263365, 0.059472296, 0.025536053, -0.034128297, 0.09708613, 0.03307712, -0.048703387, 0.09903396, -0.009473739, 0.09615712, 0.016615815, 0.029431911, -0.04723269, -0.03184138, -0.085216776, 0.09299783, 0.008423662, 0.09174962, -0.11282467, -0.056838263, -0.0853511, -0.066102475, 0.00737378, -0.08090904, -0.063426584, -0.04854686, -0.09537346, -0.05536364, 0.054472517, -0.114677235, -0.033487417, -0.051380012, 0.0039455667, 0.08677501, -0.008872234, 0.06436976, 0.12108789, 0.040798757, -0.026679484, 0.06975611, -0.021395257, -0.086723685, -0.039728437, 0.03506589, 0.03357167, -0.09564475, -0.0060309307, -0.024310367, -0.0010816734, -0.08848427, -0.012015213, 0.058394726, -0.012088009, -0.030771047, -0.10414233, -0.05743917, -0.06857001, -0.002398752, -0.09132701, 0.03190751, -0.09647009, 0.036559343, -0.055734944, -0.06465178, -0.017962823, -0.044931546, 0.076919936, 0.04324871, -0.040598612, 0.03964155, 0.06319546, -0.115041256, 0.095399804, 0.018566472, -0.09400058, -0.03683783, -0.11030721, -0.010551244, -0.03548971, -0.03449067, -0.0022886412, -0.008601871, -0.07641394, -0.06728488, -0.046893686, -0.08462378, 0.08500461, 0.0148278475, -0.02481937, 0.060899872, -0.012777055, 0.0021853927, -0.09013177, 0.0053730127, 0.08025222, -0.04197443, 0.11019148, -0.023081785, 0.032007694, -0.0034120122, -0.09571407, 0.110491484, 0.088069335, -0.040954538, 0.039403506, -0.025257466, 0.09255965, 0.11525587, -0.009149932, -0.009404751, 0.09337326, -0.06400245, 0.058689658, 0.065187626, 0.054898392, -0.074123405, -0.015452803, -0.027583295, -0.1082309, 0.009712467, -0.0032483435, 0.054118548, 0.007879358, -0.010774423, -0.09493445, 0.039651953, -0.06358859, 0.10395969, -0.01959202, -0.10913561, -0.056786183, 0.09739609, 0.0050925645, 0.07780565, -0.07135685, -0.013683194, -0.1067399, 0.05539676, 0.06471896, -0.009511051, -0.07493845, 0.028567208, 0.062688, -0.06142977, -0.069949016, 0.07694271, 0.06502477, 0.018943058, 0.09974167, 0.039267354, -0.026505958, 0.05705997, -0.09510997, 0.12453148, -0.058461685, 0.1106324, 0.016897509, -0.057835355, -0.054390576, 0.018044299, 0.046798225, 0.11355934, -0.092733815, 0.0061963308, -0.14141817, -0.017861117, -0.084909834, 0.02972094, 0.045458075, 0.08187712, -0.104554266, -0.00024335028, 0.03226379, 0.12075091, -0.042450733, 0.071266286, 0.05989589, -0.011534648, -0.060098056, -0.06984085, -0.06337489, -0.09773424, -0.06655257, -0.06129079, 0.047310103, 0.0954226, -0.07404186, 0.08641291, -0.09638261, -0.09501858, -0.104655504, -0.13502349, 0.0066317013, 0.0006129683, 0.03518081, 0.04237019, 0.06928789, 0.08865916, 0.009983745, 0.02753592, -0.056871574, 0.015540262, 